tree
version=v4
num_class=1
num_tree_per_iteration=1
label_index=0
max_feature_idx=246
objective=binary sigmoid:1
feature_names=Column_0 Column_1 Column_2 Column_3 Column_4 Column_5 Column_6 Column_7 Column_8 Column_9 Column_10 Column_11 Column_12 Column_13 Column_14 Column_15 Column_16 Column_17 Column_18 Column_19 Column_20 Column_21 Column_22 Column_23 Column_24 Column_25 Column_26 Column_27 Column_28 Column_29 Column_30 Column_31 Column_32 Column_33 Column_34 Column_35 Column_36 Column_37 Column_38 Column_39 Column_40 Column_41 Column_42 Column_43 Column_44 Column_45 Column_46 Column_47 Column_48 Column_49 Column_50 Column_51 Column_52 Column_53 Column_54 Column_55 Column_56 Column_57 Column_58 Column_59 Column_60 Column_61 Column_62 Column_63 Column_64 Column_65 Column_66 Column_67 Column_68 Column_69 Column_70 Column_71 Column_72 Column_73 Column_74 Column_75 Column_76 Column_77 Column_78 Column_79 Column_80 Column_81 Column_82 Column_83 Column_84 Column_85 Column_86 Column_87 Column_88 Column_89 Column_90 Column_91 Column_92 Column_93 Column_94 Column_95 Column_96 Column_97 Column_98 Column_99 Column_100 Column_101 Column_102 Column_103 Column_104 Column_105 Column_106 Column_107 Column_108 Column_109 Column_110 Column_111 Column_112 Column_113 Column_114 Column_115 Column_116 Column_117 Column_118 Column_119 Column_120 Column_121 Column_122 Column_123 Column_124 Column_125 Column_126 Column_127 Column_128 Column_129 Column_130 Column_131 Column_132 Column_133 Column_134 Column_135 Column_136 Column_137 Column_138 Column_139 Column_140 Column_141 Column_142 Column_143 Column_144 Column_145 Column_146 Column_147 Column_148 Column_149 Column_150 Column_151 Column_152 Column_153 Column_154 Column_155 Column_156 Column_157 Column_158 Column_159 Column_160 Column_161 Column_162 Column_163 Column_164 Column_165 Column_166 Column_167 Column_168 Column_169 Column_170 Column_171 Column_172 Column_173 Column_174 Column_175 Column_176 Column_177 Column_178 Column_179 Column_180 Column_181 Column_182 Column_183 Column_184 Column_185 Column_186 Column_187 Column_188 Column_189 Column_190 Column_191 Column_192 Column_193 Column_194 Column_195 Column_196 Column_197 Column_198 Column_199 Column_200 Column_201 Column_202 Column_203 Column_204 Column_205 Column_206 Column_207 Column_208 Column_209 Column_210 Column_211 Column_212 Column_213 Column_214 Column_215 Column_216 Column_217 Column_218 Column_219 Column_220 Column_221 Column_222 Column_223 Column_224 Column_225 Column_226 Column_227 Column_228 Column_229 Column_230 Column_231 Column_232 Column_233 Column_234 Column_235 Column_236 Column_237 Column_238 Column_239 Column_240 Column_241 Column_242 Column_243 Column_244 Column_245 Column_246
feature_infos=[0:1] [0:1] [0:1] [0:1] [0:1] [0:1] [0:1] [0:1] [0:1] [0:1] [0:1] [0:1] [0:1.0000000000000002] [0:1] [0:1] [0:1] [0:1] [0:1] [0:1] [0:1] [0:1] [0:1.0000000000000002] [0:1] [0:1] [0:1] [0:1] [0:1] [0:1] [0:1] [0:1] [0.034008228291632601:1] [0:1] [0:1] [0.019425387943214599:1] [0:1] [0:1] [0.012826368076733:1] [0.019113901892535999:1] [0:1] [0.0247910122362426:1] [0.0114978332373785:1] [0:1] [0.0150951657982836:1] [0:1] [0:1] [0.030819589099063401:1] [0:1] [0:1] [0:1] [0:1] [0:1] [0:1] [0:1] [0:1] [0:1] [0:1] [0:1] [0:1] [0:1] [0:1] [0:1] [0:1] [0:1] [0:1] [0:1] [0:1] [0:1] [0:1] [0:1] [0:1] [0:1] [0:1] [0:1] [0:1] [0:1] [0:1] [0:1] [0:1] [0:1] [0:1] [0:1] [0:1] [0:1] [0:1] [0:1] [0:1] [0:1] [0:1] [0:1] [0:1] [0:1] [0:1] [0:1] [0:1] [0:1] [0:1] [0:1] [0:1] [0:1] [0:0.74074074074074081] [0:1] [0:1] [0:1] [0:1] [0:1] [0:1] [0:0.72138453898769317] [0:1] [0:1] [0:1] [0:1] [0:1] [0:1] [0:1] [0.0226734415603819:1] [0:1] [0:1] [0:1] [0:1] [0:1] [0:1] [0.017040396150989501:1] [0:1] [0:1] [0.023345864056049399:1] [0:1] [0:1] [0:1] [0:1] [0:1] [0:1] [0:1] [0:1] [0:1] [0:1] [0:1] [0:1] [0:1] [0:1] [0:1] [0:1] [0:1] [0:0.37291046146642448] [0:1] [0:1] [0:1] [0:1] [0:1] [0:1] [0:1] [0:1] [0:1] [0:1] [0:1] [0:1] [0:1] [0:1] [0:1] [0:1] [0:1] [0:1] [0:1] [0:1] [0:1] [0:1] [0:1] [0:1] [0.0123749880589219:1] [0.0248390278544172:1] [0.0248390278544172:1] [0.0121611982267579:1] [0.025060094487886798:1] [0.0147092461331065:1] [0:1] [0:0.60005133530691201] [0:1] [0:1] [0:1] [0:1] [0:1] [0:1] [0:1] [0:1] [0:1] [0:1] [0:1] [0:1] [0:1] [0:1] [0:1] [0:1] [0:1] [0:1] [0:1] [0:1] [0:1] [0:1] [0:1] [0:1] [0:1] [0.010570415833860499:1] [0:1] [0:1] [0:1] [0:1] [0:1] [0:1] [0:1] [0:1] [0:1] [0:1] [0:1] [0:1] [0:1] [0:1] [0:1] [0:0.39840634743823727] [0:1] [0:1] [0:1] [0:1] [0:1] [0:1] [0:1] [0:1] [0:1] [0:1] [0:1] [0:1] [0.015267580318513101:1] [0:1] [0:1] [0:1] [0:1] [0:1] [0:1] [0.046604283493126397:1] [0:1] [0:1] [0:1] [0:1] [0:1] [0:1] [0:1] [0:1] [0:1] [0:1]
tree_sizes=2447 2772 3187 3399 3309 3090 3200 3297 3089 3190 3193 3179 3293 3187 3105 2998 2992 3099 2990 3304 3111 3427 3217 3215 3203 3320 3420 3211 3319 3215 3425 3432 3102 3305 3432 3300 3306 3435 3438 3441 3451 3448 3423

Tree=0
num_leaves=22
num_cat=0
split_feature=9 7 21 16 167 128 37 6 74 1 164 134 130 216 1 74 228 184 30 31 2
split_gain=155.134 54.1981 43.8937 42.5499 12.463 12.3258 11.988 11.9244 11.4813 10.4782 6.79877 5.74921 5.30995 5.09693 7.12424 4.20671 2.25393 1.30266 0.681638 0.167518 1.42109e-14
threshold=0.19334815482076564 0.1527294460855306 1.0000000180025095e-35 1.0000000180025095e-35 0.21426730029424571 0.079174461734277821 0.14604052502814727 0.56661436365807083 0.23525921553218548 0.034454443422435012 0.12107971217460207 0.23216260324607477 0.083379190478675563 0.051933389964857808 0.024860874745214704 0.078592145690608808 0.25730180894260807 0.041049363179572258 0.26562645356551412 0.16792538781395983 0.11551760868171937
decision_type=2 2 2 2 2 2 2 2 2 2 2 2 2 2 2 2 2 2 2 2 2
left_child=2 9 3 8 -3 12 -5 -7 11 18 -11 13 -4 14 -1 -12 17 -15 -2 20 -19
right_child=1 4 5 6 -6 7 -8 -9 -10 10 15 -13 -14 16 -16 -17 -18 19 -20 -21 -22
leaf_value=-0.17273406397963365 0.22735802255237419 -0.11211405086872338 0.20996271444228681 0.20830601843180241 0.077323490102871248 -0.095793278108093696 0.0033064540944497955 0.093993993708371568 0.0023062238781197744 0.069426935763423708 0.1106644973138719 -0.027246032513448988 0.079175768281260162 -0.11557805161791825 -0.028256366065297495 0.21709925110283557 -0.098642936844076642 -0.17273406397963359 0.18734881389917341 -0.15272945965303331 -0.17273406397963365
leaf_weight=5.498733937740325 28.743381947278976 8.2481009066104871 5.7486763894557971 5.2487914860248548 5.9986188411712638 6.4985037446022016 6.248561292886734 6.7484461963176727 7.9981584548950186 9.4978131651878375 5.9986188411712638 5.498733937740325 6.7484461963176727 5.2487914860248557 8.9979282617568952 9.7477556169033033 6.7484461963176718 20.745223492383964 4.9988490343093863 4.9988490343093863 4.9988490343093863
leaf_count=22 115 33 23 21 24 26 25 27 32 38 24 22 27 21 36 39 27 83 20 20 20
internal_value=0.0303472 0.142697 -0.045853 -0.0815277 -0.0323509 0.0680981 0.0968932 0.000890804 -0.110529 0.184975 0.136248 -0.124914 0.139338 -0.134297 -0.0830583 0.176553 -0.151677 -0.16162 0.221431 -0.169481 -0.172734
internal_weight=181.208 73.2331 107.975 82.2311 14.2467 25.7441 11.4974 13.2469 70.7337 58.9864 25.2442 62.7356 12.4971 57.2368 14.4967 15.7464 42.7402 35.9917 33.7422 30.7429 25.7441
internal_count=725 293 432 329 57 103 46 53 283 236 101 251 50 229 58 63 171 144 135 123 103
is_linear=0
shrinkage=1


Tree=1
num_leaves=25
num_cat=0
split_feature=9 7 21 16 76 127 128 6 74 1 229 110 8 130 87 232 242 243 72 218 74 97 30 31
split_gain=126.538 44.4099 35.7179 34.6171 11.0836 11.0612 10.0484 9.67966 9.40486 8.77556 6.20277 8.00691 5.21519 4.40235 3.82022 4.82437 3.78962 1.74691 0.682983 0.201926 0.0085311 0.00477592 0.00277173 0.000262884
threshold=0.19334815482076564 0.1527294460855306 1.0000000180025095e-35 1.0000000180025095e-35 0.057606487247949555 0.10976442043991892 0.079174461734277821 0.56661436365807083 0.23525921553218548 0.034454443422435012 0.13086108060856741 0.16325971110399423 0.24586562156705552 0.083379190478675563 0.15517759586928362 0.25097808722631293 0.091534849080857059 0.18218202827458693 0.20178485083563982 0.2551173311507034 0.083364553176795461 0.15626723978883691 0.24078252212947007 0.095352659653725455
decision_type=2 2 2 2 2 2 2 2 2 2 2 2 2 2 2 2 2 2 2 2 2 2 2 2
left_child=2 9 3 8 -5 -3 13 -8 12 18 16 -12 14 -4 15 17 -11 19 22 20 -1 -22 -2 -23
right_child=1 5 6 4 -6 -7 7 -9 -10 10 11 -13 -14 -15 -16 -17 -18 -19 -20 -21 21 23 -24 -25
leaf_value=-0.1896834815744918 0.17966354833217205 -0.14026966203882421 0.16347776492329835 0.15461129999871109 -0.042389313998758338 0.036395462128008892 -0.11376550982113776 0.057400779543997062 -0.025230655376578467 0.068052549035786086 -0.046148965191402935 0.12698304613840908 -0.064839906772748965 0.044007302183966784 -0.086273408622775799 -0.069166600685394736 0.17590417957420304 -0.1341665053533857 0.13983047034506982 -0.16540416697757609 -0.18789699588488074 -0.18413613656412273 0.18226721138949575 -0.18514150615397815
leaf_weight=9.7098557502031344 23.445706069469455 7.4793560206890088 5.6870914846658724 5.9596066921949369 5.4838341772556305 6.7358143329620361 6.4851110577583295 6.7351129353046417 7.9999895095825186 4.9751645177602795 5.4856647104024869 5.2065112143754959 7.9705006033182135 6.7394323647022247 7.7200210988521567 4.9799437373876563 9.4389003366231901 8.9632850736379606 4.9400267004966727 4.9669030904769889 7.7152537703514126 5.4591771960258466 4.9522924423217765 4.9673635363578796
leaf_count=39 95 30 23 24 22 27 26 27 32 20 22 21 32 27 31 20 38 36 20 20 31 22 20 20
internal_value=1.73798e-05 0.101964 -0.0688615 -0.101112 0.0602062 -0.0565574 0.0341219 -0.0265639 -0.127315 0.140521 0.0958684 0.038157 -0.140392 0.0986839 -0.151444 -0.162204 0.138678 -0.173293 0.174148 -0.183979 -0.187291 -0.186011 0.180118 -0.184615
internal_weight=180.202 72.6594 107.542 81.8957 11.4434 14.2152 25.6467 13.2202 70.4523 58.4443 25.1062 10.6922 62.4523 12.4265 54.4818 46.7618 14.4141 41.7818 33.338 32.8186 27.8517 18.1418 28.398 10.4265
internal_count=725 293 432 329 46 57 103 53 283 236 101 43 251 50 219 188 58 168 135 132 112 73 115 42
is_linear=0
shrinkage=0.1


Tree=2
num_leaves=29
num_cat=0
split_feature=9 7 21 16 233 37 20 87 128 160 149 1 196 47 79 155 31 243 99 230 232 218 242 0 72 110 30 27
split_gain=104.255 36.9051 29.3613 28.4857 9.64987 9.63414 8.26006 9.3072 8.25467 8.14353 7.74437 7.66778 5.77117 7.61871 4.80627 4.46159 3.55197 6.92938 1.1922 0.685379 0.658678 0.0248717 0.00895956 0.00620614 0.00248701 0.00173794 0.000475347 7.10543e-15
threshold=0.19334815482076564 0.1527294460855306 1.0000000180025095e-35 1.0000000180025095e-35 0.11347300283362231 0.15568508891057603 0.65930346486149471 0.1831737357665553 0.079174461734277821 0.15906409301141933 0.21425674144436355 0.034454443422435012 0.05529225638465441 0.14705656620079546 0.040905341391503362 0.067804938071246212 0.15381044647031131 0.15567345170526933 0.40361150336952617 0.20472298661434898 0.054932542168773961 0.057028734023273756 0.091534849080857059 0.059851186948128854 0.19039827885823618 0.10342547033102752 0.22572115211478186 0.10215735811502506
decision_type=2 2 2 2 2 2 2 2 2 2 2 2 2 2 2 2 2 2 2 2 2 2 2 2 2 2 2 2
left_child=2 11 3 6 -3 -5 7 16 15 -10 -9 19 -13 -14 -15 -4 18 -18 20 24 -1 -22 25 -24 26 -23 27 -2
right_child=1 4 8 5 -6 -7 -8 10 9 -11 -12 12 13 14 -16 -17 17 -19 -20 -21 21 22 23 -25 -26 -27 -28 -29
leaf_value=-0.13582004212946033 0.16656297813100374 -0.11208975437153056 0.040484817143325885 0.14372721570453473 0.060877172231696398 -0.040613684472447335 0.0048525389791486467 -0.11534282631568725 -0.10431060277150686 0.053162960510108749 0.049234062805424 0.17643062098132004 -0.032812326779866681 0.17378242321647686 0.051881969525419784 0.16339939633876921 -0.16493754858352219 -0.033731303586354788 -0.1165558428783893 0.12637250030219013 -0.18139260104130328 -0.17000481894546002 -0.17305378091037343 -0.17780299348846421 0.1692516652516185 -0.17261848300583571 0.16768334761283923 0.16656297813100407
leaf_weight=5.1329056471586254 5.758203864097605 9.1625428795814496 7.3353339135646838 5.8686213791370374 4.9778323769569388 5.4847897738218307 5.2169558107852927 6.7169865071773511 6.4447290599346143 6.6958972960710526 4.9783725738525391 5.6250292956829098 5.9442873001098659 5.605488106608389 7.6466028243303299 4.9432229250669479 8.8094466179609316 7.4117151200771323 5.128480225801467 4.8157917708158484 4.9376847147941616 4.8442773073911685 5.3629202544689161 5.6508238464593887 5.0764544755220404 5.3580389022827148 4.8136694580316535 11.996258050203322
leaf_count=21 24 37 30 24 20 22 21 27 26 27 20 23 24 23 31 20 36 30 21 20 20 20 22 23 21 22 20 50
internal_value=3.60055e-05 0.0934785 -0.0627348 -0.0921911 -0.0512003 0.0546728 -0.116166 -0.12598 0.0310163 -0.0240689 -0.0452873 0.129193 0.0873535 0.0612517 0.103445 0.089969 -0.143909 -0.104987 -0.161247 0.161187 -0.168572 -0.175 -0.173513 -0.17549 0.167252 -0.171377 0.166802 0.166563
internal_weight=177.743 71.4222 106.321 80.902 14.1404 11.3534 69.5486 64.3317 25.4192 13.1406 11.6954 57.2818 24.8214 19.1964 13.2521 12.2786 52.6363 16.2212 36.4151 32.4604 31.2867 26.1537 21.2161 11.0137 27.6446 10.2023 22.5681 17.7545
internal_count=725 293 432 329 57 46 283 262 103 53 47 236 101 78 54 50 215 66 149 135 128 107 87 45 115 42 94 74
is_linear=0
shrinkage=0.1


Tree=3
num_leaves=31
num_cat=0
split_feature=2 0 21 4 16 185 177 84 76 232 133 154 188 217 4 208 65 134 44 136 217 245 157 8 73 208 230 72 62 30
split_gain=86.7177 27.1518 17.5482 17.3442 21.1588 13.303 10.9753 11.5285 8.9284 7.97941 6.90456 7.66564 5.92466 4.39348 3.35361 3.32205 2.5686 2.40457 1.92501 0.899156 0.793672 0.694369 0.0805781 0.0257869 0.0170142 0.00482988 0.00189214 0.000541916 0.0001329 3.2667e-07
threshold=0.72789101649422816 0.86473163311908241 1.0000000180025095e-35 0.7935551930130148 1.0000000180025095e-35 0.19044891165815633 0.05915930556746176 0.10657832800376221 0.057606487247949555 0.12567009313163932 0.19874173093404773 0.067870498071108301 0.10577146908697961 0.26203350923268304 0.12762976166125262 0.12675657361538309 0.14558371239351922 0.085424547663953923 0.12991318728638257 0.062679393864897362 0.059239599183924858 0.2181912272213252 0.15088803334082743 0.056075393067248409 0.15709082405736621 0.19138617543500494 0.18186002818474423 0.15482692697196543 0.12998131644358993 0.1692003823863383
decision_type=2 2 2 2 2 2 2 2 2 2 2 2 2 2 2 2 2 2 2 2 2 2 2 2 2 2 2 2 2 2
left_child=1 2 3 4 5 6 7 14 -6 -5 11 15 -3 16 -1 -4 20 -18 -9 -19 -8 26 23 25 -25 -22 27 28 29 -2
right_child=21 12 10 9 8 -7 13 18 -10 -11 -12 -13 -14 -15 -16 -17 17 19 -20 -21 22 -23 -24 24 -26 -27 -28 -29 -30 -31
leaf_value=-0.17013508083666887 0.15635019625940619 0.15691574872853095 -0.0061428346051078725 -0.032831240343969469 0.13670027559040215 0.03917165486496442 -0.12529045635950881 -0.013754482927020278 -0.041784036199871505 0.13462584665924437 0.11021095532871977 0.066810556685786712 0.017794403095039626 -0.059138702836944779 -0.068715422782699709 -0.12235301281106661 -0.05621144968449493 -0.1654936891399478 0.073558651679747955 -0.10725600778576989 -0.16553026984168656 0.11528623667989385 -0.18098431139106569 -0.1747246608200268 -0.1664314376486421 -0.16106899338858302 0.15894413926931483 0.15772656584952524 0.15696563313939851 0.15631664796038416
leaf_weight=5.7668625861406344 7.8374984562397128 8.1417080014944059 4.8973403871059471 5.6305293142795545 5.7615648508071882 6.6407231837511054 4.7686506658792522 5.1603132486343366 5.4574074745178223 5.7529179751873016 7.290453538298606 8.1068077832460386 4.9053975343704215 6.821509361267089 7.5014024078845978 4.9424664825201035 5.1027628034353247 5.9605435281991941 4.9446020424365997 4.7748360186815262 4.769265636801725 4.6501977890729895 5.143428921699523 4.8719119280576688 5.0256624221801758 4.9405987858772278 4.8984533846378318 4.6402426064014426 4.6236374378204337 4.6095240712165833
leaf_count=24 34 34 20 23 24 27 20 21 22 24 30 33 20 28 31 20 21 25 20 20 20 20 21 20 21 21 21 20 20 20
internal_value=5.06028e-05 -0.0329148 -0.0467136 -0.0647413 -0.078943 -0.0965264 -0.108454 -0.0515063 0.0498776 0.0517975 0.0281451 -0.00519256 0.104609 -0.133963 -0.112796 -0.0645144 -0.145216 -0.112728 0.0289701 -0.139591 -0.162647 0.150938 -0.169844 -0.166922 -0.170514 -0.16326 0.157169 0.156768 0.156508 0.156338
internal_weight=174.339 143.08 130.033 104.795 93.412 82.1931 75.5524 23.3732 11.219 11.3834 25.2371 17.9466 13.0471 52.1792 13.2683 9.83981 45.3577 15.8381 10.1049 10.7354 29.5195 31.2596 24.7509 19.6074 9.89757 9.70986 26.6094 21.7109 17.0707 12.447
internal_count=725 590 536 433 386 340 313 96 46 47 103 73 54 217 55 40 189 66 41 45 123 135 103 82 41 41 115 94 74 54
is_linear=0
shrinkage=0.1


Tree=4
num_leaves=30
num_cat=0
split_feature=2 0 21 4 16 185 177 84 37 232 194 230 188 206 61 192 65 129 173 64 87 243 157 234 227 72 230 173 229
split_gain=73.5432 22.5141 14.5841 14.4107 17.6095 11.1808 9.48554 9.60985 7.85889 6.69651 6.61142 7.40125 5.13725 4.88243 3.93444 3.11029 2.12458 3.47075 1.93401 0.729346 0.64671 0.402369 0.0568268 0.0165754 0.00664132 0.00215863 0.000815312 0.000105752 3.89632e-06
threshold=0.72789101649422816 0.86473163311908241 1.0000000180025095e-35 0.7935551930130148 1.0000000180025095e-35 0.19044891165815633 0.05915930556746176 0.10657832800376221 0.15568508891057603 0.12567009313163932 0.029594336233110603 0.095485813060377553 0.10577146908697961 0.13682823313383294 0.35233399320586201 0.12722932570954779 0.14558371239351922 0.18250653091872893 0.067940452885662209 0.16472408576288985 0.034591711449738806 0.080691796529453561 0.15088803334082743 0.095925865939703009 0.12294522673254597 0.16040392238735748 0.16557187119740249 0.11498238473073095 0.090168549013064411
decision_type=2 2 2 2 2 2 2 2 2 2 2 2 2 2 2 2 2 2 2 2 2 2 2 2 2 2 2 2 2
left_child=1 2 3 4 5 6 7 15 -6 -5 -4 -12 -3 -13 16 -1 20 21 -9 25 -8 -18 23 24 -22 26 27 28 -2
right_child=19 12 10 9 8 -7 14 18 -10 -11 11 13 -14 -15 -16 -17 17 -19 -20 -21 22 -23 -24 -25 -26 -27 -28 -29 -30
leaf_value=-0.14899967772217332 0.14828001347777101 0.14654848578644503 -0.075296481225752096 -0.029437992332684779 0.12871521491433324 0.035151870953796675 -0.1195577069882211 0.068576878005163627 -0.039876667883555775 0.1249557839598064 -0.045286480096066659 0.16049996166285169 0.016049720170670186 0.041441834505792349 -0.055464644074407335 -0.050715575167675164 -0.11813520050906996 -0.042428577390370245 -0.018906060994365318 0.10525953880535117 -0.15727174340486252 -0.15731928708552712 -0.16940224785520192 -0.16089935418860063 -0.15228370317859749 0.15104188858962497 0.14987161793092693 0.14878288539950416 0.14815992137677461
leaf_weight=7.0315848737955111 4.3915720880031675 7.8602464050054532 5.1622361093759563 5.6504543721675855 5.6099258512258512 6.6590429991483679 4.8733489811420467 5.1969557106494886 5.4521341472864151 5.5868687927722931 5.6374278515577343 5.8223408311605445 4.8953251391649246 8.4337632060050947 7.1252174675464621 5.9396806955337524 4.654751658439638 5.5091238468885413 4.9188503473997116 4.4466388672590247 5.0746892839670235 5.9968671947717667 4.7878950536251059 7.0244490653276435 5.6313841640949249 4.9205870777368537 4.6614243239164344 4.4068011939525595 7.0205963104963303
leaf_count=30 20 34 21 23 24 27 21 21 22 24 23 24 20 35 30 25 20 23 20 20 22 26 20 30 25 22 21 20 32
internal_value=6.1388e-05 -0.0302163 -0.0428623 -0.0595475 -0.0726744 -0.0889456 -0.100148 -0.0470195 0.0456217 0.0473221 0.025543 0.0517101 0.0964658 0.0900664 -0.124352 -0.103994 -0.135622 -0.106867 0.026038 0.142621 -0.152587 -0.140196 -0.159735 -0.157125 -0.154648 0.149161 0.148709 0.148367 0.148206
internal_weight=170.382 140.535 127.779 102.723 91.4859 80.4238 73.7648 23.0871 11.0621 11.2373 25.0558 19.8935 12.7556 14.2561 50.6777 12.9713 43.5525 16.1607 10.1158 29.8476 27.3918 10.6516 22.5184 17.7305 10.7061 25.401 20.4804 15.819 11.4122
internal_count=725 590 536 433 386 340 313 96 46 47 103 82 54 59 217 55 187 69 41 135 118 46 97 77 47 115 93 72 52
is_linear=0
shrinkage=0.1


Tree=5
num_leaves=28
num_cat=0
split_feature=2 0 21 4 16 185 177 232 76 128 1 164 125 188 217 130 230 65 4 77 36 8 22 72 76 230 180
split_gain=62.8088 18.7556 12.1939 12.0353 14.7394 9.46617 8.29385 8.56214 7.35484 6.03267 7.64877 5.80128 4.64714 4.52139 3.76292 3.75947 2.31766 1.50097 2.05684 0.736365 0.0346374 0.00823004 0.00688624 0.00144701 0.000266695 8.23274e-05 1.76184e-06
threshold=0.72789101649422816 0.86473163311908241 1.0000000180025095e-35 0.7935551930130148 1.0000000180025095e-35 0.19044891165815633 0.05915930556746176 0.13445728724942221 0.057606487247949555 0.079174461734277821 0.11397128003581401 0.15566472506227799 0.10985233972674367 0.10577146908697961 0.26203350923268304 0.083379190478675563 0.065540234713307513 0.14558371239351922 0.12762976166125262 0.20819003682888132 0.11910715928884291 0.056075393067248409 0.22989154924822722 0.13487740153701938 0.081162486444104065 0.14101105181749826 0.076516838803258116
decision_type=2 2 2 2 2 2 2 2 2 2 2 2 2 2 2 2 2 2 2 2 2 2 2 2 2 2 2
left_child=1 2 3 4 5 6 7 12 -6 15 -11 -5 -1 -3 16 -4 -8 20 -19 23 21 -18 -23 24 25 26 -2
right_child=19 13 9 11 8 -7 14 -9 -10 10 -12 -13 -14 -15 -16 -17 17 18 -20 -21 -22 22 -24 -25 -26 -27 -28
leaf_value=0.04562373828347327 0.14153203665331845 0.13800486488818522 0.13761655747432669 -0.037635934259229266 0.12366670475399628 0.031575116382174674 -0.066413514578926025 -0.12441486531058171 -0.040762772797327318 0.051133594491983216 -0.10219112005250337 0.10810744241882458 -0.072405303087062264 0.014475033112014186 -0.0462025203339042 0.024260470180933233 -0.14614593043927487 -0.15189793336563034 -0.072288302054262676 0.097346900596431418 -0.15699605935208888 -0.15342419034145449 -0.14798707462955271 0.14368602612767897 0.1426833650421091 0.14211411763930645 0.14162419842521171
leaf_weight=9.2864790707826632 4.1467091441154569 7.5292198210954648 5.2871855199337023 4.9138212949037534 5.466750428080557 6.671307533979415 5.4706401973962775 8.2454364448785764 5.4146327674388885 6.6621665805578214 6.3593719303607941 6.1486149281263351 5.2059064954519263 4.8856162279844284 6.6458308547735205 6.550650030374527 7.3340921550989213 6.0149102210998517 7.0485325008630753 4.2500900328159323 7.0936772227287284 4.5217640697956067 4.8044209331274033 7.1918251663446418 4.1921609640121451 4.3779535293579093 4.1503809094429016
leaf_count=38 20 34 23 20 24 27 24 36 22 27 26 27 22 20 28 27 34 27 31 20 31 20 22 34 20 21 20
internal_value=7.25839e-05 -0.0278427 -0.0394727 -0.0550139 -0.0672119 -0.0823594 -0.0929646 -0.0430607 0.0418457 0.0232232 -0.0237461 0.0433697 0.00322574 0.0893921 -0.116153 0.0748892 -0.127146 -0.136171 -0.108944 0.13572 -0.151144 -0.148652 -0.150623 0.142498 0.141992 0.141763 0.141578
internal_weight=165.87 137.561 125.146 100.287 89.2244 78.343 71.6717 22.7378 10.8814 24.8594 13.0215 11.0624 14.4924 12.4148 48.9339 11.8378 42.288 36.8174 13.0634 28.3091 23.754 16.6603 9.32619 24.059 16.8672 12.675 8.29709
internal_count=725 590 536 433 386 340 313 96 46 103 53 47 60 54 217 50 189 165 58 135 107 76 42 115 81 61 40
is_linear=0
shrinkage=0.1


Tree=6
num_leaves=29
num_cat=0
split_feature=2 0 1 125 6 2 16 185 81 136 134 210 177 183 242 2 126 52 118 230 1 10 1 238 72 87 215 108
split_gain=53.9548 15.6852 10.4393 10.7596 9.27214 8.80279 10.5564 9.30781 8.35499 8.09618 6.0508 4.22176 4.00223 4.45284 3.83649 3.51469 3.3157 1.94007 1.27864 0.767528 0.254969 0.176984 0.0346873 0.0136168 0.0024496 0.000287285 7.87895e-05 5.98368e-06
threshold=0.72789101649422816 0.86473163311908241 0.5667123161507075 0.046081414948107503 0.56661436365807083 0.2709634996455817 1.0000000180025095e-35 0.19044891165815633 0.072023912229968859 0.055491138541702456 0.077314089700077013 0.12858773519995603 0.055983959393783159 0.096977414132001963 0.12979094256199397 0.19263187287115599 0.051183686407725207 0.20832100714156757 0.35182563054458316 0.20472298661434898 0.028555009211966104 0.10993035706269662 0.079537281839865318 0.19162690978486882 0.17237575495883672 0.10285408644248865 0.054709354356865504 0.058876433828582805
decision_type=2 2 2 2 2 2 2 2 2 2 2 2 2 2 2 2 2 2 2 2 2 2 2 2 2 2 2 2
left_child=1 2 3 14 5 6 7 10 -4 -7 16 -3 13 -12 15 17 -5 20 22 24 -1 -22 23 -14 25 26 -2 -28
right_child=19 11 8 4 -6 9 -8 -9 -10 -11 12 -13 18 -15 -16 -17 -18 -19 -20 -21 21 -23 -24 -25 -26 -27 27 -29
leaf_value=-0.13431695205482858 0.13662054977236893 0.021641780284297168 -0.036865235309205012 0.021923106612068848 0.072040367084454701 -0.035035421033821144 0.049755257193523181 0.041114504549762551 0.14350527525948961 0.14370255164747911 0.00073720424526170492 0.1401346054251647 -0.1489457722882622 -0.12480815673291895 -0.026633377376176565 -0.050203612118784186 -0.07947268293147014 -0.076144431189661924 -0.088253097002734163 0.089728323689120565 -0.17588497143817802 -0.14789557748342327 -0.15482197351241117 -0.14189861370196344 0.13899129268323313 0.13715738417018966 0.13617626961600784 0.13601146820796939
leaf_weight=5.367014527320868 3.9231704175472357 5.7944773286581022 4.7953148037195188 6.6080131679773313 8.6763373464345914 5.4196848422288877 8.7306323349475843 6.673785835504531 5.5293455272912979 4.7599949836730957 5.776665046811102 6.2501032501459122 4.5769695192575508 5.5292122364044189 6.7312428206205359 6.8734065145254126 6.2995413243770599 4.4663245826959601 4.6469268649816504 4.0385443121194831 4.5003670603036863 4.5364143401384354 4.845897063612937 6.8385634869337082 5.0419830828905097 4.7389967292547217 3.9014424085617048 5.061303049325943
leaf_count=25 20 26 20 28 36 23 38 27 24 21 24 28 21 24 29 31 28 20 21 20 20 21 22 33 25 24 20 26
internal_value=8.02708e-05 -0.0257468 -0.0364798 -0.0453603 -0.0255232 -0.0374953 -0.0519656 -0.0691116 0.0597317 0.048542 -0.0854147 0.0831294 -0.108595 -0.0606616 -0.0938505 -0.111426 -0.0275632 -0.133726 -0.134514 0.129892 -0.151581 -0.161834 -0.147733 -0.144724 0.137048 0.136492 0.136247 0.136083
internal_weight=160.932 134.226 122.182 111.857 79.3822 70.7059 60.5262 51.7956 10.3247 10.1797 45.1218 12.0446 32.2142 11.3059 32.4748 25.7435 12.9076 18.8701 20.9084 26.7054 14.4038 9.03678 16.2614 11.4155 22.6669 17.6249 12.8859 8.96275
internal_count=725 590 536 492 346 310 266 228 44 44 201 54 145 48 146 117 56 86 97 135 66 41 76 54 115 90 66 46
is_linear=0
shrinkage=0.1


Tree=7
num_leaves=30
num_cat=0
split_feature=2 9 9 17 43 231 7 108 154 20 209 124 153 6 188 206 122 144 59 241 170 245 127 37 212 87 230 62 175
split_gain=46.5435 13.3747 13.0764 10.5627 9.85299 7.73133 9.19155 7.01349 8.91174 6.71474 7.86336 7.53104 6.04933 7.0804 8.03755 4.59557 4.51389 3.54912 3.37234 2.10475 0.849333 0.807233 0.0981733 0.0305217 0.00450623 0.00164455 0.000839639 5.59959e-05 1.05613e-06
threshold=0.72789101649422816 0.19334815482076564 0.070059379022376508 0.05191249523343041 0.21275067728554928 0.077889001413515221 0.1527294460855306 0.082123005655586362 0.036359430225546656 0.65930346486149471 0.028069318820591303 0.12204159157294607 0.10348572715386256 0.028372147079639153 0.13799418968988322 0.10511759278458271 0.20962127712519688 0.11780934663900357 0.075608604749174371 0.13521199864506742 0.12136228640960492 0.2181912272213252 0.11443734994571651 0.14829185821925964 0.11114550929717983 0.15215600127819937 0.16557187119740249 0.11411491117265476 0.10988732772017785
decision_type=2 2 2 2 2 2 2 2 2 2 2 2 2 2 2 2 2 2 2 2 2 2 2 2 2 2 2 2 2
left_child=1 2 3 7 5 6 15 19 -9 10 11 -4 -10 14 -14 -3 20 -7 -15 -1 -12 25 23 -22 -25 26 27 28 -2
right_child=21 4 9 -5 -6 17 -8 8 12 -11 16 -13 13 18 -16 -17 -18 -19 -20 -21 22 -23 -24 24 -26 -27 -28 -29 -30
leaf_value=0.041665888215093073 0.13144045372197802 -0.013196391925052647 -0.10556843416240907 -0.11918549905586549 -0.079595766043204549 0.050771167888200387 -0.094713059945462336 -0.13949956925892862 -0.064457681061583505 0.028372339482242777 -0.10303421991613285 0.074788687869226503 0.075848627658602785 0.14630415828562202 -0.10345233293074491 0.11297003679441094 -0.041064022420279893 0.16480638426319832 0.033039800182957935 0.13701229890515496 -0.14869323797726541 0.082565031858431295 -0.15661171795227138 -0.13628799719362666 -0.14077763873839663 0.13413127622000415 0.13325562920688583 0.1319353779973523 0.13151095969116139
leaf_weight=4.7315964400768262 5.0955180674791425 4.8713477700948769 4.5574433803558332 7.2528958916664115 6.8125467747449866 4.5938510000705701 5.490583509206771 4.5857263356447211 7.7828557044267681 4.9431240856647483 5.7203999757766786 4.7057217657566071 4.6210057139396685 5.8989301025867444 5.4472230523824692 7.0874693989753723 6.0626205950975409 6.7240977138280869 4.7417923957109451 4.5335027426481247 4.2890444099903133 3.820743426680564 6.6972673237323752 4.6746252924203855 4.284662589430809 4.7387901544570914 4.1165419965982428 3.6684451997280112 3.6438281536102295
leaf_count=21 28 21 22 35 30 21 24 20 34 21 26 20 20 26 24 32 28 30 20 20 20 20 30 24 21 25 22 20 20
internal_value=8.36654e-05 -0.0237931 -0.043285 -0.00767902 0.0285419 0.0541505 0.0123991 0.011421 -0.0101186 -0.0817286 -0.0950054 -0.0139464 0.0107052 0.038953 -0.0211587 0.0615769 -0.118671 0.118521 0.0958305 0.0883198 -0.137002 0.124885 -0.146744 -0.141756 -0.138435 0.132489 0.132018 0.131607 0.13147
internal_weight=156.194 131.11 95.5304 49.5955 35.5799 28.7673 17.4494 42.3426 33.0775 45.9349 40.9918 9.26317 28.4918 20.709 10.0682 11.9588 31.7286 11.3179 10.6407 9.2651 25.666 25.0839 19.9456 13.2483 8.95929 21.2631 16.5243 12.4078 8.73935
internal_count=725 590 432 220 158 128 77 185 144 212 191 42 124 90 44 53 149 51 46 41 121 135 95 65 45 115 90 68 48
is_linear=0
shrinkage=0.1


Tree=8
num_leaves=28
num_cat=0
split_feature=2 0 8 184 20 1 227 31 8 188 209 116 116 221 1 62 72 88 152 87 133 63 103 230 213 87 227
split_gain=40.2972 11.297 7.34477 7.07639 6.2051 5.84056 7.44246 6.42684 5.76603 4.26412 3.89468 3.89402 4.99359 3.8524 3.84794 3.77557 1.94377 1.58918 1.4824 0.863312 0.535577 0.258387 0.0375552 0.00212073 0.000550974 6.79047e-05 6.06557e-06
threshold=0.72789101649422816 0.86473163311908241 0.11408082197922502 0.20728694973984732 0.65930346486149471 0.5667123161507075 0.055655047488441758 0.15243696529635412 0.056075393067248409 0.10577146908697961 0.028069318820591303 0.093014788961846465 0.029109459108475951 0.11157316914426731 0.028555009211966104 0.055573931061495455 0.086641673556962562 0.17685227712939158 0.091267851604569919 0.18690998447107188 0.10220237363463026 0.20692948793231944 0.18013588485227569 0.18971267784178633 0.1477531613469025 0.093650540427886272 0.078067226963446354
decision_type=2 2 2 2 2 2 2 2 2 2 2 2 2 2 2 2 2 2 2 2 2 2 2 2 2 2 2
left_child=1 2 3 5 10 6 15 11 -5 -3 -4 12 -8 -9 -15 16 -1 20 -12 23 -14 22 -20 24 25 26 -2
right_child=19 9 4 8 -6 -7 7 13 -10 -11 18 -13 17 14 -16 -17 -18 -19 21 -21 -22 -23 -24 -25 -26 -27 -28
leaf_value=0.012872843589893105 0.12773801064633636 0.12406337124138814 -0.015753765302129862 -0.0043604295419820251 0.025408293111530339 0.048512135062546355 -0.0052757509537779872 -0.076012523074736368 0.12502376017824066 0.00010469092934705718 -0.067733884341021663 -0.02104181298421294 -0.13170095962483305 -0.044800877893869252 0.069520008172100148 -0.035790652407960644 0.10300542234907589 -0.091370691569172546 -0.14825993229631987 0.075431395430708814 -0.17392717081088238 -0.11232496321832455 -0.13604394352527774 0.1306384247576374 0.12916934652420262 0.12816432235974021 0.12756425787393472
leaf_weight=4.716433987021448 3.3995379954576546 6.7109282761812192 4.6208057999610963 8.682754233479498 4.9664760380983344 8.4650309830903989 3.9655884057283464 6.3777779191732433 5.7092310935258856 4.7317207455635071 4.3902661502361324 6.6971651911735526 6.7397763878107089 5.1809080243110639 6.8200239986181259 7.6044272631406775 4.8562346696853638 7.2513825297355643 5.5335458517074567 3.5965321362018576 5.4186099022626877 3.8662356287240973 4.6158032268285751 4.3005812019109717 3.8424658924341193 3.4270270615816107 4.9123090952634811
leaf_count=22 20 34 21 38 21 38 18 29 25 20 20 31 32 24 31 34 21 36 26 20 25 20 24 24 22 20 29
internal_value=9.32249e-05 -0.0220091 -0.0313235 -0.0171995 -0.0759688 -0.029663 -0.0397464 -0.0597974 0.0469657 0.0728044 -0.0978342 -0.0882694 -0.10753 -0.0132094 0.0201667 0.016811 0.0585973 -0.128422 -0.118441 0.120517 -0.15052 -0.134324 -0.142704 0.128673 0.12813 0.12779 0.127635
internal_weight=151.4 127.921 116.478 88.4853 27.9931 74.0934 65.6283 48.4512 14.392 11.4426 23.0267 30.0725 23.3754 18.3787 12.0009 17.1771 9.57267 19.4098 18.4059 23.4785 12.1584 14.0156 10.1493 19.8819 15.5813 11.7389 8.31185
internal_count=725 590 536 404 132 341 303 226 63 54 111 142 111 84 55 77 43 93 90 135 57 70 50 115 91 69 49
is_linear=0
shrinkage=0.1


Tree=9
num_leaves=29
num_cat=0
split_feature=2 9 9 17 43 231 7 108 154 74 20 238 59 59 206 122 144 158 209 57 30 165 185 234 231 72 114 28
split_gain=34.9679 9.90977 10.2146 8.53194 7.51057 6.15122 6.99423 5.57253 8.22705 5.28147 6.30353 4.93371 6.26771 4.56232 3.81136 3.2717 2.97488 2.8576 2.4497 1.904 0.910286 0.587082 0.0822901 0.0223656 0.00447712 0.00181641 0.00018948 4.546e-05
threshold=0.72789101649422816 0.19334815482076564 0.070059379022376508 0.05191249523343041 0.21275067728554928 0.077889001413515221 0.1527294460855306 0.082123005655586362 0.029423936369521102 0.23525921553218548 0.65930346486149471 0.10796936854777056 0.060424762885037113 0.10011955815151412 0.10511759278458271 0.20962127712519688 0.11780934663900357 0.077484475745073014 0.028069318820591303 0.10325143475224006 0.26562645356551412 0.079893008577449812 0.15746915323285843 0.11570474572842211 0.079387325951240165 0.13487740153701938 0.18226909572850061 0.15980611596426844
decision_type=2 2 2 2 2 2 2 2 2 2 2 2 2 2 2 2 2 2 2 2 2 2 2 2 2 2 2 2
left_child=1 2 3 7 5 6 14 19 -9 10 15 -10 17 -14 -3 18 -7 -13 -4 -1 25 -20 23 24 -23 26 27 -2
right_child=20 4 9 -5 -6 16 -8 8 11 -11 -12 12 13 -15 -16 -17 -18 -19 21 -21 -22 22 -24 -25 -26 -27 -28 -29
leaf_value=0.035581200239283177 0.12472020980742289 -0.013283905931082527 -0.055329611958961661 -0.11022110225317712 -0.069292637764230697 0.045604757620074307 -0.084291964742507317 -0.14292988097148729 -0.074800192898699089 0.020698616070973039 0.025387226642297457 0.038730177498799506 -0.056943786857153837 0.059827263104528072 0.10365800503608068 -0.032854824929118578 0.15268002760804023 0.15204927677552427 -0.09695619645346111 0.12730316916634041 0.06899187704915978 -0.13319750008707407 -0.15041218903821207 -0.13935087985170919 -0.12851455060902051 0.12676973798224953 0.1253055467269801 0.12425472336978088
leaf_weight=4.6153630614280683 3.3353954106569343 4.7804983258247429 5.4735750108957317 6.7244117110967627 6.6871507018804541 4.439622759819029 5.2701674550771704 3.9747400581836692 5.4515597671270397 5.3053858429193488 4.4916665703058234 4.3553240597248095 8.4479375630617124 5.540181189775466 6.6834483742713928 5.8471378684043875 6.2440351396799088 4.5502777993679047 4.3099333494901684 4.4407450705766678 3.3881773054599753 4.4686800986528414 4.1569525003433219 5.3780783414840689 3.7587706744670868 6.1537757366895667 3.3812452703714362 5.6555148959159851
leaf_count=20 21 21 27 35 30 21 24 18 24 23 19 20 38 24 32 28 30 20 22 21 20 24 20 27 22 37 21 36
internal_value=0.000103438 -0.0202642 -0.0374466 -0.00574989 0.0257292 0.0489049 0.0110586 0.0112287 -0.00819745 -0.072747 -0.0858332 0.0106955 0.0310542 -0.0106951 0.0548929 -0.100793 0.108185 0.0966301 -0.115214 0.0805579 0.11665 -0.130065 -0.138098 -0.134336 -0.131058 0.125366 0.124667 0.124427
internal_weight=147.31 125.396 91.2907 48.1005 34.1049 27.4178 16.7341 41.3761 32.32 43.1902 37.8848 28.3453 22.8937 13.9881 11.4639 33.3931 10.6837 8.9056 27.546 9.05611 21.9141 22.0724 17.7625 13.6055 8.22745 18.5259 12.3722 8.99091
internal_count=725 590 432 220 158 128 77 185 144 212 189 126 102 62 53 170 51 40 142 41 135 115 93 73 46 115 78 57
is_linear=0
shrinkage=0.1


Tree=10
num_leaves=29
num_cat=0
split_feature=2 9 2 17 43 117 108 97 194 74 20 211 104 31 219 129 79 174 78 75 197 68 0 185 234 72 30 45
split_gain=30.444 8.2924 8.99031 7.59172 6.22198 5.69402 5.07158 5.54079 5.57838 4.62164 5.41233 4.22148 4.19227 3.6188 5.5527 3.56639 3.4338 3.3132 1.41393 0.951129 0.845093 1.65957 0.239812 0.0533239 0.00934067 0.00125099 0.000228087 7.37995e-05
threshold=0.72789101649422816 0.19334815482076564 0.039502867969371754 0.05191249523343041 0.21275067728554928 0.023666888032903451 0.082123005655586362 0.21798900178104799 0.11155518631650722 0.23525921553218548 0.65930346486149471 0.089002299227963211 0.066481735571519554 0.15381044647031131 0.14439007998792028 0.088983236735340657 0.10569988817059615 0.23566353261787273 0.12094608373825447 0.20217619105025028 0.17791640498180725 0.25776676767429069 0.059851186948128854 0.11196900391707351 0.11794385673915592 0.13487740153701938 0.2103394098201242 0.19171999073516843
decision_type=2 2 2 2 2 2 2 2 2 2 2 2 2 2 2 2 2 2 2 2 2 2 2 2 2 2 2 2
left_child=1 2 3 6 5 -3 15 8 11 10 13 -8 -7 20 -15 -1 18 -9 -14 25 22 -22 -4 24 -24 26 27 -2
right_child=19 4 9 -5 -6 12 7 17 -10 -11 -12 -13 16 14 -16 -17 -18 -19 -20 -21 21 -23 23 -25 -26 -27 -28 -29
leaf_value=0.14752704952377371 0.12147561742843704 -0.061687421285672075 -0.10615457229274937 -0.10472755097710931 -0.062778551161629031 -0.0088386562910332776 -0.012448508109391614 0.079817944660474177 0.040503541840172005 0.015812911584087201 0.022751006097055791 -0.13589959227590315 0.15161711785264975 0.020205775472931748 -0.13495309526571153 0.018877961446232414 0.022041415683835001 -0.019883214935984914 0.081653760015829399 0.063160774131256842 -0.04042812992571973 -0.13179732843540301 -0.12720851246191803 -0.14491471938151487 -0.13407159253388498 0.1238381844083578 0.12266537405350963 0.12207287310486942
leaf_weight=4.1369009763002378 5.6755604743957573 4.1881300210952785 3.6312225162982967 6.3870822787284842 6.6451412439346305 5.694390237331393 4.7476318329572731 8.3946677446365339 5.201200619339942 5.8075298815965644 4.509887918829917 6.6496659070253372 6.4623492211103457 5.7314017564058286 3.8597800135612488 4.4975341260433197 5.1060253381729117 5.5279532819986335 5.2234175801277161 3.204450696706771 3.7680721431970587 4.2078054547309875 3.8342738449573499 4.0013075619935989 4.1074368208646774 4.9636794179677954 3.3080717623233786 3.2556106150150299
leaf_count=20 39 20 20 35 30 26 21 38 23 25 19 30 32 27 21 20 24 25 26 20 19 24 23 20 22 32 22 22
internal_value=0.000110253 -0.018754 -0.0346849 -0.00363799 0.0237999 0.0453685 0.0128518 -0.00629037 -0.0453126 -0.0672206 -0.0800281 -0.0844751 0.065308 -0.0940143 -0.0422348 0.0805159 0.0904524 0.0402318 0.120344 0.113182 -0.115102 -0.0886315 -0.128659 -0.135501 -0.130758 0.122499 0.121956 0.121693
internal_weight=142.728 122.321 89.0014 45.5426 33.3195 26.6743 39.1556 30.5211 16.5985 43.4587 37.6512 11.3973 22.4862 33.1413 9.59118 8.63444 16.7918 13.9226 11.6858 20.4074 23.5501 7.97588 15.5742 11.943 7.94171 17.2029 12.2392 8.93117
internal_count=725 590 432 212 158 128 177 137 74 220 195 51 108 176 48 40 82 63 58 135 128 43 85 65 45 115 83 61
is_linear=0
shrinkage=0.1


Tree=11
num_leaves=29
num_cat=0
split_feature=2 0 6 45 39 19 16 4 129 10 177 184 182 124 9 188 56 212 41 145 57 230 58 1 72 76 103 142
split_gain=26.5654 7.24648 5.41167 6.89254 6.10021 8.23251 6.73542 10.652 6.9565 6.81047 6.3465 6.6208 5.94198 4.87165 4.49078 3.97366 3.09643 2.521 2.14665 1.55262 1.2989 1.03264 0.202199 0.0845261 0.00225288 0.000199935 5.96528e-05 3.282e-06
threshold=0.72789101649422816 0.86473163311908241 0.56661436365807083 0.19171999073516843 0.24766714830597961 1.0000000180025095e-35 1.0000000180025095e-35 0.11495280131673925 0.18250653091872893 0.16624427251053156 0.059048194512792106 0.12406067957657647 0.16773245327747724 0.18405592991946104 0.19334815482076564 0.10577146908697961 0.13788324737352106 0.19896328296084442 0.17175490259686468 0.023258478770446355 0.10256779107433667 0.20472298661434898 0.099546165897023864 0.075162119559377058 0.17237575495883672 0.081162486444104065 0.19316370322753154 0.12431495031928146
decision_type=2 2 2 2 2 2 2 2 2 2 2 2 2 2 2 2 2 2 2 2 2 2 2 2 2 2 2 2
left_child=1 2 4 -4 5 6 7 17 9 10 -9 18 -7 -6 -13 -3 -10 19 -12 -1 -15 24 -22 -21 25 26 27 -2
right_child=21 15 3 -5 13 12 -8 8 16 -11 11 14 -14 20 -16 -17 -18 -19 -20 23 22 -23 -24 -25 -26 -27 -28 -29
leaf_value=-0.068914539683510245 0.11895235776011981 0.11565239979521505 -0.043455777608449708 0.12440138502889325 0.008337556960884767 -0.0024959738921221178 0.051675233703753355 0.056934603913846638 0.0063395419405271663 -0.12535272438994063 -0.15333581271188729 -0.057057877227345989 0.15009969508964691 -0.076889081036529805 0.086644503136322729 -0.0083668628809582639 0.12220503476741917 -0.039810325054372715 -0.058551464556741685 -0.13427806748855728 -0.12588250557014632 0.056131636332878793 -0.1580018082900308 -0.15161921955017826 0.12229054360329011 0.1201024783195255 0.11957667415142262 0.11910508759257937
leaf_weight=3.9730538576841381 2.9467149674892443 5.9592140018939954 4.602489620447157 5.2214817404747009 4.0660166442394283 6.0306448042392713 8.3212371468543989 8.5730645060539263 4.8871980756521207 6.9128685891628256 4.6652725487947482 4.2914465069770795 4.4235984236001968 4.882929250597952 4.408826470375061 4.5607775300741196 4.3679265528917313 4.7622278630733481 4.897992342710495 6.9508304446935636 3.7718476057052612 2.9935034513473502 4.0801043063402176 4.7192374914884567 3.7100785821676245 3.6176244616508475 3.0089116245508194 2.6926782578229904
leaf_count=22 22 34 20 23 19 28 38 39 22 38 23 22 21 27 21 20 20 22 26 39 21 20 21 24 25 26 22 20
internal_value=0.000107171 -0.0173672 -0.0250295 0.045761 -0.0320551 -0.020831 -0.0329136 -0.0440141 -0.0157815 -0.0368433 -0.014044 -0.047362 0.0620732 -0.0869606 0.0157627 0.0618858 0.0610219 -0.103515 -0.10479 -0.122908 -0.117388 0.110032 -0.142573 -0.141291 0.120131 0.119478 0.119217 0.119025
internal_weight=138.3 119.33 108.81 9.82397 98.9863 82.1854 71.7312 63.4099 43.0046 33.7495 26.8366 18.2635 10.4542 16.8009 8.70027 10.52 9.25512 20.4053 9.56326 15.6431 12.7349 18.9695 7.85195 11.6701 15.976 12.2659 8.6483 5.63939
internal_count=725 590 536 43 493 405 356 318 211 169 131 92 49 88 43 54 42 107 49 85 69 135 42 63 115 90 64 42
is_linear=0
shrinkage=0.1


Tree=12
num_leaves=30
num_cat=0
split_feature=2 0 10 57 226 40 189 1 132 210 149 62 206 1 4 174 1 84 224 127 194 245 216 33 9 72 230 75 35
split_gain=23.2328 6.09625 4.63378 4.62578 5.01184 4.57125 4.55606 4.31357 6.8609 4.0341 3.91953 2.85017 3.88319 2.93203 2.57073 2.35127 2.28813 3.63671 1.6847 1.65294 1.575 1.08282 0.99911 0.237209 0.107292 0.0013472 0.000396427 0.000103532 2.96479e-06
threshold=0.72789101649422816 0.86473163311908241 0.16624427251053156 0.14254426399614831 0.04964323273391031 0.39990655933136821 0.019352941117831503 0.5667123161507075 0.24020336315394733 0.12858773519995603 0.21694707178053649 0.095093262830069414 0.13608797231492012 0.064492340029695713 0.7935551930130148 0.11584055824014645 0.024860874745214704 0.069546297182048966 0.086714005665981364 0.13538510104144616 0.11155518631650722 0.2181912272213252 0.071777605386149468 0.26578717405425339 0.088786220526494819 0.16040392238735748 0.16393377634652809 0.10632506506189077 0.15812225504596378
decision_type=2 2 2 2 2 2 2 2 2 2 2 2 2 2 2 2 2 2 2 2 2 2 2 2 2 2 2 2 2
left_child=1 2 3 5 -5 6 16 8 14 -3 -4 13 -13 19 15 18 -1 -18 -8 -6 23 25 -19 24 -17 26 27 28 -2
right_child=21 9 10 4 11 -7 7 -9 -10 -11 -12 12 -14 -15 -16 20 17 22 -20 -21 -22 -23 -24 -25 -26 -27 -28 -29 -30
leaf_value=-0.047579089716207536 0.11697915157284877 -0.0054754624552371192 -0.13283751955869513 0.12007212201567169 0.10061116458723418 0.072654179512681369 -0.1021494068169711 0.024923230264899357 0.033949738384115163 0.12049657616124597 -0.0049795267341399586 0.022157965178787931 -0.11202968333037569 -0.029830591245753598 -0.014463276146562563 -0.15529683170189545 -0.050810709444224389 0.094336084514955482 -0.012795379401783463 0.017872201322411869 -0.075643366727935993 0.050413092725819258 0.027512467882161908 -0.1131855179347897 -0.13386099749525968 0.11979961662208068 0.11855140563547516 0.11760099897084149 0.11683356378866046
leaf_weight=5.9682925641536739 2.4811504632234591 5.0589779615402204 6.6375445574522001 4.0851635485887554 4.893091484904291 4.032425418496131 3.772982984781267 5.8910547494888297 5.7297694385051718 5.1098048537969589 3.7534164190292358 4.2599225193262082 4.3676989525556564 5.8695965707302085 4.4950665831565848 4.3115670084953326 4.1068579405546179 4.7400961667299253 4.7874857187271118 4.766751229763031 6.6950895041227332 2.8261843025684348 4.2378087490797043 3.4977255240082732 5.0934415757656097 3.1622054129838935 2.6303778961300841 3.3027485981583595 3.2063643634319305
leaf_count=30 20 26 39 19 23 21 21 28 29 28 19 21 23 27 20 21 20 22 23 22 37 20 20 22 29 23 20 26 26
internal_value=9.00417e-05 -0.0161358 -0.0232315 -0.0163382 0.0176329 -0.0305815 -0.0371551 -0.0547508 -0.0669792 0.0578254 -0.0866527 0.000309546 -0.045774 0.025912 -0.0846895 -0.0959001 0.00373255 0.0271371 -0.0521777 0.0597828 -0.114998 0.107127 0.0627936 -0.135419 -0.143688 0.11797 0.117472 0.117156 0.116897
internal_weight=133.771 116.162 105.993 95.6019 28.2422 67.3597 63.3272 44.2742 38.3831 10.1688 10.391 24.1571 8.62762 15.5294 32.6534 28.1583 19.0531 13.0848 8.56047 9.65984 19.5978 17.609 8.9779 12.9027 9.40501 14.7828 11.6206 8.99026 5.68751
internal_count=725 590 536 478 135 343 322 230 202 54 58 116 44 72 173 153 92 62 44 45 109 135 42 72 50 115 92 72 46
is_linear=0
shrinkage=0.1


Tree=13
num_leaves=29
num_cat=0
split_feature=2 9 2 17 43 231 7 56 217 108 154 107 237 75 6 129 88 34 56 144 88 64 154 79 230 73 39 78
split_gain=20.3279 5.27629 6.15424 5.29645 4.7581 4.64315 4.74592 4.48685 5.36617 4.00669 5.4276 3.91633 4.77695 3.62292 3.05887 2.99897 2.79865 4.87802 2.70142 2.49813 1.28553 1.16292 0.0272965 0.00489096 0.00158713 0.000462926 6.49713e-05 1.65119e-07
threshold=0.72789101649422816 0.19334815482076564 0.039502867969371754 0.05191249523343041 0.21275067728554928 0.077889001413515221 0.1527294460855306 0.11157773583976797 0.089846332755845068 0.082123005655586362 0.029423936369521102 0.13127053570816657 0.18012293075392832 0.12291571363814452 0.028372147079639153 0.088983236735340657 0.12608532618569393 0.17705904863073427 0.082542377891464166 0.11780934663900357 0.04372858377464036 0.16472408576288985 0.068811875754173704 0.085877798920443366 0.18971267784178633 0.14986432252012502 0.19426055860396621 0.083212770126093669
decision_type=2 2 2 2 2 2 2 2 2 2 2 2 2 2 2 2 2 2 2 2 2 2 2 2 2 2 2 2
left_child=1 2 3 9 5 6 13 8 -4 15 -11 -12 -13 -3 -14 -1 20 -18 -10 -7 -9 24 -22 -24 25 26 27 -2
right_child=21 4 7 -5 -6 19 -8 16 18 10 11 12 14 -15 -16 -17 17 -19 -20 -21 22 -23 23 -25 -26 -27 -28 -29
leaf_value=0.13909172867467556 0.11499199684214881 -0.0027287519596210534 -0.089778462140279389 -0.092964503222225034 -0.05709472845493712 0.035905916132818252 -0.074957081898022082 -0.05820376511068473 -0.018093028167236007 -0.12268347904475783 -0.0665917560370166 0.11098853137972334 -0.049493054084915611 0.11690009840107328 0.041264548176871065 0.017424533500340882 -0.12316258059841712 0.029438704753677741 0.084705914354821082 0.13956573309850298 -0.13523307313983216 0.043760332441848078 -0.12769239398486543 -0.12221085135259185 0.11815368287393663 0.11671268523830328 0.11556936505967703 0.11495555552782862
leaf_weight=3.7616607248783094 2.6076657399535197 6.5410117506980949 6.3574416711926487 5.5684414207935324 6.3905215561389914 4.0929792672395688 4.9429462552070609 3.3281340971589115 5.8447880074381811 3.4931304976344135 5.281383857131007 5.3700513988733318 6.6575012356042853 4.1299692690372467 8.3981651514768583 4.3906055986881256 3.844293147325514 4.6027092784643173 4.5434915721416473 5.3816912248730659 4.4278056621551496 2.6477787271141997 3.3885498344898224 3.1325136721134186 3.0971047058701506 2.6906087249517441 2.9087046459317207 2.376618430018425
leaf_count=20 23 31 36 35 30 21 24 18 29 18 24 25 31 22 39 20 26 22 21 30 25 20 21 22 24 22 25 21
internal_value=7.6137e-05 -0.0148867 -0.0281922 -0.00198348 0.0199381 0.0395597 0.0060482 -0.0566926 -0.0174164 0.0115798 -0.00572548 0.010167 0.0300141 0.043571 0.00113223 0.0735648 -0.0856359 -0.0400113 0.0268678 0.0947855 -0.11263 0.104422 -0.129174 -0.125059 0.116163 0.11558 0.115194 0.114975
internal_weight=130.198 113.87 82.3907 42.9209 31.4791 25.0886 15.6139 39.4697 16.7457 37.3525 29.2002 25.7071 20.4257 10.671 15.0557 8.15227 22.724 8.447 10.3883 9.47467 14.277 16.3285 10.9489 6.52106 13.6807 10.5836 7.89299 4.98428
internal_count=725 590 432 212 158 128 77 220 86 177 137 119 95 53 70 40 134 48 50 51 86 135 68 43 115 91 69 44
is_linear=0
shrinkage=0.1


Tree=14
num_leaves=28
num_cat=0
split_feature=2 10 9 0 234 72 69 16 133 65 90 149 89 196 210 192 194 120 33 218 205 6 77 6 72 157 215
split_gain=17.8173 4.53658 5.40359 4.90669 4.37261 6.67161 3.92619 5.23514 4.41895 4.97061 4.39192 3.65758 3.61835 3.31306 3.43002 3.20215 3.00235 4.33412 2.11551 2.00505 1.99373 1.81576 1.40086 1.36691 0.00124828 0.00016333 2.70875e-05
threshold=0.72789101649422816 0.16624427251053156 0.19334815482076564 0.10582349504603056 0.10783988144463046 0.053292845770109308 0.10420056696900097 1.0000000180025095e-35 0.071145329912737768 0.13652866013506756 0.20468826487950212 0.21694707178053649 0.039487850810956855 0.075482569947142267 0.15969705460842423 0.075468592090345968 0.075167814290828458 0.094729982303473056 0.15303489719723823 0.06725714693457617 0.09226848657902581 0.028372147079639153 0.22572544224702124 1.0000000180025095e-35 0.13487740153701938 0.099278212508766769 0.086595169603870967
decision_type=2 2 2 2 2 2 2 2 2 2 2 2 2 2 2 2 2 2 2 2 2 2 2 2 2 2 2
left_child=1 2 3 6 5 -4 7 8 18 10 16 -3 -6 -7 -15 -8 17 -10 -1 -5 -11 -19 24 -17 25 26 -2
right_child=22 11 4 19 12 13 15 -9 9 20 -12 -13 -14 14 -16 23 -18 21 -20 -21 -22 -23 -24 -25 -26 -27 -28
leaf_value=-0.11454944252137891 0.11380665478359775 -0.12772680561192792 0.10531895842933724 -0.03967800116019881 0.014386882680295466 0.036565824848825534 0.012041752421411721 0.075862648401525762 -0.10416450226882933 0.12442797886062157 -0.10537694661231783 -0.00053854148573003119 0.13051162477059494 -0.12717641402188404 -0.0024897820303776078 -0.13423052194491633 0.068300957963999709 -0.019155080754680275 -0.023499229628663118 -0.12863050291023892 0.027363196966553566 0.06831598264001075 0.028986706072457402 -0.051342041032437814 0.11597628537685654 0.11442148218444713 0.11334379026190855
leaf_weight=5.2749233394861204 2.1276113018393499 5.9631687104701978 4.3763674125075402 4.8186336234211904 4.806168392300604 4.1446789354085913 3.8516429066658011 7.8194620907306662 4.3554132878780427 3.786720544099806 4.6816709712147704 3.6418371796607971 6.0747368633747101 4.9511758834123594 3.9795610308647156 4.6370460018515569 5.1122205555438986 5.989628076553343 4.9431857317686081 5.3446588814258575 4.7966248095035553 3.9305030107498169 2.2458926364779463 3.4846032857894897 4.2409372404217711 3.3997834548354149 3.1160411909222603
leaf_count=30 20 39 23 25 23 22 19 36 23 18 26 19 35 23 20 28 25 32 26 34 27 18 18 19 36 31 30
internal_value=7.97581e-05 -0.0138242 -0.00758819 -0.0220039 0.0294662 -0.00155359 -0.0115505 0.000614787 -0.0131101 0.00484979 -0.0184494 -0.0795021 0.0792186 -0.037324 -0.0716157 -0.0630536 0.00254152 -0.0210076 -0.0705023 -0.0864562 0.0701853 0.0155023 0.101867 -0.0986671 0.114571 0.113882 0.113532
internal_weight=125.895 110.765 101.16 72.8269 28.3327 17.4518 62.6636 50.6904 42.8709 32.6528 24.0694 9.60501 10.8809 13.0754 8.93074 11.9733 19.3878 14.2755 10.2181 10.1633 8.58335 9.92013 15.1303 8.12165 12.8844 8.64344 5.24365
internal_count=725 590 532 386 146 88 327 261 225 169 124 58 58 65 43 66 98 73 56 59 45 50 135 47 117 81 50
is_linear=0
shrinkage=0.1


Tree=15
num_leaves=27
num_cat=0
split_feature=2 124 0 77 220 228 6 4 19 89 16 4 184 203 36 110 148 24 230 215 1 104 87 245 62 147
split_gain=15.6297 3.97404 5.11966 4.19336 3.73443 4.96637 3.76293 4.17566 4.17021 8.1437 4.49098 4.84303 4.58059 4.43729 3.43814 2.71992 2.59568 2.49155 1.50024 1.40157 0.0871807 0.00391762 0.0020078 0.000411532 6.55539e-05 5.04627e-06
threshold=0.72789101649422816 0.28929909849110974 0.86473163311908241 0.10311604789132971 0.042742348019146205 0.10378646832332046 0.56661436365807083 0.7935551930130148 1.0000000180025095e-35 0.056781632673854159 1.0000000180025095e-35 0.11495280131673925 0.24104153608249532 0.068065481144378312 0.13268506259180848 0.23000662436202593 0.027164222821297653 0.17704229310766292 0.20844758947628547 0.17954457633339424 0.083675076883056407 0.14690815162374868 0.16386298356638687 0.16386628602878719 0.12824057641315692 0.13088821391512884
decision_type=2 2 2 2 2 2 2 2 2 2 2 2 2 2 2 2 2 2 2 2 2 2 2 2 2 2
left_child=1 2 4 -4 5 16 7 8 10 -10 11 15 13 -13 17 19 -1 -15 22 20 21 -6 23 24 25 -2
right_child=18 -3 3 -5 6 -7 -8 -9 9 -11 -12 12 -14 14 -16 -17 -18 -19 -20 -21 -22 -23 -24 -25 -26 -27
leaf_value=-0.058420150398072079 0.11210430391754765 -0.090107883469576378 -0.012113776935511389 0.12640428595683939 -0.12522324796014253 -0.12816314047460337 0.061540805244455037 0.05768958361616542 -0.064918445866649938 0.12746199460841007 0.037523597786437907 0.035298135455703268 0.075290754053502454 0.0071013760014838395 -0.12005950890297885 -0.0091539429104785866 0.051256851236519546 -0.083719786528779983 0.021661966827512438 -0.05851670053139249 -0.14322594629118657 -0.12004724443319217 0.11583308485007314 0.11365572478830605 0.11265448494508881 0.11189861842116358
leaf_weight=5.1008230224251729 1.9250025674700717 6.2653348296880713 3.9438277930021268 4.9019014164805412 3.062334246933462 6.3096398636698714 7.4330771863460532 7.4205388724803916 3.9669896215200406 4.9410945475101471 7.9226123839616767 6.4915836006403032 4.3249652236700049 7.3962656855583209 6.4114335626363745 3.5018497407436362 3.7400057911872864 5.1058149263262749 2.1072812527418128 3.9265563338994971 3.2235463932156563 2.7986826524138451 2.3309994563460341 2.5254762023687363 1.9885855540633199 3.1358548253774643
leaf_count=30 20 39 19 33 20 37 35 38 19 26 38 30 21 38 38 18 18 33 18 21 18 21 20 24 20 33
internal_value=6.50017e-05 -0.012806 -0.0080542 0.0646466 -0.0149634 -0.0603911 -0.00613142 -0.0132669 -0.0216149 0.0417902 -0.0320425 -0.0439609 -0.0198424 -0.0360379 -0.0605222 -0.087384 -0.0120226 -0.0299897 0.0994356 -0.108439 -0.130017 -0.122752 0.113201 0.11256 0.112168 0.111977
internal_weight=122.202 108.189 101.924 8.84573 93.0778 15.1505 77.9273 70.4943 63.0737 8.90808 54.1656 46.243 29.7301 25.4051 18.9135 16.513 8.84083 12.5021 14.0132 13.0111 9.08456 5.86102 11.9059 9.57492 7.04944 5.06086
internal_count=725 590 551 52 499 85 414 379 341 45 296 258 160 139 109 98 48 71 135 80 59 41 117 97 73 53
is_linear=0
shrinkage=0.1


Tree=16
num_leaves=27
num_cat=0
split_feature=2 10 185 118 149 40 180 225 2 6 163 236 28 175 0 136 114 2 8 30 36 157 44 72 45 226
split_gain=13.722 3.59157 4.15225 3.59997 3.5186 3.29345 3.84941 3.17396 3.52699 3.41722 4.27854 4.38874 2.87709 4.18757 2.43414 1.82616 2.22826 1.77858 1.59624 1.55328 1.48932 1.21387 1.12105 0.000917207 0.000183102 3.0134e-06
threshold=0.72789101649422816 0.16624427251053156 0.22890022355463782 0.069735379859730953 0.21694707178053649 0.4238044135897962 0.011786515135091252 0.36906260330741386 0.2709634996455817 0.56661436365807083 0.08698488093380681 0.33127999373520017 0.22280402728283907 0.10070780726634221 0.13618309744903187 0.12179022897697377 0.13806047326220983 0.063000959854152314 0.059327400051915301 0.26986225677104153 0.072556592625007965 0.093795259062403921 0.12426518036243542 0.13487740153701938 0.19171999073516843 0.097230825525363662
decision_type=2 2 2 2 2 2 2 2 2 2 2 2 2 2 2 2 2 2 2 2 2 2 2 2 2 2
left_child=1 2 3 14 -3 6 20 8 9 10 -8 12 13 21 17 16 18 -1 -15 23 -5 -12 -14 24 25 -2
right_child=19 4 -4 5 -6 -7 7 -9 -10 -11 11 -13 22 15 -16 -17 -18 -19 -20 -21 -22 -23 -24 -25 -26 -27
leaf_value=0.042928458060470596 0.11082378444218716 -0.12426046900968929 0.093247244831169196 -0.13643742503262329 0.0044610153969794984 0.073065514665786646 0.044457888447435395 -0.083272832788215748 0.056107615047001375 0.051590940365820695 -0.051388177065661858 0.049547277780545462 -0.064690658685399166 -0.067006504940975861 0.10721316034329594 -0.061857242115607641 0.060126406732705542 -0.038188894230848147 0.023289309796707333 0.016128156538905328 -0.049632771368603501 -0.12849458631742008 -0.14055587407946657 0.11313729105891375 0.11173711901481345 0.11064439069837362
leaf_weight=7.0838737189769727 1.7608150020241722 5.3174235299229604 4.0155424922704688 3.6626594662666312 3.5355396494269371 3.6780590862035742 7.0321011841297141 6.3314155563712111 7.3396664485335341 6.2283802926540366 3.5644873306155223 4.7720066606998435 3.5808437913656226 4.1166829988360423 3.5048745572566977 4.9105406403541556 5.2435949370265007 4.3707523718476295 3.7331772074103355 2.0039256736636153 4.293468102812767 4.7791271805763245 4.2709167078137398 3.761483296751976 3.4505317658185959 1.9998065531253812
leaf_count=37 20 39 20 21 19 20 37 39 39 29 20 24 22 23 20 27 27 23 25 18 26 27 26 37 37 23
internal_value=5.55057e-05 -0.0118946 -0.00630285 -0.0106246 -0.072854 -0.01929 -0.0238892 -0.015957 -0.00880249 -0.0179237 -0.0273353 -0.0402898 -0.0528252 -0.0369916 0.0342895 -0.009852 0.00965193 0.0119764 -0.0240643 0.0970861 -0.0895939 -0.0955538 -0.105957 0.111871 0.111211 0.110728
internal_weight=118.342 105.365 96.5122 92.4966 8.85296 77.5371 73.8591 65.9029 59.5715 52.2319 46.0035 38.9714 34.1994 26.3476 14.9595 18.004 13.0935 11.4546 7.84986 12.9766 7.95613 8.34361 7.85176 10.9726 7.21115 3.76062
internal_count=725 590 532 512 58 432 412 365 326 287 258 221 197 149 80 102 75 60 48 135 47 47 48 117 80 43
is_linear=0
shrinkage=0.1


Tree=17
num_leaves=28
num_cat=0
split_feature=2 0 210 16 1 37 6 188 216 185 87 179 137 1 141 0 245 202 59 240 64 78 0 48 230 76 138
split_gain=12.0466 3.19923 3.42613 2.94764 5.56431 4.48737 4.32879 4.51996 4.41441 5.54744 4.74911 3.72979 3.71672 3.64522 3.16718 3.13869 3.44438 3.76805 3.02022 2.51435 2.33433 1.72187 0.113852 0.0507298 0.00114785 0.000255963 3.72234e-05
threshold=0.72789101649422816 0.86473163311908241 0.12858773519995603 1.0000000180025095e-35 0.024860874745214704 0.15568508891057603 0.028372147079639153 0.083467572829808059 0.049662726175277359 0.19044891165815633 0.15215600127819937 0.092036488731575758 0.13446820749087593 0.075162119559377058 0.16183912145610771 0.065988783323446709 0.079317193470668054 0.078515290208974214 0.080387272529382867 0.10721046006638492 0.077479184582937469 0.232010389984771 0.041018383162528253 0.15286426114038318 0.18971267784178633 0.081162486444104065 0.13626323660531484
decision_type=2 2 2 2 2 2 2 2 2 2 2 2 2 2 2 2 2 2 2 2 2 2 2 2 2 2 2
left_child=1 3 -3 4 11 -5 8 -8 13 10 15 23 -13 -6 -12 22 -17 20 -9 -19 -18 24 -10 -1 25 26 -2
right_child=21 2 -4 5 6 -7 7 18 9 -11 14 12 -14 -15 -16 16 17 19 -20 -21 -22 -23 -24 -25 -26 -27 -28
leaf_value=-0.13653447138006575 0.10954186354106198 -0.013936975516601986 0.11050531770919861 0.10767449804206636 0.076939696200178473 -0.029680030392859637 -0.032992307544828181 0.11464044798228162 -0.14265334660383211 0.075932688512438451 -0.049159554840711273 -0.10452604021361958 0.036563626445045197 -0.034726095104178907 0.065213496708323063 -0.12591573204459758 -0.1368903249905162 0.072194926472042939 0.0077969982305962776 -0.04206164727943329 -0.020496968986225557 0.0050616520514282079 -0.11786396934072695 -0.11999197051905242 0.11270699683821271 0.11095314750758299 0.11009876059645946
leaf_weight=3.3438054695725423 3.0215074867010099 4.5560428500175458 4.3009952753782272 4.5827779099345189 6.7651703953742963 4.9450530707836151 6.5920089706778553 6.5848174691200239 3.1663982868194607 3.713035821914672 4.8625054433941823 3.4305755272507668 4.0968307480216026 5.1478535979986191 4.8223319500684738 4.8108640462160137 3.6581306830048543 4.1741454303264618 4.4227065443992615 3.5761203467845917 3.2574154138565063 1.814934879541396 4.4656854793429375 4.160179503262043 2.3617643937468529 2.8263513520359993 1.9912001490592954
leaf_count=21 38 26 28 24 33 22 31 36 18 19 25 24 23 29 24 28 22 22 20 25 20 17 38 32 24 32 24
internal_value=3.2331e-05 -0.0109773 0.0464924 -0.0163592 -0.022268 0.0363859 -0.0104169 0.0324943 -0.0248241 -0.0405617 -0.0523177 -0.0774727 -0.0277372 0.0286867 0.00778976 -0.0737916 -0.0524914 -0.0284059 0.0717119 0.0194748 -0.0820658 0.0948069 -0.128149 -0.127363 0.110774 0.110192 0.109763
internal_weight=115.451 103.435 8.85704 94.5784 85.0506 9.52783 70.0192 17.5995 52.4197 40.5066 36.7936 15.0314 7.52741 11.913 9.68484 27.1088 19.4767 14.6658 11.0075 7.75027 6.91555 12.0158 7.63208 7.50398 10.2008 7.83906 5.01271
internal_count=725 590 54 536 490 46 390 87 303 241 222 100 47 62 49 173 117 89 56 47 42 135 56 53 118 94 62
is_linear=0
shrinkage=0.1


Tree=18
num_leaves=27
num_cat=0
split_feature=2 124 0 77 205 189 28 152 1 212 24 59 2 144 57 72 232 4 146 88 177 8 1 72 230 77
split_gain=10.5888 3.15601 3.70834 3.68034 2.97059 4.01252 2.39125 2.37942 3.82369 3.80535 2.83344 2.77317 2.57139 2.17903 2.01132 1.73804 1.25373 1.25245 1.92439 1.37721 1.24522 1.12585 0.0630725 0.000810562 0.000115151 4.62671e-05
threshold=0.72789101649422816 0.28929909849110974 0.86473163311908241 0.10311604789132971 0.15353417291193219 0.04289049894731136 0.037966905290268353 0.052432920598087157 0.5667123161507075 0.15145004973442097 0.16458282928871493 0.041604535087041004 0.2709634996455817 0.21549738889121503 0.13326540213571877 0.21673382640462407 0.11478271906416997 0.14004167384912297 0.13461570564096884 0.12452903537751016 0.068995135169343913 0.072735022428111362 0.028555009211966104 0.13487740153701938 0.15966173564784039 0.13257369442910352
decision_type=2 2 2 2 2 2 2 2 2 2 2 2 2 2 2 2 2 2 2 2 2 2 2 2 2 2
left_child=1 2 4 -4 6 21 -1 16 9 10 14 -12 13 17 20 23 -8 18 19 -11 -9 -6 -22 24 25 -2
right_child=15 -3 3 -5 5 -7 7 8 -10 12 11 -13 -14 -15 -16 -17 -18 -19 -20 -21 22 -23 -24 -25 -26 -27
leaf_value=-0.088925715382365156 0.10859421584695256 -0.081849955661641882 -0.01259935947152719 0.12215131169965479 0.018971972529514443 0.089519130534745014 0.059214386488964044 -0.059797991742950113 0.059626882190487535 0.06387859404592923 0.02005570314986975 -0.089449631192793075 0.059698991191758956 -0.092379385268645087 -0.015288967227404696 0.0015208127387473498 -0.012816553689372588 -0.051569024891434348 -0.047215053606419297 -0.0080817523698529219 -0.12186095225481755 -0.058108210128306206 -0.13999765148402349 0.11111337128461606 0.10981069801141081 0.10922939426326619
leaf_weight=4.7047454640269271 2.8399676680564863 5.7969982475042334 3.8299888521432859 4.3052595183253288 3.9002771824598295 6.2953856661915779 5.9239236041903478 3.7362780347466487 5.1131906360387793 5.6853549554944127 6.4750417768955213 3.5975227430462837 4.9186679869890204 3.5182232335209838 3.0044079646468154 1.7640615627169598 4.0810579732060432 4.8088945448398581 4.5883068665862075 4.9973170757293701 4.2191706597805023 3.6855702921748161 3.5147720202803612 2.9070417210459709 1.6937593370676038 1.9234915152192114
leaf_count=32 39 39 19 33 20 33 30 22 28 30 36 24 26 25 19 17 21 28 23 23 34 23 22 33 21 25
internal_value=9.01193e-06 -0.0102203 -0.0058449 0.0587121 -0.0118977 0.030501 -0.0199725 -0.0152145 -0.0229615 -0.0309196 -0.059783 -0.0190553 -0.0060741 -0.0197835 -0.0881244 0.092574 0.0298328 -0.00706388 0.00695098 0.0302158 -0.107202 -0.0184773 -0.130103 0.109727 0.109103 0.108851
internal_weight=111.829 100.7 94.9034 8.13525 86.7681 13.8812 72.8869 68.1821 58.1771 53.064 24.5472 10.0726 28.5168 23.5981 14.4746 11.1283 10.005 20.0799 15.271 10.6827 11.4702 7.58585 7.73394 9.36426 6.45722 4.76346
internal_count=725 590 551 52 499 76 423 391 340 312 157 60 155 129 97 135 51 104 76 53 78 43 56 118 85 64
is_linear=0
shrinkage=0.1


Tree=19
num_leaves=30
num_cat=0
split_feature=2 10 149 9 0 43 117 74 163 97 186 6 146 123 225 74 54 230 65 74 175 195 55 50 36 87 79 213 62
split_gain=9.29676 2.68355 3.6183 2.96121 3.69079 3.27591 4.0621 2.70157 3.28798 2.39708 3.27983 2.48013 2.44917 2.0778 3.68182 1.9051 1.86179 1.79855 1.72412 1.71605 1.68955 1.67466 1.06424 0.288348 0.16403 0.00208868 0.00017122 2.43183e-05 6.60158e-06
threshold=0.72789101649422816 0.16624427251053156 0.23874290252335292 0.19334815482076564 0.10582349504603056 0.21275067728554928 0.023666888032903451 0.072886893543098366 0.14698190571445433 0.087380120606913012 0.18554394057639204 0.56661436365807083 0.031417228372880406 0.092183967552730853 0.17435168994927677 0.14334959527870103 0.10136110829192162 0.20844758947628547 0.059688143052255407 0.14550726365871111 0.21963546351587224 0.09162422322851646 0.15217921764907569 0.099211581853476311 0.10292563567056641 0.1831737357665553 0.10170234822130157 0.13242150620561319 0.087543164645640756
decision_type=2 2 2 2 2 2 2 2 2 2 2 2 2 2 2 2 2 2 2 2 2 2 2 2 2 2 2 2 2
left_child=1 3 23 4 7 6 -5 8 16 18 11 12 -11 -8 -15 -6 -1 25 -9 22 -16 -12 24 -3 -14 26 27 28 -2
right_child=17 2 -4 5 15 -7 13 9 -10 10 21 -13 19 14 20 -17 -18 -19 -20 -21 -22 -23 -24 -25 -26 -27 -28 -29 -30
leaf_value=0.0042038886804126995 0.10769658315628589 -0.12840794546615136 0.035431410596815691 -0.054354285495315846 -0.12274198928534433 -0.044056284252176448 0.11799491075165323 -0.015832649558315232 -0.032294782003252774 -0.0013678683060168075 -0.024815571311378168 0.019006914308821381 -0.12269835557751636 -0.030316216024096693 0.13028175076451814 -0.029197747919422895 0.091157884046953519 -0.0032305621015246105 0.078031293816968994 -0.041916858325486236 0.031935121264330568 0.061686247136536178 -0.065273102054367801 -0.081403511219881541 -0.15540483925757864 0.11206814779594297 0.1090951806670426 0.10828431181865572 0.10797243540347408
leaf_weight=3.8185162246227282 2.3881227895617472 3.3712370917201033 2.4725434482097626 3.522331587970263 4.3973884359002096 5.4925602450966826 4.9697002768516567 4.1085928827524176 5.965981312096118 4.2991445288062193 4.4642113447189313 3.9807512462139121 3.5923327729105932 4.4737510308623296 3.8512349873781204 4.3119545951485634 6.9332096502184868 1.7119665965437878 3.7366430163383484 5.3472220301628104 3.1968785971403122 4.4881631433963776 3.1319200694561005 2.1294505372643471 2.6754194349050522 1.7716162279248235 1.66853941231966 1.4070122987031934 1.3625261187553404
leaf_count=24 36 25 14 19 35 27 33 23 35 30 27 19 26 22 26 24 36 18 20 32 19 21 19 19 15 19 22 20 20
internal_value=1.16551e-05 -0.00942393 -0.0650467 -0.00453737 -0.0158307 0.0243536 0.0431279 -0.00649664 0.0272405 -0.020659 -0.0328107 -0.0527791 -0.0677829 0.0639485 0.0406368 -0.0764287 0.0602758 0.0903711 0.0288742 -0.0871448 0.0856738 0.0185511 -0.112874 -0.110211 -0.136659 0.109009 0.108215 0.10793 0.107797
internal_weight=109.041 98.7311 7.97323 90.7579 65.2515 25.5065 20.0139 56.5421 16.7177 39.8244 31.9792 23.0268 19.046 16.4916 11.5219 8.70934 10.7517 10.3098 7.84524 14.7469 7.04811 8.95237 9.39967 5.50069 6.26775 8.59782 6.8262 5.15766 3.75065
internal_count=725 590 58 532 386 146 119 327 95 232 189 141 122 100 67 59 60 135 43 92 45 48 60 44 41 117 98 76 56
is_linear=0
shrinkage=0.1


Tree=20
num_leaves=28
num_cat=0
split_feature=2 124 0 77 205 157 75 16 1 225 235 235 1 220 8 160 46 129 137 8 174 171 189 230 76 38 64
split_gain=8.15988 2.50773 2.77704 4.30107 2.37332 3.37629 1.99464 1.92441 3.89164 3.12291 3.47064 3.33008 3.35059 2.99687 3.51744 3.15939 2.95341 3.43699 2.61451 2.25031 2.21537 1.33312 0.0438162 0.000791138 0.00026664 2.50401e-05 1.21235e-06
threshold=0.72789101649422816 0.28929909849110974 0.86473163311908241 0.09309292588624106 0.15353417291193219 0.1548950280926519 0.22149050660117045 1.0000000180025095e-35 0.024860874745214704 0.046747199712242907 0.16665403230807824 0.10449447798758792 0.058862351628225257 1.0000000180025095e-35 0.072735022428111362 0.14371795242557359 0.088168473805666614 0.19545240454357934 0.16654605670666342 0.11408082197922502 0.09966136459190171 0.16852825853144848 0.024168787512364755 0.19198584519804276 0.10215719316596637 0.066862233567705057 0.061612105331300911
decision_type=2 2 2 2 2 2 2 2 2 2 2 2 2 2 2 2 2 2 2 2 2 2 2 2 2 2 2
left_child=1 2 4 -4 7 21 23 8 18 -10 11 13 -13 -11 15 -15 19 -18 22 -16 -14 -6 -1 24 25 -2 -27
right_child=6 -3 3 -5 5 -7 -8 -9 9 10 -12 12 20 14 16 -17 17 -19 -20 -21 -22 -23 -24 -25 -26 26 -28
leaf_value=-0.13088933116262544 0.10740648456600697 -0.074307046063756474 -0.030062738542508561 0.12163118003083298 0.049187291952936418 0.11118264976589901 -0.016541212397190343 0.030583716356534896 0.057536444117473176 -0.11967671419485584 -0.096049710371597499 0.090399546476460688 -0.073726683323846423 -0.13932167853026656 0.098795063610563977 -0.018324035484656259 -0.088881788826410624 0.04212914064985631 -0.015879119279975328 -0.009940688040393976 0.032043170251105965 -0.02854538663360863 -0.11378839702497692 0.1099494659755357 0.10861568730875824 0.10700541998859892 0.10686395165521625
leaf_weight=2.9039092734456045 2.1088937222957593 5.4942730888724318 3.3997952938079825 4.1515838503837585 3.3562443032860738 3.6134826615452758 1.5286839753389347 7.4840017557144156 5.7034078091382971 3.3356849700212505 5.4252824857830992 5.4362134486436835 3.3283850923180562 3.7295200154185313 4.5400274321436873 5.1212904304265976 4.6739564314484578 3.5034216791391373 3.7795036733150482 3.2770442366600037 4.8890729248523712 6.4392945244908333 3.0953478999435902 1.7744474858045576 1.7239541411399839 1.2211437933146956 1.2020872458815572
leaf_count=19 33 39 17 35 18 19 16 38 31 24 30 27 20 21 28 28 31 19 25 22 29 39 31 22 24 20 20
internal_value=1.90147e-05 -0.00869542 -0.00474211 0.0533353 -0.00998589 0.028565 0.0881558 -0.0173468 -0.0230641 -0.0123627 -0.0207982 -0.0110393 0.029494 -0.0306777 -0.0187288 -0.0693096 0.00926089 -0.032753 -0.0810246 0.0532113 -0.0107977 -0.00191185 -0.122066 0.108086 0.107557 0.107155 0.106935
internal_weight=106.24 96.6807 91.1865 7.55138 83.6351 13.409 9.55921 70.2261 62.7421 52.9633 47.2599 41.8346 13.6537 28.1809 24.8453 8.85081 15.9944 8.17738 9.77876 7.81707 8.21746 9.79554 5.99926 8.03053 6.25608 4.53212 2.42323
internal_count=725 590 551 52 499 76 135 423 385 310 279 249 76 173 149 49 100 50 75 50 49 57 50 119 97 73 40
is_linear=0
shrinkage=0.1


Tree=21
num_leaves=31
num_cat=0
split_feature=2 10 129 185 118 204 75 2 154 56 30 6 39 19 16 30 105 204 88 22 68 148 29 86 138 230 72 87 67 139
split_gain=7.16664 2.30576 3.07525 2.53707 2.61052 2.49159 2.28223 2.13767 3.49142 3.34543 2.38735 2.59464 3.19651 5.0473 3.39399 2.89119 3.44799 1.92664 1.89226 1.38978 2.4916 0.965971 0.877846 0.316176 0.0184889 0.000952983 0.000284827 4.71006e-05 8.66197e-06 1.01989e-06
threshold=0.72789101649422816 0.16624427251053156 0.21567950581349246 0.22890022355463782 0.069735379859730953 0.06460938955069577 0.2337006535733934 0.13822095812658863 0.091588954369504816 0.10804128495119596 0.10231550567729042 0.56661436365807083 0.26489370428179776 1.0000000180025095e-35 1.0000000180025095e-35 0.18316156378333759 0.15375506071072412 0.16575600417841066 0.078229410432344562 0.17329852023056067 0.095491034038854103 0.088045801866672921 0.064946032010312418 0.10062838126014766 0.11019828006076911 0.20472298661434898 0.15749687402774892 0.11388671697300111 0.080856264955538451 0.15098394721046102
decision_type=2 2 2 2 2 2 2 2 2 2 2 2 2 2 2 2 2 2 2 2 2 2 2 2 2 2 2 2 2 2
left_child=1 3 23 4 19 -6 25 10 9 -9 -7 12 13 14 15 21 -17 -11 -10 20 -1 24 -14 -3 -12 26 27 28 29 -2
right_child=6 2 -4 -5 5 7 -8 8 18 17 11 -13 22 -15 -16 16 -18 -19 -20 -21 -22 -23 -24 -25 -26 -27 -28 -29 -30 -31
leaf_value=-0.004250200030002294 0.10628868354268453 -0.12482251231678601 0.031413830703164239 0.079335113277189867 -0.08956286077435037 -0.097859903641799098 -0.034008206613607816 0.15312645501421474 0.015947252346494023 -0.021477167919560235 -0.12536427143036005 0.045985204203661298 -0.052673178724130604 0.067326627343977166 0.037180440537488854 -0.091036479654133931 0.023948909337412738 0.078651412286130859 -0.079556475662670795 -0.020120518636933264 0.095840418492927293 -0.044711097357136659 -0.13024158352180712 -0.07327913845145545 -0.11398636294529729 0.10976085948816208 0.10815202413600866 0.10704887853745569 0.10655352411885571 0.10615718020683514
leaf_weight=4.4299256578087789 1.1113900467753399 3.1728542037308207 2.4242106601595879 3.5495852977037421 4.1936496533453456 3.7640694193541995 1.3449516743421552 2.686327315866949 4.321163993328808 4.2636134997010231 2.9380722641944974 6.0353232622146598 2.8334953263401976 6.3784329891204825 5.4601343348622313 4.1627525761723501 6.9816141799092293 3.4985632039606571 3.9905162677168846 3.6407242342829695 5.6709059551358223 2.4431564882397652 3.0076033100485802 1.9044295586645601 2.7791204303503036 1.4153617769479749 1.3681083545088766 1.2220363467931745 1.1489038355648515 1.2565809041261671
leaf_count=29 20 25 15 20 29 25 14 17 26 25 22 30 19 37 27 28 36 22 25 18 33 14 22 18 28 18 20 20 20 23
internal_value=1.2264e-05 -0.00805105 -0.0612471 -0.00346579 -0.00698653 -0.0148363 0.0859713 -0.0100552 0.0184638 0.0569406 -0.0214912 -0.0148092 -0.02473 -0.0119981 -0.0324289 -0.0521172 -0.0190016 0.0236527 -0.029905 0.0328508 0.0519436 -0.0973423 -0.0926134 -0.105489 -0.119833 0.107423 0.106881 0.106514 0.106328 0.106219
internal_weight=103.398 94.5302 7.50149 87.0287 83.4792 69.7376 8.86733 65.544 18.7602 10.4485 46.7838 43.0197 36.9844 31.1433 24.7649 19.3047 11.1444 7.76218 8.31168 13.7416 10.1008 8.16035 5.8411 5.07728 5.71719 7.52238 6.10702 4.73891 3.51687 2.36797
internal_count=725 590 58 532 512 432 135 403 115 64 288 263 233 192 155 128 64 47 51 80 62 64 41 43 50 121 103 83 63 43
is_linear=0
shrinkage=0.1


Tree=22
num_leaves=29
num_cat=0
split_feature=2 73 124 0 77 28 16 218 64 153 141 213 220 184 27 3 6 0 37 136 0 9 2 203 75 230 76 50
split_gain=6.29712 2.70504 2.01018 2.17738 3.71137 1.94898 1.77638 4.36107 2.47557 2.82499 2.33115 2.10818 2.33086 2.06897 2.04262 1.91364 2.58129 3.46367 3.61516 1.62505 1.40038 1.05616 0.813298 0.757953 0.00124503 0.000351884 6.00086e-05 5.91929e-06
threshold=0.72789101649422816 0.26183557306538813 0.28929909849110974 0.86473163311908241 0.09309292588624106 0.037966905290268353 1.0000000180025095e-35 0.11646876500363502 0.095374569211154323 0.10122550157500405 0.063575618551802812 0.119619032413479 0.081067439911320316 0.10711269668197472 0.06097684495277296 0.078630460123971554 0.028372147079639153 0.065988783323446709 0.19182745967447448 0.080138338673936466 0.065988783323446709 0.16978374427273807 0.057195715842598353 0.14271678208106744 0.17548103362344994 0.19198584519804276 0.081162486444104065 0.11214509559056891
decision_type=2 2 2 2 2 2 2 2 2 2 2 2 2 2 2 2 2 2 2 2 2 2 2 2 2 2 2 2
left_child=2 24 3 5 -5 -1 8 -8 9 14 -11 12 20 21 -7 16 17 -12 -19 22 -10 -13 -14 -16 25 26 27 -2
right_child=1 -3 -4 4 -6 6 7 -9 11 10 15 13 19 -15 23 -17 -18 18 -20 -21 -22 -23 -24 -25 -26 -27 -28 -29
leaf_value=-0.075639269295587633 0.1055550678283757 -0.058149725031079194 -0.067979547640639251 -0.026398203010629458 0.11892202959057413 -0.0012535323552876417 0.11966213590196691 -0.030194979869737237 -0.066468765752777506 -0.08405865353746908 -0.12658608044848066 -0.03024522688715657 0.061016447024761715 -0.083186841544704598 -0.12761005131313224 0.054868084983747879 0.036978359856958902 0.048405302742612837 -0.085336382939670413 0.10170005786622847 0.031145164394689062 0.044912236547386609 -0.0038724267866523422 -0.066120202242971035 0.10989459423725899 0.10778940304163365 0.10644883279809769 0.10583575591118109
leaf_weight=4.1104167513549319 1.6951404958963379 1.1542511209845541 5.1838816925883284 3.3683026134967795 3.6748315170407295 3.1742975153028956 3.6659494787454596 4.1294035613536835 3.064176104962832 3.6324797347188023 3.3935956284403863 3.6951563209295255 3.7978030517697317 3.7550165951251984 3.9017569161951524 5.3060270547866812 6.5429010093212119 4.9003982990980131 3.4398697540163994 4.8844462111592293 2.8242963552474976 3.7849722877144814 3.9307464808225632 4.1228786818683147 1.1928388290107248 1.3201794475316999 1.5199327208101747 1.3493831381201742
leaf_count=32 34 12 39 17 35 20 21 20 23 26 26 22 22 26 31 30 38 26 26 24 18 19 20 29 16 20 27 26
internal_value=-6.72344e-06 0.0837986 -0.00748219 -0.00388159 0.0494242 -0.00857127 -0.00494136 0.0402789 -0.0101138 -0.0268826 -0.00948684 0.0115484 0.0322973 -0.0226198 -0.0691573 0.00199953 -0.013349 -0.041412 -0.00675527 0.0565492 -0.0196501 0.00778472 0.0280139 -0.0960179 0.106949 0.106352 0.105936 0.105679
internal_weight=100.515 8.23173 92.2836 87.0997 7.04313 80.0566 75.9462 7.79535 68.1508 38.4142 27.2153 29.7366 18.5015 11.2351 11.1989 23.5828 18.2768 11.7339 8.34027 12.613 5.88847 7.48013 7.72855 8.02464 7.07747 5.88464 4.56446 3.04452
internal_count=725 135 590 551 52 499 467 41 426 252 172 174 107 67 80 146 116 78 52 66 41 41 42 60 123 107 87 60
is_linear=0
shrinkage=0.1


Tree=23
num_leaves=29
num_cat=0
split_feature=2 21 73 21 177 117 235 188 186 196 64 7 98 83 229 67 152 149 195 178 1 220 183 243 75 230 76 50
split_gain=5.52909 4.1558 2.67733 2.26617 3.71459 3.71928 3.35481 3.06496 2.82306 2.92343 2.78341 2.20022 3.32688 2.80556 2.69972 2.55186 1.82578 2.4284 1.78166 2.15979 1.16917 0.79249 0.15895 0.0244728 0.00100787 0.000254489 4.50201e-05 4.31687e-06
threshold=0.72789101649422816 0.56671231615070761 0.26934036891567953 1.0000000180025095e-35 0.03521857604650841 0.023666888032903451 0.032973613109562504 0.083467572829808059 0.2941664872264349 0.050486442524590606 0.099782998778462265 0.11168704365199615 0.04554640355413201 0.071915809728482452 0.11063150796427916 1.0000000180025095e-35 0.10482132411132943 0.056483813694665007 0.14417116280174713 0.11313118017561576 0.084937103416297774 0.054998707904483905 0.10019772940019876 0.089005305619275568 0.17898485647231469 0.19198584519804276 0.081162486444104065 0.11214509559056891
decision_type=2 2 2 2 2 2 2 2 2 2 2 2 2 2 2 2 2 2 2 2 2 2 2 2 2 2 2 2
left_child=1 3 24 4 16 21 -7 -5 9 -8 -9 12 -11 14 -13 -14 17 -1 20 -20 22 -6 23 -17 25 26 27 -2
right_child=2 -3 -4 7 5 6 8 10 -10 11 -12 13 15 -15 -16 18 -18 -19 19 -21 -22 -23 -24 -25 -26 -27 -28 -29
leaf_value=0.06940705630796816 0.1049985894897551 -0.12270796593667753 -0.060403439422873406 -0.024114911625580961 -0.12374345477997724 0.073522725323266966 0.041098266310448349 0.025477322114106755 0.050068230519239913 0.033507463699789269 0.13576308667083981 0.025132738492324665 0.017131405330212932 0.048048953218425262 -0.095361111748963209 -0.11236906122514612 0.078614263763364056 -0.042494200154857734 -0.11405124262229512 0.0048560144332969761 -0.052926576281326056 -0.052681656311585591 -0.14656320048300517 -0.12645133430464536 0.10901986995528322 0.10699509759026071 0.1058000885854688 0.10524993357176471
leaf_weight=3.3634579330682737 1.5415406040847295 2.9966391995549193 1.1308885402977464 6.2161422446370151 3.6890133246779433 4.1410811617970458 5.2195318900048724 6.3098787814378721 5.0739427246153346 3.442082833498719 3.5906928777694702 3.1760256662964803 2.7178120538592365 5.530018363147974 4.4857261702418327 2.8727647624909896 5.8193694874644279 4.58022540807724 2.6176374182105056 3.6681024804711342 2.6055246144533148 2.7312765643000603 3.3357014730572701 2.1634106263518333 1.1106714606285093 1.2029622681438921 1.4354644827544687 1.2274212688207624
leaf_count=20 34 16 11 31 33 24 35 34 29 23 22 20 20 35 25 32 30 31 28 23 21 21 21 16 16 20 28 26
internal_value=-2.65896e-06 -0.00691414 0.0816327 -0.00294168 -0.0106032 -0.0217784 -0.0127566 0.0309207 -0.0203733 -0.028917 0.0654752 -0.0388978 -0.0572943 -0.00623343 -0.0454128 -0.0729365 0.0360603 0.00488623 -0.0871163 -0.0446618 -0.111426 -0.0935128 -0.129632 -0.118418 0.106276 0.105713 0.105346 0.10511
internal_weight=97.995 90.3461 7.64895 87.3494 71.2327 57.4697 51.0494 16.1167 46.9083 41.8343 9.90057 36.6148 23.423 13.1918 7.66175 19.981 13.7631 7.94368 17.2631 6.28574 10.9774 6.42029 8.37188 5.03618 6.51806 5.40739 4.20443 2.76896
internal_count=725 590 135 574 487 406 352 87 328 299 56 264 184 80 45 161 81 51 141 51 90 54 69 48 124 108 88 60
is_linear=0
shrinkage=0.1


Tree=24
num_leaves=29
num_cat=0
split_feature=2 73 13 185 17 185 14 148 185 196 58 1 69 229 12 9 153 134 163 38 1 65 1 75 230 76 62 204
split_gain=4.85798 2.61367 1.91174 2.35369 2.0646 2.24186 2.61659 2.34298 2.496 2.3034 2.15545 2.33832 2.85231 2.06871 3.85297 2.51785 1.87952 1.86163 1.4243 1.41063 1.1253 1.04279 0.581906 0.00072667 0.000176238 4.53338e-05 5.5141e-06 1.64222e-07
threshold=0.72789101649422816 0.29277599111378311 0.743722484585435 0.19044891165815633 0.05191249523343041 0.081296594108322059 0.2036365767140306 0.027164222821297653 0.040181575793001405 0.065940262286224863 0.039271425594782104 0.058862351628225257 0.048114108988924202 0.10494535590228841 0.1043376890128153 0.070059379022376508 0.10597220648781851 0.14305278997441542 0.14698190571445433 0.11450619315287391 0.064492340029695713 0.083337353713013762 0.079537281839865318 0.17898485647231469 0.19198584519804276 0.091936133412163321 0.10184617047566867 0.15981952784297362
decision_type=2 2 2 2 2 2 2 2 2 2 2 2 2 2 2 2 2 2 2 2 2 2 2 2 2 2 2 2
left_child=2 23 3 4 5 7 9 8 -1 22 18 17 -13 14 -11 -15 -14 19 -9 -12 -10 -17 -7 24 25 26 27 -2
right_child=1 -3 -4 -5 -6 6 -8 10 20 13 11 12 16 15 -16 21 -18 -19 -20 -21 -22 -23 -24 -25 -26 -27 -28 -29
leaf_value=-0.086965139577287895 0.10449708452591766 -0.060873198779038531 -0.072246073830313881 0.053244152317473759 -0.086520383839235049 0.050281822639720399 -0.11764482889494737 0.11384515909661504 -0.023799516272281239 -0.058466232741479787 -0.017551186082149402 -0.102134366289029 -0.050684344233554807 -0.0012026525071721392 0.091817735270088449 -0.045685347984528668 0.044604917672643074 0.10018243149348312 0.030249411360480885 0.066936019914476771 0.05107031707208131 -0.12691643002407327 -0.0044324136640779043 0.1081043481072238 0.10628664395002199 0.10537905404009953 0.10482283880074213 0.10455795538694301
leaf_weight=4.488715734332799 0.94720580428838708 1.1182033345103262 4.2031005769968024 6.8048417940735808 3.2175314128398886 4.7753102853894287 2.8343478403985491 3.7010045647621137 5.1626730822026712 3.9388075247406986 5.280176408588888 3.2850011400878421 3.4040942788124067 4.1657725274562818 3.0093751661479473 2.3950460478663445 5.2814579084515572 3.5736805461347094 4.5362094677984715 3.1582252755761147 3.2847786247730255 4.645905639976263 3.2782038375735283 1.0130527205765245 1.0953697897493837 1.1446840539574621 0.96071812883019436 0.83297979459166527
leaf_count=29 23 10 33 39 33 30 21 23 36 23 33 24 20 27 21 17 31 24 25 19 19 38 25 16 20 24 22 20
internal_value=-3.13268e-05 0.0794796 -0.00642661 -0.00314186 -0.00809815 -0.00469748 -0.0263718 0.00924266 -0.0267062 -0.0165009 0.023676 0.00851778 -0.0227614 -0.036246 0.00662429 -0.0628257 0.00725857 0.0396888 0.0678092 0.0140697 0.0053135 -0.0992849 0.0280103 0.105663 0.105166 0.104851 0.10463 0.104526
internal_weight=95.5365 7.11221 88.4243 84.2212 77.4163 74.1988 29.0428 45.156 12.9362 26.2084 32.2198 23.9826 11.9706 18.1549 6.94818 11.2067 8.68555 12.0121 8.23721 8.4384 8.44745 7.04095 8.05351 5.99401 4.98096 3.88559 2.7409 1.78019
internal_count=725 135 590 557 518 485 202 283 84 181 199 151 75 126 44 82 51 76 48 52 55 55 55 125 109 89 65 43
is_linear=0
shrinkage=0.1


Tree=25
num_leaves=30
num_cat=0
split_feature=2 72 10 149 220 9 210 188 2 108 132 74 163 151 146 37 121 19 76 137 141 222 163 50 75 230 76 62 204
split_gain=4.26421 3.04115 1.87185 2.64547 2.03046 2.26901 3.31263 3.10521 2.5336 3.0973 4.00988 2.92033 1.91517 2.75762 2.22882 1.92232 1.85436 1.76277 2.52916 1.58525 1.67775 0.875583 0.354859 0.263342 0.00197489 0.000169509 4.06742e-05 3.72699e-06 3.26876e-07
threshold=0.72789101649422816 0.27118900759558157 0.16624427251053156 0.23874290252335292 0.21168396629963951 0.19334815482076564 0.12858773519995603 0.10577146908697961 0.085398665355008965 0.13897562755727846 0.16244215327362996 0.072886893543098366 0.17862462831119244 0.068847478983804125 0.095245260782027122 0.18805692947352118 0.14143925563500462 1.0000000180025095e-35 0.091720468938105468 0.25005127867385507 0.077192731634361203 0.053012975582446061 0.15592029744580946 0.099211581853476311 0.21315737354343914 0.19198584519804276 0.091936133412163321 0.10184617047566867 0.16741681846249282
decision_type=2 2 2 2 2 2 2 2 2 2 2 2 2 2 2 2 2 2 2 2 2 2 2 2 2 2 2 2 2
left_child=2 24 4 23 5 8 7 -7 11 -10 -11 16 13 -13 17 -14 -1 18 -15 20 -8 -18 -22 -4 25 26 27 28 -2
right_child=1 -3 3 -5 -6 6 19 -9 9 10 -12 12 15 14 -16 -17 21 -19 -20 -21 22 -23 -24 -25 -26 -27 -28 -29 -30
leaf_value=-0.016394952195200704 0.10404922180994342 -0.085734721189531918 -0.12232620183523564 0.029920822613021522 -0.07026610740539721 0.028690952968158562 0.030016685723817167 -0.09552681597217505 -0.12574831231214753 0.043787052748266275 -0.091580669350503463 0.033500956268241469 0.063424214018458866 0.00055016973000044148 -0.11949718054437669 -0.019549987776299689 0.031624527221224358 0.036870852797274187 -0.11482976837941408 0.0045575018841743217 0.1459412962205163 0.095203020893320681 0.095169883365918001 -0.072002669658721374 0.10992011645477427 0.10580041559648411 0.10490313045841462 0.1043431071484054 0.10413746734699153
leaf_weight=3.6517380625009528 0.93503013253211953 0.97512079030275334 2.6538662090897551 2.3001232072710991 4.0985836014151564 5.4458624832332152 3.3539174459874612 3.1920073851943016 3.647462796419858 4.9322402477264387 3.9333795458078384 4.670234799385077 5.2012776732444745 3.8864634707570058 3.8979391492903224 6.0282520093023777 3.7580188475549203 2.8074224703013897 3.7166702039539814 3.2957366034388533 2.6650531440973282 5.1134363450109959 2.8475064300000668 1.7098337970674036 0.86251985654234875 1.1157894581556318 1.0946581028401849 0.87308648973703373 0.761700339615345
leaf_count=26 25 9 25 14 31 39 20 16 27 31 35 29 30 22 29 34 21 20 30 21 15 31 25 19 12 22 25 22 20
internal_value=-3.98358e-05 0.0773359 -0.00593873 -0.0568635 -0.00170439 0.00199089 0.030142 -0.017212 -0.00860828 -0.0481828 -0.0162711 0.00298036 -0.0138517 -0.0332198 -0.0549972 0.0188819 0.0435823 -0.030847 -0.0558515 0.0637739 0.0857851 0.0682707 0.119715 -0.102608 0.105516 0.104721 0.104393 0.104175 0.104089
internal_weight=93.4249 6.61791 86.807 6.66382 80.1432 76.0446 20.8001 8.63787 55.2445 12.5131 8.86562 42.7315 30.2083 18.9787 14.3085 11.2295 12.5232 10.4106 7.60313 12.1622 8.86648 8.87146 5.51256 4.3637 5.64278 4.78026 3.66448 2.56982 1.69673
internal_count=725 135 590 58 532 501 136 55 365 93 66 272 194 130 101 64 78 72 52 81 60 52 40 44 126 114 92 67 45
is_linear=0
shrinkage=0.1


Tree=26
num_leaves=31
num_cat=0
split_feature=21 2 230 10 149 225 13 184 14 111 152 234 180 74 71 73 6 212 2 116 62 110 35 178 51 164 73 76 87 115
split_gain=3.98331 3.39122 3.08764 1.86798 2.46609 2.11178 2.04861 2.0321 1.84464 3.18693 2.41448 2.30188 2.12216 2.01565 1.72538 1.44078 1.39985 2.06228 1.49748 2.2674 1.73334 1.09724 1.00202 0.96683 0.894382 0.833418 0.00539083 0.000137944 1.89696e-05 3.86021e-06
threshold=0.56671231615070761 0.72789101649422816 0.21438033657273603 0.16624427251053156 0.21694707178053649 0.36906260330741386 0.743722484585435 0.27021222427681196 0.2036365767140306 0.27839613663026169 0.069318513690556402 0.10783988144463046 0.029381841169901255 0.23202611467053955 0.12439771510626242 0.07072799498293296 0.56661436365807083 0.18190702621572602 0.2709634996455817 0.058151097114119657 0.065068640088649418 0.26083866897869756 0.15266974971889166 0.11313118017561576 0.37531197920737608 0.08419347624803207 0.24981652059363899 0.14909366218381506 0.11663960446695311 0.084625253017153262
decision_type=2 2 2 2 2 2 2 2 2 2 2 2 2 2 2 2 2 2 2 2 2 2 2 2 2 2 2 2 2 2
left_child=1 3 26 5 -5 6 7 8 9 10 14 -10 25 16 15 -1 17 18 19 20 -14 -11 -21 -19 -7 -12 27 28 29 -3
right_child=-2 2 -4 4 -6 24 -8 -9 11 21 12 -13 13 -15 -16 -17 -18 23 -20 22 -22 -23 -24 -25 -26 -27 -28 -29 -30 -31
leaf_value=0.021585890426735109 -0.11728429704886763 0.10397927210769838 -0.088065122299350873 -0.11408708624684785 0.010199799577006627 -0.09735454581491837 -0.064341158687520703 0.080419157594215931 -0.11056074399742744 0.121839939446978 -0.03119987087456419 0.012701731533157665 -0.018627523573320835 0.071691450856879821 -0.017097142700318663 0.097245542435130908 0.049414948994919446 -0.095496068326896499 0.065925058949405355 -0.008573157899409831 0.087353879893666608 0.039758192266753166 -0.089356509200914869 -0.022791477305325228 -0.014750075220167441 -0.10576345623630337 0.11219997415048018 0.10535341538935912 0.10432828099812919 0.10370197181392433
leaf_weight=4.8225591182708722 2.8093119561672202 0.72850723564624775 0.97506351023912419 3.2812417596578589 3.1092270910739899 2.7824308276176444 3.784217905253171 3.9979203119873992 2.868549942970275 3.0597853586077681 3.4660128206014624 3.2108289375901222 3.3175529818981975 3.5750084333121768 3.9212676286697379 5.2644484788179398 3.6266945675015441 3.8709121756255618 3.0559379607439032 2.6936837285757065 2.8853750750422478 3.4817242920398712 3.5709280446171761 3.4674847349524498 2.4781272225081921 2.6414258480072021 1.0719235613942144 0.87425862625241268 0.90012585371732701 1.6146421656012533
leaf_count=26 16 20 14 39 19 25 31 25 26 18 24 17 26 26 25 32 20 29 18 18 20 25 30 19 17 19 12 19 23 47
internal_value=-5.7034e-05 0.00366849 0.0752056 -0.00169421 -0.0536164 0.00268072 0.00723621 0.0112912 0.00689042 0.0125013 0.00394295 -0.0454596 -0.00970795 0.00120941 0.0391912 0.061073 -0.00830314 -0.0174593 0.00319096 -0.0121859 0.0306711 0.0781519 -0.0546209 -0.0611422 -0.0584415 -0.0634481 0.105883 0.104239 0.103938 0.103788
internal_weight=91.2072 88.3979 6.16452 82.2333 6.39047 75.8429 70.5823 66.7981 62.8002 56.7208 50.1793 6.07938 36.171 30.0636 14.0083 10.087 26.4886 22.8619 15.5235 12.4675 6.20293 6.54151 6.26461 7.3384 5.26056 6.10744 5.18946 4.11753 3.24328 2.34315
internal_count=725 709 135 574 58 516 474 443 418 375 332 43 249 206 83 58 180 160 112 94 46 43 48 48 42 43 121 109 90 67
is_linear=0
shrinkage=0.1


Tree=27
num_leaves=29
num_cat=0
split_feature=21 2 74 10 242 225 195 177 1 54 186 220 15 231 0 160 44 159 10 235 190 234 77 73 230 72 38 64
split_gain=3.40601 2.98508 3.05991 1.59332 2.38 1.75993 1.80525 1.54893 1.85894 3.76897 4.42205 2.6327 2.64906 1.91708 2.46157 3.25069 1.82265 1.72052 2.12375 1.31593 1.26728 0.818166 0.355205 0.00154993 0.000236634 4.02551e-05 4.16636e-06 1.80725e-07
threshold=0.56671231615070761 0.72789101649422816 0.28921536374549495 0.16624427251053156 0.12763808972447968 0.36906260330741386 0.029736371767526856 0.044311839494711659 0.028555009211966104 0.13387774768458702 0.12683127237882022 0.20366934488952868 0.51763480679419349 0.14613143960593936 0.059851186948128854 0.096233024461286107 0.074249711211338373 0.10291258958134782 0.13094485129929498 0.11315536721067601 0.038933027765192758 0.04414356852978716 0.16995370202457324 0.21914897847359041 0.20844758947628547 0.14134116622459439 0.066862233567705057 0.061612105331300911
decision_type=2 2 2 2 2 2 2 2 2 2 2 2 2 2 2 2 2 2 2 2 2 2 2 2 2 2 2 2
left_child=1 3 23 5 -5 6 -1 19 9 22 -11 12 13 14 16 -16 -10 18 -17 -8 -21 -7 -9 24 25 26 -3 -28
right_child=-2 2 -4 4 -6 21 7 8 11 10 -12 -13 -14 -15 15 17 -18 -19 -20 20 -22 -23 -24 -25 -26 -27 27 -29
leaf_value=-0.06043538699537674 -0.11123795402321029 0.1035763226080158 -0.094013925218199346 -0.120678634909393 0.004870031531090474 -0.012458646487217687 0.073025589149029013 -0.069989209486499226 0.022347254318985103 -0.064374333793696184 0.066897849771502274 -0.072007723906384186 -0.067927753151529255 -0.02127917619158232 -0.058848058788609506 -0.032588889535705712 0.1176232007873404 0.093355955689062839 0.079945574354643015 0.048310486230955393 -0.032451879767195706 -0.092424909891699769 -0.12496931791689703 0.10902482200038158 0.10567091881396114 0.10420803306330916 0.10335435764060488 0.10327896839970102
leaf_weight=3.7948191314935675 2.6729620173573485 1.191616667434573 0.92218123003840435 2.7063649855554095 3.4154165908694267 2.4571686424314967 6.4585784934461099 2.1058264132589093 3.0258720591664368 4.7309152446687204 5.6080109886825085 3.1919468976557246 2.9130654558539382 5.5193337090313426 3.9241406247019759 3.9897428378462774 5.9681983441114426 4.6689142733812332 2.8930141627788544 4.3326457664370537 3.5225869230926037 2.6694775857031345 2.6586391888558865 0.72112566232681263 0.70219114422798146 0.95056648179888714 0.62667767144739606 0.64551779814064503
leaf_count=29 16 36 8 29 29 18 39 18 20 39 32 22 24 37 28 29 36 31 17 27 23 24 23 11 14 25 20 21
internal_value=-6.36759e-05 0.00337913 0.0729255 -0.00159362 -0.0506335 0.0024397 0.00662181 0.0105062 0.00237579 -0.0270813 0.00682995 0.0147019 0.0231139 0.0319574 0.0439652 0.0197861 0.0855695 0.0464983 0.0147125 0.0395869 0.0120936 -0.0540976 -0.100669 0.104748 0.103999 0.103655 0.103442 0.103316
internal_weight=88.9875 86.3146 5.75988 80.5547 6.12178 74.4329 69.3063 65.5114 51.1976 15.1034 10.3389 36.0942 32.9023 29.9892 24.4699 15.4758 8.99407 11.5517 6.88276 14.3138 7.85523 5.12665 4.76447 4.8377 4.11657 3.41438 2.46381 1.2722
internal_count=725 709 135 574 58 516 474 445 356 112 71 244 222 198 161 105 56 77 46 89 50 42 41 127 116 102 77 41
is_linear=0
shrinkage=0.1


Tree=28
num_leaves=30
num_cat=0
split_feature=21 2 74 13 10 149 17 225 184 111 241 58 84 213 9 179 1 115 2 12 67 151 51 0 72 230 75 87 128
split_gain=2.91642 2.63087 3.50192 1.38642 1.532 2.32796 1.71476 1.6427 1.4202 1.79859 1.52703 2.09807 1.69386 1.7895 1.51452 1.25994 1.13675 1.04387 0.953152 2.5074 0.884403 0.861151 0.836236 0.826213 0.00184087 0.000233399 2.42628e-05 4.84557e-06 7.53791e-07
threshold=0.56671231615070761 0.72789101649422816 0.31022806422968502 0.743722484585435 0.16624427251053156 0.21694707178053649 0.05191249523343041 0.36227940541610232 0.27021222427681196 0.31999705789715543 0.042818378752843063 0.048003376949463307 0.066192244023235161 0.083551630870096802 0.1272113865722436 0.082976313356796116 0.035058874528385305 0.17011267939733557 1.0000000180025095e-35 0.1043376890128153 0.073170811185766307 0.10171123823678317 0.4101591502232701 0.059851186948128854 0.21915100796854955 0.18971267784178633 0.14766126527896359 0.10285408644248865 0.07235860036157897
decision_type=2 2 2 2 2 2 2 2 2 2 2 2 2 2 2 2 2 2 2 2 2 2 2 2 2 2 2 2 2
left_child=1 3 24 4 6 -6 7 8 9 10 21 18 16 14 17 -15 -13 -14 -12 -20 23 -1 -9 -17 25 26 27 28 -3
right_child=-2 2 -4 -5 5 -7 -8 22 -10 -11 11 12 13 15 -16 20 -18 -19 19 -21 -22 -23 -24 -25 -26 -27 -28 -29 -30
leaf_value=-0.0010326271811421513 -0.10562038613883432 0.10310665844451115 -0.12224923934735271 -0.06143569848162711 -0.11208547281609438 0.013498785978688142 -0.06451910947628528 -0.080000801267633426 0.077409181651032166 0.070813716840510521 0.094035489850759157 -0.0036305608777554448 0.10693173375364427 -0.056268738239354181 -0.0020919773935891444 0.056746255432747375 -0.07936081046988136 0.02958166432235302 -0.031450984097528743 0.080995590545782967 -0.037810468467265636 -0.076676218666887563 -0.0023247293507606824 -0.0086962610719126514 0.10936553171187864 0.10504797739696142 0.10379218584837079 0.1033487202924278 0.1029651061366155
leaf_weight=2.7674325443804255 2.5405670888721934 0.61103816144168399 0.79969433695077885 3.6778300404548636 2.8671682439744464 3.0422629117965698 3.3199455216526976 2.9024312607944003 3.3286432847380629 4.5112866126000872 3.2863761186599723 3.9601168632507315 3.6500495746731776 4.4810330383479586 5.0061606355011463 3.9733529165387136 3.9682981930673122 3.3423862904310226 3.6243985816836339 4.3788697049021721 3.1625215411186218 3.2991516441106796 2.6526815183460712 3.7498280815780163 0.68010766431689251 0.99561843648552883 0.68763548508286465 0.62200190126895893 0.97884579747915268
leaf_count=18 16 21 6 33 39 19 35 26 23 30 20 22 21 33 37 21 33 22 21 27 26 26 18 24 10 23 20 20 35
internal_value=-5.68171e-05 0.00312355 0.0708193 -0.00148507 0.00144406 -0.0474328 0.00560805 0.00913319 0.0139125 0.0102149 0.00502254 0.0111684 -0.000834516 0.0109574 0.0398969 -0.0116391 -0.0415348 0.0699584 0.0486919 0.0300725 0.00673241 -0.0421694 -0.0429089 0.024972 0.104565 0.103727 0.103273 0.103112 0.10302
internal_weight=86.8677 84.3272 5.37494 78.9522 75.2744 5.90943 69.365 66.045 60.4899 57.1613 52.65 46.5834 35.2937 27.3653 11.9986 15.3667 7.92842 6.99244 11.2896 8.00327 10.8857 6.06658 5.55511 7.72318 4.57525 3.89514 2.89952 2.21189 1.58988
internal_count=725 709 135 574 541 58 483 448 404 381 351 307 239 184 80 104 55 43 68 48 71 44 44 45 129 119 96 76 56
is_linear=0
shrinkage=0.1


Tree=29
num_leaves=29
num_cat=0
split_feature=2 74 124 0 210 205 189 1 125 177 8 31 3 146 1 16 9 193 220 215 87 9 86 72 230 75 87 128
split_gain=2.52841 3.02595 1.16417 1.72513 3.09097 1.24848 1.9079 1.32504 2.56389 1.89798 1.76122 2.16828 1.977 2.05024 2.09417 1.82127 1.73882 1.39124 0.968002 0.675074 0.581475 0.0261884 0.00289305 0.00134789 0.000171258 1.78181e-05 3.55805e-06 5.53871e-07
threshold=0.72789101649422816 0.31022806422968502 0.28929909849110974 0.86473163311908241 0.12858773519995603 0.15353417291193219 0.04289049894731136 0.5667123161507075 0.046081414948107503 0.065537134032578714 0.24586562156705552 0.15243696529635412 0.078630460123971554 0.16798854197698052 0.046350299305655707 1.0000000180025095e-35 0.19334815482076564 0.099582534003898007 0.13754068559346469 0.13806989679494003 0.074921686441985616 0.070059379022376508 0.12030772783374222 0.21915100796854955 0.18971267784178633 0.14766126527896359 0.10285408644248865 0.07235860036157897
decision_type=2 2 2 2 2 2 2 2 2 2 2 2 2 2 2 2 2 2 2 2 2 2 2 2 2 2 2 2
left_child=2 23 3 5 -5 7 19 8 9 -1 11 15 13 14 -13 17 21 20 -19 -7 -10 -11 -23 24 25 26 27 -2
right_child=1 -3 -4 4 -6 6 -8 -9 10 16 -12 12 -14 -15 -16 -17 -18 18 -20 -21 -22 22 -24 -25 -26 -27 -28 -29
leaf_value=-0.007959639334553464 0.10280237883684758 -0.10223479959354485 -0.055454708335402551 -0.017432471897095323 0.12441897654647993 -0.047903204342924041 0.072033055961180287 0.034190411496106445 -0.052896164601498576 -0.12593811706359243 0.066167063765110348 0.058258063806149285 0.081979252496449162 -0.064289537456350507 -0.024396522004504283 0.028436265575150332 -0.022701820321513598 -0.05437572568986182 -0.13079607662168696 0.01812800757041096 0.012255388656512663 -0.114810023210033 -0.10899657711686453 0.10841357676344268 0.10454714176258645 0.10341894743449612 0.10302008850502375 0.10267499572412553
leaf_weight=5.5921367444097987 0.55444327369332336 0.8571919873356818 4.2248829565942279 3.2716492414474478 2.8957748673856258 2.8225104697048646 4.8221194259822369 5.6467888951301566 2.5456759929656965 1.9823806881904582 3.3214612714946261 6.2977994531393104 3.3598128445446482 4.0160305909812442 5.9721844904124737 3.2883214727044097 3.0699178837239742 4.1018453724682331 2.781492542475462 3.4296083748340607 2.9658676572144032 1.5207011364400389 1.958503561094403 0.62051395326852787 0.90496826544404019 0.62432935461401928 0.56451444141566742 0.88807135447859764
leaf_count=39 21 6 39 25 27 22 33 36 20 19 17 38 21 26 38 22 20 35 24 21 22 17 29 10 23 20 20 35
internal_value=-4.54136e-05 0.0688376 -0.00436876 -0.0015162 0.0491707 -0.00601446 0.0247707 -0.0118501 -0.0167764 -0.0532386 -0.00345236 -0.00999764 0.0121371 -0.00227138 0.0180275 -0.0377251 -0.0829176 -0.0552775 -0.0852565 -0.0116817 -0.0178369 -0.116764 -0.111538 0.104115 0.10336 0.102952 0.102807 0.102724
internal_weight=84.9015 5.01403 79.8875 75.6626 6.16742 69.4952 11.0742 58.4209 52.7741 14.1236 38.6505 35.329 19.6458 16.286 12.27 15.6832 8.5315 12.3949 6.88334 6.25212 5.51154 5.46159 3.4792 4.15684 3.53633 2.63136 2.00703 1.44251
internal_count=725 135 590 551 52 499 76 423 387 124 263 246 123 102 76 123 85 101 59 43 42 65 46 129 119 96 76 56
is_linear=0
shrinkage=0.1


Tree=30
num_leaves=31
num_cat=0
