tree
version=v4
num_class=1
num_tree_per_iteration=1
label_index=0
max_feature_idx=246
objective=binary sigmoid:1
feature_names=Column_0 Column_1 Column_2 Column_3 Column_4 Column_5 Column_6 Column_7 Column_8 Column_9 Column_10 Column_11 Column_12 Column_13 Column_14 Column_15 Column_16 Column_17 Column_18 Column_19 Column_20 Column_21 Column_22 Column_23 Column_24 Column_25 Column_26 Column_27 Column_28 Column_29 Column_30 Column_31 Column_32 Column_33 Column_34 Column_35 Column_36 Column_37 Column_38 Column_39 Column_40 Column_41 Column_42 Column_43 Column_44 Column_45 Column_46 Column_47 Column_48 Column_49 Column_50 Column_51 Column_52 Column_53 Column_54 Column_55 Column_56 Column_57 Column_58 Column_59 Column_60 Column_61 Column_62 Column_63 Column_64 Column_65 Column_66 Column_67 Column_68 Column_69 Column_70 Column_71 Column_72 Column_73 Column_74 Column_75 Column_76 Column_77 Column_78 Column_79 Column_80 Column_81 Column_82 Column_83 Column_84 Column_85 Column_86 Column_87 Column_88 Column_89 Column_90 Column_91 Column_92 Column_93 Column_94 Column_95 Column_96 Column_97 Column_98 Column_99 Column_100 Column_101 Column_102 Column_103 Column_104 Column_105 Column_106 Column_107 Column_108 Column_109 Column_110 Column_111 Column_112 Column_113 Column_114 Column_115 Column_116 Column_117 Column_118 Column_119 Column_120 Column_121 Column_122 Column_123 Column_124 Column_125 Column_126 Column_127 Column_128 Column_129 Column_130 Column_131 Column_132 Column_133 Column_134 Column_135 Column_136 Column_137 Column_138 Column_139 Column_140 Column_141 Column_142 Column_143 Column_144 Column_145 Column_146 Column_147 Column_148 Column_149 Column_150 Column_151 Column_152 Column_153 Column_154 Column_155 Column_156 Column_157 Column_158 Column_159 Column_160 Column_161 Column_162 Column_163 Column_164 Column_165 Column_166 Column_167 Column_168 Column_169 Column_170 Column_171 Column_172 Column_173 Column_174 Column_175 Column_176 Column_177 Column_178 Column_179 Column_180 Column_181 Column_182 Column_183 Column_184 Column_185 Column_186 Column_187 Column_188 Column_189 Column_190 Column_191 Column_192 Column_193 Column_194 Column_195 Column_196 Column_197 Column_198 Column_199 Column_200 Column_201 Column_202 Column_203 Column_204 Column_205 Column_206 Column_207 Column_208 Column_209 Column_210 Column_211 Column_212 Column_213 Column_214 Column_215 Column_216 Column_217 Column_218 Column_219 Column_220 Column_221 Column_222 Column_223 Column_224 Column_225 Column_226 Column_227 Column_228 Column_229 Column_230 Column_231 Column_232 Column_233 Column_234 Column_235 Column_236 Column_237 Column_238 Column_239 Column_240 Column_241 Column_242 Column_243 Column_244 Column_245 Column_246
feature_infos=[0:1] [0:1] [0:1] [0:1] [0:1] [0:1] [0:1] [0:1] [0:1] [0:1] [0:1] [0:1] [0:1.0000000000000002] [0:1] [0:1] [0:1] [0:1] [0:1] [0:1] [0:1] [0:1] [0:1.0000000000000002] [0:1] [0:1] [0:1] [0:1] [0:1] [0:1] [0:1] [0:1] [0.034008228291632601:1] [0:1] [0:1] [0.019425387943214599:1] [0:1] [0:1] [0.0062923241976530001:1] [0.019113901892535999:1] [0:1] [0.0247910122362426:1] [0.0114978332373785:1] [0:1] [0.0150951657982836:1] [0:1] [0:1] [0.030819589099063401:1] [0:1] [0:1] [0:1] [0:1] [0:1] [0:1] [0:1] [0:1] [0:1] [0:1] [0:1] [0:1] [0:1] [0:1] [0:1] [0:1] [0:1] [0:1] [0:1] [0:1] [0:1] [0:1] [0:1] [0:1] [0:1] [0:1] [0:1] [0:1] [0:1] [0:1] [0:1] [0:1] [0:1] [0:1] [0:1] [0:1] [0:1] [0:1] [0:1] [0:1] [0:1] [0:1] [0:1] [0:1] [0:1] [0:1] [0:1] [0:1] [0:1] [0:1] [0:1] [0:1] [0:1] [0:1] [0:1] [0:1] [0:1] [0:1] [0:1] [0:1] [0:1] [0:1] [0:1] [0:1] [0:1] [0:1] [0:1] [0:1] [0.0226734415603819:1] [0:1] [0:1] [0:1] [0:1] [0:1] [0:1] [0.017040396150989501:1] [0:1] [0:1] [0.023345864056049399:1] [0:1] [0:1] [0:1] [0:1] [0:1] [0:1] [0:1] [0:1] [0:1] [0:1] [0:1] [0:1] [0:1] [0:1] [0:1] [0:1] [0:1] [0:1] [0:1] [0:1] [0:1] [0:1] [0:1] [0:1] [0:1] [0:1] [0:1] [0:1] [0:1] [0:1] [0:1] [0:1] [0:1] [0:1] [0:1] [0:1] [0:1] [0:1] [0:1] [0:1] [0:1] [0:1] [0.0123749880589219:1] [0.0248390278544172:1] [0.0248390278544172:1] [0.0121611982267579:1] [0.025060094487886798:1] [0.0147092461331065:1] [0:1] [0:1] [0:1] [0:1] [0:1] [0:1] [0:1] [0:1] [0:1] [0:1] [0:1] [0:1] [0:1] [0:1] [0:1] [0:1] [0:1] [0:1] [0:1] [0:1] [0:1] [0:1] [0:1] [0:1] [0:1] [0:1] [0:1] [0.010570415833860499:1] [0:1] [0:1] [0:1] [0:1] [0:1] [0:1] [0:1] [0:1] [0:1] [0:1] [0:1] [0:1] [0:1] [0:1] [0:1] [0:1] [0:1] [0:1] [0:1] [0:1] [0:1] [0:1] [0:1] [0:1] [0:1] [0:1] [0:1] [0:1] [0.015267580318513101:1] [0:1] [0:0.41198193175916559] [0:1] [0:1] [0:1] [0:1] [0.046604283493126397:1] [0:1] [0:1] [0:1] [0:1] [0:1] [0:1] [0:1] [0:1] [0:1] [0:1]
tree_sizes=2429 2862 2870 3079 3189 3191 3289

Tree=0
num_leaves=22
num_cat=0
split_feature=9 2 7 17 21 211 31 200 1 36 243 181 110 230 212 30 64 188 164 64 0
split_gain=171.752 42.5286 41.906 28.3826 21.0856 14.2586 11.6137 11.4776 11.393 11.3567 6.61161 6.54001 6.49451 6.24606 6.02991 10.5234 5.44302 2.55732 2.11673 0.683317 1.42109e-14
threshold=0.19334815482076564 0.039502867969371754 0.1527294460855306 0.05191249523343041 0.56671231615070761 0.16932066737689364 0.24249942963917834 0.092677428513163518 0.034454443422435012 0.092849821773961463 0.21158865503832439 0.19505384132920736 0.15796343874586141 0.16334782236802028 0.11640323712803731 0.22171013894754457 0.10029209465632587 0.041470746948273109 0.20659850769429552 0.17434551443854474 0.10582349504603056
decision_type=2 2 2 2 2 2 2 2 2 2 2 2 2 2 2 2 2 2 2 2 2
left_child=1 3 8 4 5 7 10 -1 19 -4 17 12 -9 14 -10 -16 -7 -3 20 -2 -19
right_child=2 6 9 -5 -6 16 -8 11 13 -11 -12 -13 -14 -15 15 -17 -18 18 -20 -21 -22
leaf_value=0.1623672951371459 0.22237653945375721 -0.090715170024214281 -0.11367522871926553 -0.1469111178792348 -0.14131585034388644 0.08902266319462121 0.0069587393428451987 0.0052002266888785779 0.22237653945375702 0.06751397347540572 -0.052665830330710803 0.070629025089912784 -0.13767892644590998 0.039014959597445199 0.013648733135109545 0.20498255559386988 0.22237653945375718 -0.17768508932365076 -0.12053342806973538 0.1823703765760164 -0.17768508932365082
leaf_weight=4.9992296099662807 29.245493218302727 5.7491140514612189 6.2490370124578458 9.7484977394342405 5.499152570962905 5.9990755319595319 6.4989984929561606 8.7486518174409884 7.9987673759460511 7.748805895447731 7.998767375946044 7.2488829344511023 4.9992296099662772 5.9990755319595328 5.749114051461218 5.7491140514612198 6.2490370124578476 16.247496232390407 8.7486518174409849 4.9992296099662772 8.7486518174409849
leaf_count=20 117 23 25 39 22 24 26 35 32 31 32 29 20 24 23 23 25 65 35 20 35
internal_value=0.0248289 -0.0558058 0.142364 0.00739015 0.0417773 0.0681044 -0.118417 0.0261925 0.178855 -0.0133741 -0.135573 -0.00623011 -0.0467558 0.128244 0.1557 0.109316 0.15706 -0.152365 -0.162868 0.216536 -0.177685
internal_weight=181.222 107.483 73.7386 53.4918 43.7433 38.2441 53.9917 25.996 59.7408 13.9978 47.4927 20.9968 13.7479 25.4961 19.497 11.4982 12.2481 39.4939 33.7448 34.2447 24.9961
internal_count=725 430 295 214 175 153 216 104 239 56 190 84 55 102 78 46 49 158 135 137 100
is_linear=0
shrinkage=1


Tree=1
num_leaves=26
num_cat=0
split_feature=9 2 7 17 21 211 74 121 1 200 86 87 72 1 149 226 185 146 30 56 245 243 165 64 128
split_gain=140.112 34.6223 34.3919 23.1206 17.1644 11.6592 9.93298 9.60028 9.49344 9.35314 5.9948 5.90974 11.0811 5.61874 7.29668 5.15369 4.69076 4.68081 2.16217 2.07745 0.690746 0.036981 0.0060584 0.00317196 0.00191612
threshold=0.19334815482076564 0.039502867969371754 0.1527294460855306 0.05191249523343041 0.56671231615070761 0.16932066737689364 0.24767193736169923 0.19501494332325323 0.034454443422435012 0.092677428513163518 0.099163905621918666 0.095193491818994655 0.068182073165234613 0.089752988049089766 0.13652136152533473 0.10796203873344536 0.076443668225243164 0.17544865037238647 0.22171013894754457 0.23340695294727912 0.22399415149048976 0.20666221170364887 0.15618148865850559 0.15787546867495372 0.075473706487356004
decision_type=2 2 2 2 2 2 2 2 2 2 2 2 2 2 2 2 2 2 2 2 2 2 2 2 2
left_child=1 3 8 4 5 9 13 -4 20 -1 15 12 -10 17 -15 -11 -7 19 -13 21 23 22 24 -2 -3
right_child=2 6 7 -5 -6 16 -8 -9 11 10 -12 18 -14 14 -16 -17 -18 -19 -20 -21 -22 -23 -24 -25 -26
leaf_value=0.1246165736442247 0.18006138249404097 -0.18372060847483745 -0.10116843387332093 -0.1554015244326663 -0.15027602383372363 0.18341702838167229 0.0048393859374016371 0.068544722149835799 0.15016183536762284 -0.049074413392046122 -0.11257770874647827 0.098718801915342311 -0.032743790609363319 0.0090984268651180533 -0.15478298765545997 0.06849303479400809 0.059175391592845156 -0.071223704118419828 0.18421041059520477 -0.12320130162834322 0.14008123445386031 -0.19516131280931262 -0.1884894301003914 0.18284076148952033 -0.18593167299591612
leaf_weight=4.967190325260165 23.952655494213108 9.4254092276096433 8.4788541495800001 9.6975801140069944 5.4726321399211875 5.9444254636764509 4.9918819516897193 5.4921735376119605 5.9419896900653857 7.9874132573604602 5.9869271516799918 5.4691227972507459 7.4844191074371338 4.9854925125837308 5.9704653471708298 6.9929466396570206 6.217067539691925 4.9822178333997718 6.4438447058200836 6.2166620492935172 4.9416864067316046 4.9967048317193976 5.4763203859329215 4.9556609839200965 6.7094136625528327
leaf_count=20 97 38 34 39 22 24 20 22 24 32 24 22 30 20 24 28 25 20 26 25 20 20 22 20 27
internal_value=1.63973e-05 -0.0728935 0.106671 -0.0157554 0.0153273 0.0391169 -0.129512 -0.0344522 0.139981 0.0012335 -0.0279962 0.0936929 0.0482029 -0.143266 -0.080209 0.00580697 0.119904 -0.161539 0.144962 -0.175248 0.174632 -0.187408 -0.185615 0.180538 -0.18464
internal_weight=180.181 107.021 73.1604 53.2662 43.5686 38.096 53.7546 13.971 59.1894 25.9345 20.9673 25.3394 13.4264 48.7627 10.956 14.9804 12.1615 37.8067 11.913 32.8245 33.85 26.6078 21.6111 28.9083 16.1348
internal_count=725 430 295 214 175 153 216 56 239 104 84 102 54 196 44 60 49 152 48 132 137 107 87 117 65
is_linear=0
shrinkage=0.1


Tree=2
num_leaves=26
num_cat=0
split_feature=9 9 7 17 21 31 224 211 66 150 1 45 87 72 211 139 243 195 177 187 239 126 221 245 64
split_gain=115.478 28.9777 28.6776 18.6725 13.6559 9.12983 10.9539 8.76853 9.44421 8.46939 8.25037 5.46182 4.93719 9.17725 4.91993 3.98575 3.42322 3.01096 2.09262 0.806624 0.702639 0.0254195 0.00930256 0.00181183 0.00101343
threshold=0.19334815482076564 0.070059379022376508 0.1527294460855306 0.05191249523343041 0.56671231615070761 0.14773493434868126 0.14280368598124218 0.16932066737689364 0.084757896962048065 0.12271838914384732 0.034454443422435012 0.20950560190699116 0.095193491818994655 0.068182073165234613 0.21533425031653977 0.17758689552134038 0.15404801004755544 0.18780383193945296 0.068995135169343913 0.10016349091814937 0.20290641777101823 0.062349623622767907 0.17870446335795337 0.20249925965911098 0.13760666740039193
decision_type=2 2 2 2 2 2 2 2 2 2 2 2 2 2 2 2 2 2 2 2 2 2 2 2 2
left_child=1 3 10 4 7 17 -7 8 -1 -4 20 15 13 -12 -9 -10 -8 19 -14 21 23 22 -3 24 -2
right_child=2 5 9 -5 -6 6 16 14 11 -11 12 -13 18 -15 -16 -17 -18 -19 -20 -21 -22 -23 -24 -25 -26
leaf_value=0.0959209598138554 0.16686878243934566 -0.17170996036345626 -0.094027758238698189 -0.14243307537754676 -0.13756524570440787 0.033094195104855118 -0.17998297221798376 0.16112179741296884 -0.13748804202369871 0.065654002048313453 0.13786661852548479 0.036071973090329945 0.088878815242656284 -0.02944711336470629 0.035290571423034565 -0.024598985575634669 -0.066129788152542349 -0.088879503189676579 0.17346599276295072 -0.13854847777338281 0.12627730184166075 -0.18166535856649987 -0.1771275881454534 0.16923291580860433 0.16850302889969579
leaf_weight=7.4196899682283428 17.770716607570655 8.2605760246515327 8.4345172345638257 9.5305792987346631 5.3847263753414145 7.1933955848217037 5.6492820978164655 6.5626687705516797 5.6982755213975924 5.4793544411659232 5.8302328288555163 6.7178780138492575 5.6344888657331449 7.4897523373365402 5.9015568345785141 6.932613417506218 4.9590351283550262 6.3937298506498328 6.0813413709402084 8.0701827108859998 4.8149212896823874 5.9008484482765189 5.1425807476043692 5.5593314319849005 4.8247415423393241
leaf_count=30 74 34 34 39 22 29 23 27 23 22 24 27 23 30 24 28 20 26 25 33 20 24 21 23 20
internal_value=3.35027e-05 -0.0664681 0.0977872 -0.0153747 0.0117658 -0.120116 -0.0621656 0.0322616 1.90136e-06 -0.0311443 0.128714 -0.0367803 0.085435 0.0437871 0.101543 -0.0755275 -0.12676 -0.150666 0.132786 -0.165097 0.161579 -0.176196 -0.173789 0.167616 0.167218
internal_weight=177.637 105.718 71.9194 54.148 44.6174 51.5696 17.8017 39.2327 26.7685 13.9139 58.0055 19.3488 25.0358 13.32 12.4642 12.6309 10.6083 33.7679 11.7158 27.3742 32.9697 19.304 13.4032 28.1548 22.5955
internal_count=725 430 295 220 181 210 72 159 108 56 239 78 102 54 51 51 43 138 48 112 137 79 55 117 94
is_linear=0
shrinkage=0.1


Tree=3
num_leaves=28
num_cat=0
split_feature=9 1 16 7 6 81 216 212 36 1 98 195 37 187 83 8 240 98 230 31 160 115 0 76 127 84 33
split_gain=95.8823 24.9712 27.9272 24.2109 19.0488 9.96937 8.88225 13.0097 7.50961 7.36703 5.16982 7.35308 4.75124 4.65481 4.38025 3.31296 1.12437 1.05472 0.703829 0.0573126 0.0316291 0.0202141 0.00462994 0.0012919 0.000368935 0.000208124 3.99281e-06
threshold=0.19334815482076564 0.5667123161507075 1.0000000180025095e-35 0.1527294460855306 0.56661436365807083 0.07100152762580321 0.17037998917799257 0.19896328296084442 0.092849821773961463 0.034454443422435012 0.071619930759271061 0.097406335317815215 0.15568508891057603 0.07206085925722637 0.060325793150276058 0.24586562156705552 0.18806158012538252 0.038740561529911462 0.20589029865878558 0.13452905379116833 0.15906409301141933 0.16262432928203199 0.053101064889789655 0.091936133412163321 0.088731566602640657 0.087916411945979725 0.16167463188038519
decision_type=2 2 2 2 2 2 2 2 2 2 2 2 2 2 2 2 2 2 2 2 2 2 2 2 2 2 2
left_child=1 2 4 9 6 -3 10 -8 -5 18 11 17 -4 -11 -15 16 19 -1 23 21 -21 22 -12 25 -25 26 -2
right_child=3 5 12 8 -6 -7 7 -9 -10 13 15 -13 -14 14 -16 -17 -18 -19 -20 20 -22 -23 -24 24 -26 -27 -28
leaf_value=-0.17124322044359047 0.15669523132602972 -0.019402341526418558 0.13080163230071803 -0.11088867879039388 0.04420216805191899 0.16500171829047383 -0.14869746821301566 0.0720180459728198 0.037476151382940782 0.023548581242337847 -0.16460092642300911 -0.014027056715422676 0.0020699999846584766 0.058717637974957007 0.16644750624968355 -0.073064977797329664 -0.1248670691512251 -0.10713615920835935 0.11532722632045245 -0.16827737829914757 -0.17894625823890825 -0.16910059205352795 -0.16074202287303152 0.15765942732650159 0.15886547663453832 0.15735254601334972 0.15657153422063683
leaf_weight=5.546792685985567 4.6180030852556317 5.6427295655012113 5.8383824825286847 6.1229246109724027 8.3142818063497526 6.1022427529096603 5.0338497757911664 5.6882985383272171 7.7042377293109894 9.5052053481340426 5.0006662458181443 8.0384858548641187 5.6335172057151794 7.5068109929561597 7.5905053466558456 5.0670102983713141 7.6677295416593543 4.7763096839189529 4.6512346267700186 5.7723982036113721 5.3580277115106583 6.257073685526847 8.2200432717800123 4.638422876596449 5.596980482339859 6.2532424330711356 5.9999208003282547
leaf_count=23 20 23 24 25 34 25 21 23 31 39 21 33 23 31 32 21 32 20 20 24 22 26 35 20 24 27 26
internal_value=4.82367e-05 -0.0609215 -0.0784128 0.0903533 -0.0991566 0.076407 -0.115614 -0.0316038 -0.0282226 0.119444 -0.130212 -0.08574 0.0675853 0.0783675 0.112881 -0.149051 -0.159111 -0.141582 0.151266 -0.167689 -0.173413 -0.164418 -0.162202 0.157433 0.158319 0.156895 0.156625
internal_weight=174.145 103.958 92.2129 70.1875 80.741 11.745 72.4267 10.7221 13.8272 56.3603 61.7045 18.3616 11.4719 24.6025 15.0973 43.3429 38.2759 10.3231 31.7578 30.6082 11.1304 19.4778 13.2207 27.1066 10.2354 16.8712 10.6179
internal_count=725 430 382 295 335 48 301 44 56 239 257 76 47 102 63 181 160 43 137 128 46 82 56 117 44 73 46
is_linear=0
shrinkage=0.1


Tree=4
num_leaves=29
num_cat=0
split_feature=9 2 7 17 21 200 211 31 56 97 1 220 208 64 162 48 212 223 8 221 87 188 220 230 218 216 77 182
split_gain=80.0084 20.776 20.558 13.3162 10.1682 8.31945 8.63498 7.31299 8.37497 7.01658 6.80738 6.46258 8.24277 4.48527 4.22909 4.17911 7.09077 7.96669 2.41877 1.41091 0.715075 0.0175043 0.00475326 0.00219984 0.00128813 0.000442115 0.000153534 3.82861e-06
threshold=0.19334815482076564 0.039502867969371754 0.1527294460855306 0.05191249523343041 0.56671231615070761 0.079252760445746459 0.17029677754164912 0.14773493434868126 0.10849335812997406 0.24734136228425094 0.034454443422435012 0.053002030562197204 0.1945458642183758 0.10029209465632587 0.18192560708436117 0.24035458733462733 0.11322020414015767 0.054228808796907606 0.24586562156705552 0.24584801987435584 0.20565759996172392 0.045808322507814102 0.090998148993804276 0.1951082616343863 0.15207502585210045 0.13528951710190243 0.13337265673246013 0.091114797610692203
decision_type=2 2 2 2 2 2 2 2 2 2 2 2 2 2 2 2 2 2 2 2 2 2 2 2 2 2 2 2
left_child=1 3 10 4 5 -1 11 18 -9 -4 20 -7 -13 -8 -10 16 -12 -18 19 21 23 -3 24 25 -23 26 27 -2
right_child=2 7 9 -5 -6 6 13 8 14 -11 15 12 -14 -15 -16 -17 17 -19 -20 -21 -22 22 -24 -25 -26 -27 -28 -29
leaf_value=0.13417355142358653 0.14835263213115199 -0.16054365455437986 -0.081184220055894651 -0.12204134641936193 -0.11986452795764134 -0.12807810069388673 0.022289184040257329 0.040847338089346194 -0.15003362245977533 0.066566274149933921 0.11827740056843961 -0.057163413013847565 0.088013632246404808 0.15820065563717059 -0.028414749077801862 0.14408334910250195 0.077709733621418711 -0.099328529174149388 -0.067667627632004387 -0.10266919095085288 0.1059361203244041 -0.15114323552236875 -0.15596410430591606 0.15123848821107383 -0.15345073638179987 0.14973514287307399 0.14904395132463119 0.14847232979731043
leaf_weight=6.4045060425996772 6.8106898367405062 4.9000363498926225 8.5545350015163404 8.9438351988792402 5.1174702048301688 4.8787975460290971 5.1245755255222303 6.4313250035047558 7.0697335898876172 5.1486359983682624 8.0136222243309074 9.3891408741474169 6.7028916180133811 4.6147343516349792 4.8007665127515793 6.0111763477325431 5.2828757613897306 4.8988580703735352 5.1950381547212592 6.784562110900878 4.4624114483594886 4.6974392384290677 5.7355147898197165 4.7034642547368994 4.9881615340709686 4.4356893599033347 5.5186111181974402 4.3976416140794754
leaf_count=27 31 21 35 39 22 20 21 26 30 21 34 38 27 20 20 26 22 20 22 29 20 21 25 21 22 20 25 20
internal_value=4.75651e-05 -0.0561229 0.0838268 -0.011196 0.0122786 0.0304989 0.00887785 -0.101559 -0.0510554 -0.0256705 0.11134 -0.0272587 0.00330788 0.0866875 -0.100848 0.0717937 0.0479114 -0.00747078 -0.130174 -0.142154 0.142905 -0.155337 -0.153683 0.149282 -0.152332 0.148848 0.148612 0.1484
internal_weight=170.017 101.779 68.2382 51.176 42.2321 37.1146 30.7101 50.6026 18.3018 13.7032 54.535 20.9708 16.092 9.73931 11.8705 24.2065 18.1954 10.1817 32.3008 27.1057 30.3285 20.3212 15.4211 25.8661 9.6856 21.1626 16.7269 11.2083
internal_count=725 430 295 214 175 153 126 216 76 56 239 85 65 41 50 102 76 42 140 118 137 89 68 117 43 96 76 51
is_linear=0
shrinkage=0.1


Tree=5
num_leaves=29
num_cat=0
split_feature=9 9 7 17 21 216 240 67 1 149 1 34 129 238 227 178 68 235 40 212 220 12 62 205 64 216 60 174
split_gain=67.089 17.888 17.6308 11.0452 8.27388 6.84775 6.73085 6.51087 6.33986 6.16807 7.23646 6.04351 5.54839 4.89958 4.70388 4.09056 4.85856 3.17842 2.78542 0.737215 0.261145 0.0292025 0.0313075 0.00510685 0.00177895 0.00072186 8.85746e-05 7.66577e-05
threshold=0.19334815482076564 0.070059379022376508 0.1527294460855306 0.05191249523343041 0.56671231615070761 0.17037998917799257 0.11755323753135187 0.058948033194698407 0.034454443422435012 0.13652136152533473 0.089752988049089766 0.22097307631770902 0.081934040386105259 0.12107829766810287 0.062218571923556308 0.033760065695333956 0.1189625973375039 0.095979131919360069 0.29166281614835676 0.19963257793377856 0.096679735525216914 0.11730367390686011 0.087543164645640756 0.10707904481925651 0.15032285291401262 0.14053723688134917 0.087623045631399957 0.16694420070512142
decision_type=2 2 2 2 2 2 2 2 2 2 2 2 2 2 2 2 2 2 2 2 2 2 2 2 2 2 2 2
left_child=1 3 8 4 6 9 12 -4 19 10 14 -8 -1 -14 -3 -10 -17 -15 -18 24 -16 22 -11 -23 25 26 -2 -28
right_child=2 5 7 -5 -6 -7 11 -9 15 21 -12 -13 13 17 20 16 18 -19 -20 -21 -22 23 -24 -25 -26 -27 27 -29
leaf_value=0.06262285354103167 0.14167665222619097 -0.029226848925072192 -0.085580406916867691 -0.11435581387763427 -0.11186068967953225 -0.0072627555752609388 0.12872168356097458 0.053437998212657795 -0.016720134798187385 -0.16242157356880593 0.03304834361887616 -0.001840609458268503 -0.12618101506397683 -0.054464008776690678 -0.12979558461505694 0.013875023479064911 0.15848244405067824 0.055211304483865867 0.062294400379851234 0.097567617721490876 -0.16087542344853761 -0.14617375003869618 -0.15141441177899961 -0.15094197680524435 0.14450548897097343 0.14335253795488836 0.14245646001116957 0.14185020893310391
leaf_weight=7.4401378929615047 7.2671485096216299 5.2847864627838197 7.5152416378259641 8.6079471409320814 4.9443075060844413 7.356423780322074 9.1195931732654554 6.1062888205051422 4.7620771974325207 4.6544046252965945 4.8162569999694815 5.8001569211482993 4.8152784705162039 5.8166730254888517 5.8149460554122907 6.1449904888868359 7.9502041041851026 4.8419371992349625 4.8454329818487167 4.257726624608039 5.052485853433609 4.5295180380344373 5.8091551959514618 4.4556913673877716 4.2605058550834647 4.6396946310997 4.1833343803882581 4.1595110893249512
leaf_count=32 35 23 31 39 22 31 39 25 20 20 20 24 20 24 27 26 35 20 21 20 22 21 26 20 20 22 20 20
internal_value=6.33842e-05 -0.0519554 0.0781084 -0.0110025 0.00979465 -0.0960049 0.0256932 -0.0232609 0.104424 -0.112157 -0.074534 0.0779647 -0.00834178 -0.0424629 -0.106613 0.0661296 0.0869598 -0.00464129 0.122058 0.135976 -0.144245 -0.15272 -0.156311 -0.148538 0.142648 0.142257 0.141932 0.142154
internal_weight=165.252 99.1597 66.0922 51.386 42.7781 47.7737 37.8338 13.6215 52.4706 40.4172 20.9685 14.9198 22.914 15.4739 16.1522 23.7027 18.9406 10.6586 12.7956 28.7679 10.8674 19.4488 10.4636 8.98521 24.5102 20.2497 15.61 8.34285
internal_count=725 430 295 220 181 210 159 56 239 179 92 63 96 64 72 102 82 44 56 137 49 87 46 41 117 97 75 40
is_linear=0
shrinkage=0.1


Tree=6
num_leaves=30
num_cat=0
split_feature=9 1 16 2 6 43 81 31 77 124 214 55 1 79 68 190 175 211 163 245 228 0 148 215 230 212 87 29 170
split_gain=56.3468 15.6698 18.4101 15.439 12.3029 9.66953 7.60095 6.87359 6.30342 6.65786 6.17617 5.2223 5.34367 4.16423 2.218 4.32502 2.19309 1.93096 1.22071 0.784351 0.295133 0.0434009 0.0423228 0.0208552 0.0035871 0.00200616 0.00124367 7.12415e-05 2.37823e-06
threshold=0.19334815482076564 0.5667123161507075 1.0000000180025095e-35 0.72789101649422816 0.56661436365807083 0.21275067728554928 0.07100152762580321 0.24249942963917834 0.13257369442910352 0.1293493892715197 0.11889437652040948 0.14157855105880593 0.083675076883056407 0.046798187784449059 0.19215151587634102 0.084855947113605515 0.10494189401587641 0.140018170895813 0.17833470853725611 0.22399415149048976 0.042900293371508906 0.041018383162528253 0.047798585187840657 0.1366119490735144 0.11643236796338437 0.19085050494231945 0.15517759586928362 0.13358107542831069 0.12065534572954821
decision_type=2 2 2 2 2 2 2 2 2 2 2 2 2 2 2 2 2 2 2 2 2 2 2 2 2 2 2 2 2
left_child=1 2 4 5 7 8 -3 11 9 10 -2 14 16 -4 20 -16 -13 -10 22 25 -1 -22 -17 24 -23 26 27 28 -5
right_child=3 6 13 19 -6 -7 -8 -9 17 -11 -12 12 -14 -15 15 18 -18 -19 -20 -21 21 23 -24 -25 -26 -27 -28 -29 -30
leaf_value=-0.1193191581830479 0.0021983780679226679 -0.020439141013959633 0.11059970010288821 0.13624727397418349 0.035873358309982041 -0.083222451443803289 0.14408797762315145 -0.008482348586052053 0.14438514262655511 -0.063119653700120334 0.15119185605711177 -0.15133915430505096 0.02694355703230077 -0.013709391880379937 -0.015959547925027066 -0.14145465292474421 -0.055240016427231899 0.064783847245076298 -0.08551891795413559 0.089416221130759713 -0.1548403665050169 -0.14449868953394729 -0.15520576147997656 -0.15086511627593355 -0.14058459211459659 0.13918991443032572 0.13825576616287819 0.13666541557776798 0.13614715415662862
leaf_weight=4.1670822799205807 6.8931707888841682 5.5418516844511014 6.3502016812562925 3.9051495790481656 8.0853722989559156 6.1960833966732016 5.6920437067747116 8.1009604036807996 6.8497647494077665 6.6722767204046241 4.6650593280792236 4.4009948223829252 5.1411810219287863 4.681470587849617 4.7735257595777538 4.546738386154173 5.1579586416482925 5.4898404479026794 4.7521606236696234 4.0298455953598014 7.0692938268184689 4.6581690758466703 4.4082037359476089 4.4197879731655112 4.7077996432781219 4.2448497116565695 4.400853917002677 4.5142585635185233 6.0453013181686401
leaf_count=20 29 23 27 20 34 26 25 34 31 28 20 20 22 20 21 22 23 24 22 20 32 22 20 20 23 21 22 23 31
internal_value=6.50531e-05 -0.0481048 -0.0627064 0.0729191 -0.0805841 0.0306892 0.0629242 -0.0947855 0.0537773 0.0164187 0.0623342 -0.106798 -0.055268 0.0578471 -0.12421 -0.097936 -0.0994846 0.108971 -0.126484 0.130127 -0.143615 -0.14847 -0.148224 -0.145203 -0.142531 0.137226 0.136784 0.136336 0.136186
internal_weight=160.561 96.6548 85.4209 63.9065 74.3892 36.7662 11.2339 66.3039 30.5701 18.2305 11.5582 58.2029 14.7001 11.0317 43.5028 18.4806 9.55895 12.3396 13.7071 27.1403 25.0221 20.8551 8.95494 13.7858 9.36597 23.1104 18.8656 14.4647 9.95045
internal_count=725 430 382 295 335 158 48 301 132 77 49 267 65 47 202 85 43 55 64 137 117 97 42 65 45 117 96 74 51
is_linear=0
shrinkage=0.1


end of trees

feature_importances:
Column_1=11
Column_9=9
Column_7=6
Column_64=6
Column_211=6
Column_17=5
Column_21=5
Column_31=5
Column_212=5
Column_2=4
Column_87=4
Column_216=4
Column_230=4
Column_0=3
Column_200=3
Column_220=3
Column_243=3
Column_245=3
Column_6=2
Column_8=2
Column_16=2
Column_30=2
Column_36=2
Column_56=2
Column_68=2
Column_72=2
Column_77=2
Column_81=2
Column_98=2
Column_149=2
Column_187=2
Column_188=2
Column_195=2
Column_221=2
Column_240=2
Column_12=1
Column_29=1
Column_33=1
Column_34=1
Column_37=1
Column_40=1
Column_43=1
Column_45=1
Column_48=1
Column_55=1
Column_60=1
Column_62=1
Column_66=1
Column_67=1
Column_74=1
Column_76=1
Column_79=1
Column_83=1
Column_84=1
Column_86=1
Column_97=1
Column_110=1
Column_115=1
Column_121=1
Column_124=1
Column_126=1
Column_127=1
Column_128=1
Column_129=1
Column_139=1
Column_146=1
Column_148=1
Column_150=1
Column_160=1
Column_162=1
Column_163=1
Column_164=1
Column_165=1
Column_170=1
Column_174=1
Column_175=1
Column_177=1
Column_178=1
Column_181=1
Column_182=1
Column_185=1
Column_190=1
Column_205=1
Column_208=1
Column_214=1
Column_215=1
Column_218=1
Column_223=1
Column_224=1
Column_226=1
Column_227=1
Column_228=1
Column_235=1
Column_238=1
Column_239=1

parameters:
[boosting: gbdt]
[objective: binary]
[metric: auc]
[tree_learner: serial]
[device_type: cpu]
[data_sample_strategy: bagging]
[data: ]
[valid: ]
[num_iterations: 100]
[learning_rate: 0.1]
[num_leaves: 31]
[num_threads: 0]
[seed: 42]
[deterministic: 0]
[force_col_wise: 0]
[force_row_wise: 0]
[histogram_pool_size: -1]
[max_depth: -1]
[min_data_in_leaf: 20]
[min_sum_hessian_in_leaf: 0.001]
[bagging_fraction: 1]
[pos_bagging_fraction: 1]
[neg_bagging_fraction: 1]
[bagging_freq: 0]
[bagging_seed: 400]
[bagging_by_query: 0]
[feature_fraction: 1]
[feature_fraction_bynode: 1]
[feature_fraction_seed: 30056]
[extra_trees: 0]
[extra_seed: 12879]
[early_stopping_round: 0]
[early_stopping_min_delta: 0]
[first_metric_only: 0]
[max_delta_step: 0]
[lambda_l1: 0]
[lambda_l2: 0]
[linear_lambda: 0]
[min_gain_to_split: 0]
[drop_rate: 0.1]
[max_drop: 50]
[skip_drop: 0.5]
[xgboost_dart_mode: 0]
[uniform_drop: 0]
[drop_seed: 17869]
[top_rate: 0.2]
[other_rate: 0.1]
[min_data_per_group: 100]
[max_cat_threshold: 32]
[cat_l2: 10]
[cat_smooth: 10]
[max_cat_to_onehot: 4]
[top_k: 20]
[monotone_constraints: ]
[monotone_constraints_method: basic]
[monotone_penalty: 0]
[feature_contri: ]
[forcedsplits_filename: ]
[refit_decay_rate: 0.9]
[cegb_tradeoff: 1]
[cegb_penalty_split: 0]
[cegb_penalty_feature_lazy: ]
[cegb_penalty_feature_coupled: ]
[path_smooth: 0]
[interaction_constraints: ]
[verbosity: -1]
[saved_feature_importance_type: 0]
[use_quantized_grad: 0]
[num_grad_quant_bins: 4]
[quant_train_renew_leaf: 0]
[stochastic_rounding: 1]
[linear_tree: 0]
[max_bin: 255]
[max_bin_by_feature: ]
[min_data_in_bin: 3]
[bin_construct_sample_cnt: 200000]
[data_random_seed: 175]
[is_enable_sparse: 1]
[enable_bundle: 1]
[use_missing: 1]
[zero_as_missing: 0]
[feature_pre_filter: 1]
[pre_partition: 0]
[two_round: 0]
[header: 0]
[label_column: ]
[weight_column: ]
[group_column: ]
[ignore_column: ]
[categorical_feature: ]
[forcedbins_filename: ]
[precise_float_parser: 0]
[parser_config_file: ]
[objective_seed: 16083]
[num_class: 1]
[is_unbalance: 0]
[scale_pos_weight: 1]
[sigmoid: 1]
[boost_from_average: 1]
[reg_sqrt: 0]
[alpha: 0.9]
[fair_c: 1]
[poisson_max_delta_step: 0.7]
[tweedie_variance_power: 1.5]
[lambdarank_truncation_level: 30]
[lambdarank_norm: 1]
[label_gain: ]
[lambdarank_position_bias_regularization: 0]
[eval_at: ]
[multi_error_top_k: 1]
[auc_mu_weights: ]
[num_machines: 1]
[local_listen_port: 12400]
[time_out: 120]
[machine_list_filename: ]
[machines: ]
[gpu_platform_id: -1]
[gpu_device_id: -1]
[gpu_use_dp: 0]
[num_gpu: 1]

end of parameters

pandas_categorical:null
