tree
version=v4
num_class=1
num_tree_per_iteration=1
label_index=0
max_feature_idx=246
objective=binary sigmoid:1
feature_names=Column_0 Column_1 Column_2 Column_3 Column_4 Column_5 Column_6 Column_7 Column_8 Column_9 Column_10 Column_11 Column_12 Column_13 Column_14 Column_15 Column_16 Column_17 Column_18 Column_19 Column_20 Column_21 Column_22 Column_23 Column_24 Column_25 Column_26 Column_27 Column_28 Column_29 Column_30 Column_31 Column_32 Column_33 Column_34 Column_35 Column_36 Column_37 Column_38 Column_39 Column_40 Column_41 Column_42 Column_43 Column_44 Column_45 Column_46 Column_47 Column_48 Column_49 Column_50 Column_51 Column_52 Column_53 Column_54 Column_55 Column_56 Column_57 Column_58 Column_59 Column_60 Column_61 Column_62 Column_63 Column_64 Column_65 Column_66 Column_67 Column_68 Column_69 Column_70 Column_71 Column_72 Column_73 Column_74 Column_75 Column_76 Column_77 Column_78 Column_79 Column_80 Column_81 Column_82 Column_83 Column_84 Column_85 Column_86 Column_87 Column_88 Column_89 Column_90 Column_91 Column_92 Column_93 Column_94 Column_95 Column_96 Column_97 Column_98 Column_99 Column_100 Column_101 Column_102 Column_103 Column_104 Column_105 Column_106 Column_107 Column_108 Column_109 Column_110 Column_111 Column_112 Column_113 Column_114 Column_115 Column_116 Column_117 Column_118 Column_119 Column_120 Column_121 Column_122 Column_123 Column_124 Column_125 Column_126 Column_127 Column_128 Column_129 Column_130 Column_131 Column_132 Column_133 Column_134 Column_135 Column_136 Column_137 Column_138 Column_139 Column_140 Column_141 Column_142 Column_143 Column_144 Column_145 Column_146 Column_147 Column_148 Column_149 Column_150 Column_151 Column_152 Column_153 Column_154 Column_155 Column_156 Column_157 Column_158 Column_159 Column_160 Column_161 Column_162 Column_163 Column_164 Column_165 Column_166 Column_167 Column_168 Column_169 Column_170 Column_171 Column_172 Column_173 Column_174 Column_175 Column_176 Column_177 Column_178 Column_179 Column_180 Column_181 Column_182 Column_183 Column_184 Column_185 Column_186 Column_187 Column_188 Column_189 Column_190 Column_191 Column_192 Column_193 Column_194 Column_195 Column_196 Column_197 Column_198 Column_199 Column_200 Column_201 Column_202 Column_203 Column_204 Column_205 Column_206 Column_207 Column_208 Column_209 Column_210 Column_211 Column_212 Column_213 Column_214 Column_215 Column_216 Column_217 Column_218 Column_219 Column_220 Column_221 Column_222 Column_223 Column_224 Column_225 Column_226 Column_227 Column_228 Column_229 Column_230 Column_231 Column_232 Column_233 Column_234 Column_235 Column_236 Column_237 Column_238 Column_239 Column_240 Column_241 Column_242 Column_243 Column_244 Column_245 Column_246
feature_infos=[0:1] [0:1] [0:1] [0:1] [0:1] [0:1] [0:1] [0:1] [0:1] [0:1] [0:1] [0:1] [0:1.0000000000000002] [0:1] [0:1] [0:1] [0:1] [0:1] [0:1] [0:1] [0:1] [0:1.0000000000000002] [0:1] [0:1] [0:1] [0:1] [0:1] [0:1] [0:1] [0:1] [0.034008228291632601:1] [0:1] [0:1] [0.019425387943214599:1] [0:1] [0:1] [0.0062923241976530001:1] [0.019113901892535999:1] [0:1] [0.0247910122362426:1] [0.0114978332373785:1] [0:1] [0.0150951657982836:1] [0:1] [0:1] [0.030819589099063401:1] [0:1] [0:1] [0:1] [0:1] [0:1] [0:1] [0:1] [0:1] [0:1] [0:1] [0:1] [0:1] [0:1] [0:1] [0:1] [0:1] [0:1] [0:1] [0:1] [0:1] [0:1] [0:1] [0:1] [0:1] [0:1] [0:1] [0:1] [0:1] [0:1] [0:1] [0:1] [0:1] [0:1] [0:1] [0:1] [0:1] [0:1] [0:1] [0:1] [0:1] [0:1] [0:1] [0:1] [0:1] [0:1] [0:1] [0:1] [0:1] [0:1] [0:1] [0:1] [0:1] [0:1] [0:1] [0:1] [0:1] [0:1] [0:1] [0:1] [0:1] [0:1] [0:1] [0:1] [0:1] [0:1] [0:1] [0:1] [0:1] [0.0226734415603819:1] [0:1] [0:1] [0:1] [0:1] [0:1] [0:1] [0.017040396150989501:1] [0:1] [0:1] [0.023345864056049399:1] [0:1] [0:1] [0:1] [0:1] [0:0.47418490021203791] [0:1] [0:1] [0:1] [0:1] [0:1] [0:1] [0:1] [0:1] [0:1] [0:1] [0:1] [0:1] [0:1] [0:1] [0:1] [0:1] [0:1] [0:1] [0:1] [0:1] [0:1] [0:1] [0:1] [0:1] [0:1] [0:1] [0:1] [0:1] [0:1] [0:1] [0:1] [0:1] [0:1] [0:1] [0:1] [0:1] [0:1] [0.0123749880589219:1] [0.0248390278544172:1] [0.0248390278544172:1] [0.0121611982267579:1] [0.025060094487886798:1] [0.0147092461331065:1] [0:1] [0:1] [0:1] [0:1] [0:1] [0:1] [0:1] [0:1] [0:1] [0:1] [0:1] [0:1] [0:1] [0:1] [0:1] [0:1] [0:1] [0:1] [0:1] [0:1] [0:1] [0:1] [0:1] [0:1] [0:1] [0:1] [0:1] [0.010570415833860499:1] [0:1] [0:1] [0:1] [0:1] [0:1] [0:1] [0:1] [0:1] [0:1] [0:1] [0:1] [0:1] [0:1] [0:1] [0:1] [0:1] [0:1] [0:1] [0:1] [0:1] [0:1] [0:1] [0:1] [0:1] [0:1] [0:1] [0:1] [0:1] [0.015267580318513101:1] [0:1] [0:1] [0:1] [0:1] [0:1] [0:1] [0.046604283493126397:1] [0:1] [0:1] [0:1] [0:1] [0:1] [0:1] [0:1] [0:1] [0:1] [0:1]
tree_sizes=2644 2966 3078 3082 3298 3404 3303 3306 3422

Tree=0
num_leaves=24
num_cat=0
split_feature=2 8 8 6 16 14 57 43 242 20 128 44 177 75 72 59 244 75 152 30 1 27 27
split_gain=141.819 36.6124 44.879 29.5767 32.0651 27.7331 16.8893 15.1258 10.9807 9.26297 8.10155 7.73719 5.35473 4.14885 4.33769 3.97308 6.48338 3.58365 2.11068 0.675129 0.607345 0.140325 2.84217e-14
threshold=0.72789101649422816 0.11408082197922502 0.059327400051915301 0.56661436365807083 1.0000000180025095e-35 0.17082368346267326 0.14427321495085274 0.2187539604621179 0.15136548133250302 0.65930346486149471 0.094294737357364919 0.16333219439213634 0.037543715176106961 0.16509136112892947 0.099101335724506703 0.023076146493040753 0.10021544452970511 0.098712465725953866 0.11291340108642671 0.25840660020696465 0.070780298012563858 0.21278322439958722 0.17809708935917404
decision_type=2 2 2 2 2 2 2 2 2 2 2 2 2 2 2 2 2 2 2 2 2 2 2
left_child=1 2 3 4 6 7 15 13 -5 12 -6 -8 -3 14 17 16 -1 -4 -14 22 -17 -20 -2
right_child=19 9 5 8 10 -7 11 -9 -10 -11 -12 -13 18 -15 -16 20 -18 -19 21 -21 -22 -23 -24
leaf_value=-0.17517506392556059 0.22490126842540009 -0.047150637573253093 0.20438453343304308 0.0048592856323717501 0.0048592856323717501 -0.062333021467597283 0.067728423573237023 -0.035148347602724311 0.20750664527970619 0.0081932550686297616 0.18489363519030405 -0.0951597974553684 -0.095159797455368331 0.22490126842540015 0.081284123478901432 -0.17517506392556054 -0.037648824679917814 0.11059374489655423 -0.17517506392556054 0.18489363519030405 -0.1351674306904645 -0.15517124730801252 0.22490126842540015
leaf_weight=5.9988552331924421 17.74661339819432 6.248807534575465 9.7481397539377266 4.9990460276603681 4.9990460276603681 9.7481397539377195 6.998664438724516 4.999046027660369 5.7489029318094254 5.998855233192443 4.9990460276603699 4.9990460276603699 4.9990460276603725 6.2488075345754615 9.7481397539377195 15.746994987130167 7.9984736442565918 6.9986644387245169 11.747758165001871 4.999046027660369 4.999046027660369 4.999046027660369 9.2482351511716825
leaf_count=24 71 25 39 20 20 39 28 20 23 24 20 20 20 25 39 63 32 28 47 20 20 20 37
internal_value=0.0276261 -0.0133992 0.0135566 -0.0388528 -0.0676656 0.088033 -0.102434 0.126869 0.113252 -0.104573 0.0948765 -0.000141669 -0.128738 0.151605 0.134318 -0.137758 -0.0965886 0.165188 -0.152182 0.21865 -0.165535 -0.169204 0.224901
internal_weight=180.965 148.972 114.978 67.4871 56.7392 47.4909 46.7411 37.7428 10.7479 33.9935 9.99809 11.9977 27.9947 32.7438 26.4949 34.7434 13.9973 16.7468 21.7459 31.9939 20.746 16.7468 26.9948
internal_count=724 596 460 270 227 190 187 151 43 136 40 48 112 131 106 139 56 67 87 128 83 67 108
is_linear=0
shrinkage=1


Tree=1
num_leaves=27
num_cat=0
split_feature=2 8 8 6 16 14 57 43 242 159 56 154 128 54 192 0 240 116 88 149 73 195 205 59 30 1
split_gain=116.175 29.7729 36.5381 24.0783 26.0999 22.5827 13.8214 12.3524 9.02564 7.74367 8.12761 6.63936 6.63521 3.7901 4.28472 4.30137 3.61668 3.54534 3.00341 1.24478 0.677282 0.615688 0.393731 0.0149369 0.00274765 0.000744309
threshold=0.72789101649422816 0.11408082197922502 0.059327400051915301 0.56661436365807083 1.0000000180025095e-35 0.17082368346267326 0.14427321495085274 0.2187539604621179 0.15136548133250302 0.088868135764204964 0.10849335812997406 0.06657217725803706 0.094294737357364919 0.18565744184049737 0.12433175833106171 0.11538416028020286 0.043080321636743656 0.085904759244013654 0.21622217215338016 0.17162867848372179 0.22359576450746868 0.12359563343609602 0.11631702697630916 0.028540693097092003 0.24078252212947007 0.024860874745214704
decision_type=2 2 2 2 2 2 2 2 2 2 2 2 2 2 2 2 2 2 2 2 2 2 2 2 2 2
left_child=1 2 3 4 6 7 16 13 -5 21 -11 -8 -6 14 19 -16 -1 -12 22 -4 24 -3 23 -18 -2 -25
right_child=20 9 5 8 12 -7 11 -9 -10 10 17 -13 -14 -15 15 -17 18 -19 -20 -21 -22 -23 -24 25 -26 -27
leaf_value=-0.07300802308563363 0.17985951576404935 -0.19105052065172679 0.18501754907812124 -0.020486047155777724 -0.020486047155777724 -0.08102685752995134 0.049411664606376637 -0.056502975935836058 0.16368158693372417 -0.0050069667700904652 -0.071981120484484212 -0.099473821849484612 0.1427764357325591 0.034288391930190121 0.15154771476615991 0.033955610231815606 -0.19109919626295435 -0.1852222057704167 -0.096492849180148221 0.1233901548585622 0.14003878772152298 -0.14739067593595132 -0.15757742646028383 -0.18393100097998918 0.18246944359836376 -0.1854908896650154
leaf_weight=5.2236453890800467 21.724134802818305 9.2187009453773481 9.675114721059801 4.9999704957008344 4.9999704957008344 9.7405354678630811 5.9906168729066831 4.9984559416770926 5.6885443031787872 8.4822317510843295 4.9846610426902753 5.9900595992803574 4.957510232925415 5.2221886217594138 5.473561078310011 7.2056154757738113 4.983392000198374 6.2078841775655746 5.4707581400871268 4.9565844535827628 4.9413447380065909 4.9719875901937476 6.4683041572570792 6.94657254219055 4.9534688591957083 5.4657183289527893
leaf_count=21 88 37 39 20 20 39 24 20 23 34 20 24 20 21 22 29 20 25 22 20 20 20 26 28 20 22
internal_value=1.68439e-05 -0.037082 -0.0127115 -0.0601049 -0.0861439 0.0546459 -0.117583 0.089857 0.07753 -0.119448 -0.0788375 -0.0250276 0.0607971 0.112344 0.127269 0.0847198 -0.14967 -0.13479 -0.163322 0.164141 0.174045 -0.175753 -0.178642 -0.186475 0.180344 -0.184618
internal_weight=179.942 148.323 114.457 67.1851 56.4965 47.2721 46.5391 37.5315 10.6885 33.8655 19.6748 11.9807 9.95748 32.5331 27.3109 12.6792 34.5584 11.1925 29.3347 14.6317 31.6189 14.1907 23.864 17.3957 26.6776 12.4123
internal_count=724 596 460 270 227 190 187 151 43 136 79 48 40 131 110 51 139 45 118 59 128 57 96 70 108 50
is_linear=0
shrinkage=0.1


Tree=2
num_leaves=28
num_cat=0
split_feature=2 9 21 16 21 43 117 188 20 87 7 128 70 243 171 230 121 159 185 235 34 57 196 133 32 73 30
split_gain=96.5997 25.7789 37.4804 25.4846 21.5404 16.0555 10.5391 8.45517 7.70224 7.79665 6.7838 5.50649 5.26402 4.90082 4.65724 4.17521 1.98392 1.33021 1.31999 0.690657 0.200594 0.0646251 0.0169801 0.014917 0.00580311 0.0019107 0.000989946
threshold=0.72789101649422816 0.19334815482076564 1.0000000180025095e-35 1.0000000180025095e-35 0.56671231615070761 0.19633242606555348 0.023666888032903451 0.070157614346784219 0.65930346486149471 0.1831737357665553 0.1527294460855306 0.094294737357364919 0.065046616163366919 0.19919804704766667 0.10758972023856066 0.13907166736121676 0.29140035990011021 0.11274230013250851 0.025564903403044605 0.15355581676933214 0.20445639783134048 0.14338623780409901 0.07920891227084427 0.16792773159257193 0.1237877142341139 0.21225223943939617 0.23518649444182776
decision_type=2 2 2 2 2 2 2 2 2 2 2 2 2 2 2 2 2 2 2 2 2 2 2 2 2 2 2
left_child=1 2 3 8 7 6 -3 -4 9 13 15 -5 -9 16 -11 22 18 -14 -1 25 21 23 -8 24 -20 26 -2
right_child=19 5 4 11 -6 -7 10 12 -10 14 -12 -13 17 -15 -16 -17 -18 -19 20 -21 -22 -23 -24 -25 -26 -27 -28
leaf_value=-0.11792750328131552 0.16671364010589748 -0.056647442637829851 -0.026963036284430721 -0.018438482344503453 -0.14175538746107655 -0.084309516252096567 0.17070038814683422 0.038264237471762358 -0.0081737812631800678 -0.12090185128728329 0.018802797970876306 0.1309767496074796 0.18079187441581973 -0.077462746174848732 0.0061779104246980319 0.076245616241955694 -0.098536030997181376 0.11241709791819861 -0.17592881012784056 0.12625975366901451 -0.15799710105156811 -0.18784637984029087 0.17903732249958385 -0.1793631382223746 -0.17183489140417682 0.16928905907750058 0.16834434853794358
leaf_weight=4.9145489335060111 16.322296738624583 5.4240434765815762 5.6664286404848161 4.9996948242187482 5.4126096665859214 8.68948185443878 4.8473759442567879 6.147695958614352 5.9804309904575339 5.391049847006796 7.6844650208950034 4.8681560158729553 6.8767943829298002 9.148115545511244 6.2010390609502792 7.6458325386047354 4.9107694327831259 4.8534190952777863 5.6295553594827714 4.8144308030605307 6.5657462626695624 4.9567985087633124 4.9253112375736237 5.9125904589891425 8.9944343566894513 4.835054785013198 4.8226287364959708
leaf_count=20 68 22 23 20 22 35 20 25 24 22 31 20 28 37 25 31 20 20 23 20 27 20 20 24 37 20 20
internal_value=3.57893e-05 -0.0337755 -0.0591074 -0.0949877 0.0381277 0.0356189 0.0697564 0.079481 -0.116601 -0.126955 0.0970687 0.0552733 0.113219 -0.143772 -0.0529222 0.131597 -0.158254 0.152502 -0.166186 0.161049 -0.173584 -0.177598 0.174902 -0.175125 -0.173411 0.167496 0.167086
internal_weight=177.441 146.646 107.43 78.4729 28.9569 39.2165 30.527 23.5443 68.6051 62.6246 25.103 9.86785 17.8779 51.0326 11.5921 17.4185 41.8844 11.7302 36.9737 30.7944 32.0591 25.4934 9.77269 20.5366 14.624 25.98 21.1449
internal_count=724 596 437 319 118 159 124 96 279 255 102 40 73 208 47 71 171 48 151 128 131 104 40 84 60 108 88
is_linear=0
shrinkage=0.1


Tree=3
num_leaves=28
num_cat=0
split_feature=2 9 21 16 21 43 117 67 20 30 216 163 59 1 228 154 97 209 135 96 230 57 135 67 234 73 30
split_gain=81.218 21.3048 31.0122 21.1252 17.7899 13.1706 8.6928 7.88388 6.5244 6.96435 10.1692 6.41576 5.63924 5.26717 5.02845 4.18831 4.04733 2.43044 2.08708 1.0748 0.699341 0.055466 0.0142443 0.0070996 0.00124422 0.00066226 0.000199745
threshold=0.72789101649422816 0.19334815482076564 1.0000000180025095e-35 1.0000000180025095e-35 0.56671231615070761 0.19633242606555348 0.023666888032903451 0.031417716330915557 0.65930346486149471 0.22265195020373182 0.16339884983417061 0.15192300994140548 0.080387272529382867 0.046350299305655707 0.12734355412499301 0.091588954369504816 0.078076340434163519 0.012290388274708653 0.10626712601341272 0.12570641174224403 0.20321394037543228 0.14338623780409901 0.088270179968788415 0.053571927935332608 0.13171127463385388 0.19212710209694348 0.20261807534554863
decision_type=2 2 2 2 2 2 2 2 2 2 2 2 2 2 2 2 2 2 2 2 2 2 2 2 2 2 2
left_child=1 2 3 8 7 6 -3 -4 9 16 15 13 19 -8 -5 -11 -1 -18 -13 -9 24 22 -19 -24 25 26 -2
right_child=20 5 4 14 -6 -7 11 12 -10 10 -12 18 -14 -15 -16 -17 17 21 -20 -21 -22 -23 23 -25 -26 -27 -28
leaf_value=-0.075645717145563007 0.1564692253737188 -0.051003650667422601 -0.024657352581933224 0.12228826715697423 -0.13055927267501491 -0.076468909582719263 0.096952949621465417 0.10816215046742675 -0.0073592223684147296 -0.058622056369579803 0.048737444067065261 0.095307984195275947 0.019395966483005612 -0.028738802990029646 -0.021381710985870054 -0.16901094316805385 -0.092148027978049371 -0.16719509575032518 0.18274548700058715 0.1692707091769412 0.1151448681881912 -0.1751672901583724 -0.16465883700664796 -0.16024847411199128 0.15877403726986603 0.15807203814363291 0.15725642142675259
leaf_weight=8.0247816592454893 10.609912008047113 5.421859577298167 6.1404629796743455 4.8722775280475599 5.2950249165296546 8.6256432980298978 7.7249227762222308 4.7901473790407199 5.9782563447952262 7.0177506059408206 5.4484723657369605 4.7944769263267499 5.104606866836547 5.8654455542564392 4.8722775280475616 6.736283540725708 5.2725411355495444 8.3928182572126442 6.339440330862999 7.2110960930585861 4.6477809101343146 5.359084114432334 6.1844305843114844 8.9062359333038312 5.1280105710029593 4.6474225074052802 4.6299827098846427
leaf_count=33 46 22 25 20 22 35 32 20 24 29 22 20 21 24 20 28 22 35 26 30 20 22 26 38 22 20 20
internal_value=5.65677e-05 -0.0309074 -0.054183 -0.0871613 0.0348626 0.0324905 0.0636668 0.0725423 -0.107081 -0.116799 -0.0668848 0.0888133 0.107434 0.0427058 0.0504533 -0.112687 -0.139545 -0.154576 0.145093 0.14488 0.150767 -0.165988 -0.163893 -0.162056 0.157385 0.157027 0.156708
internal_weight=174.041 144.378 105.607 77.0652 28.5413 38.7718 30.1461 23.2463 67.3207 61.3424 19.2025 24.7243 17.1059 13.5904 9.74456 13.754 42.1399 34.1151 11.1339 12.0012 29.6631 28.8426 23.4835 15.0907 25.0153 19.8873 15.2399
internal_count=724 596 437 319 118 159 124 96 279 255 79 102 71 56 40 57 176 143 46 50 128 121 99 64 108 86 66
is_linear=0
shrinkage=0.1


Tree=4
num_leaves=30
num_cat=0
split_feature=2 8 8 6 16 14 57 54 43 159 56 75 128 240 162 236 214 116 164 172 245 194 145 222 196 230 234 87 132
split_gain=68.8942 17.7512 20.5992 13.7084 14.7491 13.4137 10.6678 7.45168 7.38242 5.96978 6.28098 5.95095 4.69066 3.42713 3.38542 4.24847 2.98596 2.7596 1.98698 1.23454 0.721355 0.688675 0.163758 0.0142749 0.00546924 0.00150862 0.000475532 0.00027002 1.14161e-05
threshold=0.72789101649422816 0.11408082197922502 0.059327400051915301 0.56661436365807083 1.0000000180025095e-35 0.17082368346267326 0.13856732345007969 0.13829020799437383 0.2187539604621179 0.088868135764204964 0.10849335812997406 0.12127259385821802 0.094294737357364919 0.043080321636743656 0.095680368745980265 0.20423298372101659 0.064384668731899478 0.085904759244013654 0.21703155389202772 0.076841418883069459 0.21073441131095913 0.10161457484569046 0.17538033987789139 0.17212244145956232 0.14068784132114809 0.18131483443674359 0.13171127463385388 0.11168754186543135 0.11044742219151127
decision_type=2 2 2 2 2 2 2 2 2 2 2 2 2 2 2 2 2 2 2 2 2 2 2 2 2 2 2 2 2
left_child=1 2 3 4 6 8 13 -5 14 21 -11 -8 -6 -1 19 -16 -17 -12 22 -4 25 -3 23 24 -15 26 27 28 -2
right_child=20 9 5 7 12 -7 11 -9 -10 10 17 -13 -14 18 15 16 -18 -19 -20 -21 -22 -23 -24 -25 -26 -27 -28 -29 -30
leaf_value=-0.046004488825098673 0.14846006470908588 -0.1625283958019641 0.094727860620771195 -0.022050912517898005 -0.021666025792936881 -0.063213434751579187 -0.074962136792346659 0.14802904926312291 -0.043333189906959182 0.0069582402966005506 -0.053573890244868964 0.062775216122590516 0.11764299769697727 -0.15796464358664383 -0.00419846788717387 0.033304407249534623 0.12966945435863483 -0.15603065692395013 -0.088708332219904873 0.16315848385027945 0.10545745309436894 -0.11506991334556976 -0.13778371723257438 -0.16222165349573456 -0.15307587860269822 0.15096281683738527 0.14983423344510652 0.14922902793648715 0.14824182043042886
leaf_weight=5.00655369460583 4.3971642553806394 8.4159533679485303 4.627538129687311 5.3508848845958692 4.993221312761305 9.5230773091316205 6.9917558729648572 4.9674088507890701 4.9328942298889151 8.3767319172620791 4.864792734384535 5.6891440600156784 4.6845993399620056 4.6301129311323219 6.2574821710586574 5.0249932855367652 8.9292816668748838 5.7196122854948044 6.5923082530498496 6.1269242018461227 4.4509245902299872 4.80244256556034 5.6895882189273825 4.9327611923217765 4.5246390700340271 4.470827341079711 4.4391227364540091 5.3043987154960623 5.2685709297657013
leaf_count=21 20 36 20 22 20 39 29 21 20 34 20 23 20 20 26 21 38 25 28 26 20 21 25 21 20 20 20 24 24
internal_value=6.38159e-05 -0.0284071 -0.00921461 -0.0457431 -0.0660153 0.0422967 -0.0905702 0.0598286 0.0702857 -0.0937 -0.0577378 -0.0131678 0.0457672 -0.121853 0.0883852 0.0642664 0.094968 -0.10894 -0.136254 0.133713 0.142418 -0.145286 -0.152102 -0.157885 -0.155548 0.149307 0.148925 0.148656 0.148341
internal_weight=169.986 141.655 109.475 64.053 53.7347 45.4222 44.0569 10.3183 35.8991 32.1795 18.9611 12.6809 9.67782 31.376 30.9662 20.2118 13.9543 10.5844 26.3694 10.7545 28.331 13.2184 19.7771 14.0875 9.15475 23.8801 19.4093 14.9701 9.66574
internal_count=724 596 460 270 227 190 187 43 151 136 79 52 40 135 131 85 59 45 114 46 128 57 86 61 40 108 88 68 44
is_linear=0
shrinkage=0.1


Tree=5
num_leaves=31
num_cat=0
split_feature=2 9 21 16 21 43 163 188 63 20 87 39 44 62 230 195 217 38 159 27 64 116 57 97 27 0 230 245 234 176
split_gain=58.8487 15.3972 21.9751 14.9996 12.4971 9.26437 7.06218 6.93442 6.57476 5.68553 6.05725 5.11429 4.93558 4.56083 4.55336 4.29727 3.73635 3.69278 2.05914 1.33588 0.747648 0.201409 0.041387 0.0176291 0.00815872 0.00406655 0.00149385 0.000620187 0.000199303 7.00228e-06
threshold=0.72789101649422816 0.19334815482076564 1.0000000180025095e-35 1.0000000180025095e-35 0.56671231615070761 0.19633242606555348 0.15192300994140548 0.070157614346784219 0.10578331233629096 0.65930346486149471 0.1831737357665553 0.1458124783580709 0.070880350997774164 0.061885811729008554 0.14101105181749826 0.20609283716618867 0.24981681661122271 0.03808772810402606 0.12203956980180407 0.27366887747208074 0.17434551443854474 0.13452810229537673 0.14916746603984324 0.10347703434998777 0.19892440949869564 0.065988783323446709 0.18971267784178633 0.17554662176791588 0.098374894828911513 0.066110605177060466
decision_type=2 2 2 2 2 2 2 2 2 2 2 2 2 2 2 2 2 2 2 2 2 2 2 2 2 2 2 2 2 2
left_child=1 2 3 9 7 6 8 -4 -3 10 15 -8 -9 -5 -10 16 19 -12 -14 21 26 22 23 -1 25 -25 27 28 29 -2
right_child=20 5 4 13 -6 -7 11 12 14 -11 17 -13 18 -15 -16 -17 -18 -19 -20 -21 -22 -23 -24 24 -26 -27 -28 -29 -30 -31
leaf_value=-0.15615510532486718 0.14175981651389022 0.086613865290155148 -0.035348080177835084 0.1116581105386177 -0.11361629002517569 -0.06387838365762144 0.035757721455307388 0.0092817283737589087 0.033521625354036126 0.00075001791712879051 0.029905551336073505 0.16923614095978132 0.16079313873016171 -0.026713829955318749 -0.10147141041432402 -0.033581134843776124 -0.054900955895692688 -0.086272654452107495 0.075530027929485044 -0.093634327839792655 0.096950687787854734 -0.13102096672490335 -0.16110167510115458 -0.14511944481410707 -0.15200505772737316 -0.14917502106370478 0.1442975893138197 0.14331888471215212 0.1424720101042572 0.14158059215041896
leaf_weight=4.5562120825052359 4.3636371791362851 7.2930364608764711 5.564217805862433 4.7266678065061551 4.978061005473136 8.4421505928039533 4.8659722954034788 4.9435995966196087 4.7056927829980832 5.9229548424482337 4.8359771966934186 6.999947190284729 7.3755436390638334 4.8020519763231277 5.3275456726551056 5.3559225499629965 5.877735659480094 6.3002455830574036 4.5984134674072266 5.1077842116355887 4.2400477677583686 5.2241980433464041 4.6599593311548224 4.4920069128274935 6.0487244427204123 5.4991601705551147 4.6791991293430319 4.427239477634429 4.8116901814937583 4.3561407029628754
leaf_count=20 21 31 23 20 22 35 21 21 20 24 20 30 32 20 22 23 25 27 20 23 20 24 20 21 27 25 22 21 23 21
internal_value=7.60286e-05 -0.026202 -0.0465678 -0.0751146 0.0297477 0.0283835 0.055065 0.0614923 0.0143613 -0.0925727 -0.10211 0.114499 0.0933433 0.0419248 -0.0381583 -0.117876 -0.128764 -0.0358215 0.128049 -0.140963 0.135488 -0.148894 -0.152591 -0.150666 -0.149106 -0.147352 0.142706 0.142292 0.141955 0.14167
internal_weight=165.382 138.504 100.869 73.4096 27.4598 37.6343 29.1922 22.4818 17.3263 63.8809 57.9579 11.8659 16.9176 9.52872 10.0332 46.8217 41.4658 11.1362 11.974 35.588 26.878 30.4803 25.2561 20.5961 16.0399 9.99117 22.6379 17.9587 13.5315 8.71978
internal_count=724 596 437 319 118 159 124 96 73 279 255 51 73 40 42 208 185 47 52 160 128 137 113 93 73 46 108 86 65 42
is_linear=0
shrinkage=0.1


Tree=6
num_leaves=30
num_cat=0
split_feature=2 9 21 16 21 43 231 63 189 230 171 199 192 7 192 72 230 134 96 232 70 235 31 28 177 9 73 216 30
split_gain=50.5358 12.8608 18.409 12.648 10.4495 7.62721 6.58956 6.43336 5.47713 6.38953 5.58424 4.66772 6.17749 4.53388 5.24831 4.27095 4.23569 3.92667 2.42258 2.39305 1.44969 0.756766 0.0856115 0.0377415 0.0259716 0.00385057 0.00145632 0.000404858 6.84394e-05
threshold=0.72789101649422816 0.19334815482076564 1.0000000180025095e-35 1.0000000180025095e-35 0.56671231615070761 0.19633242606555348 0.078964903689477769 0.081590699515044621 0.017898599896979502 0.21549730027950345 0.11253656661837226 0.11789500676331462 0.14426920087533904 0.1527294460855306 0.12433175833106171 0.087923454937062204 0.066945435420948066 0.19985309397004258 0.10295201751505156 0.14575437936761904 0.037384085383518159 0.15355581676933214 0.12814872445372927 0.21735090810660049 0.067326976418253415 0.1272113865722436 0.19212710209694348 0.13261803451929863 0.16356281449551849
decision_type=2 2 2 2 2 2 2 2 2 2 2 2 2 2 2 2 2 2 2 2 2 2 2 2 2 2 2 2 2
left_child=1 2 3 8 7 6 13 -4 10 16 -1 -9 -13 14 -3 -5 -10 20 -12 -8 -18 26 24 -24 -22 -26 27 28 -2
right_child=21 5 4 15 -6 -7 19 11 9 -11 18 12 -14 -15 -16 -17 17 -19 -20 -21 22 -23 23 -25 25 -27 -28 -29 -30
leaf_value=-0.12695902266856543 0.13611162115215267 0.11742879744485762 -0.037464281933674813 0.10606990075628749 -0.10634510475796577 -0.058235278728212908 0.066807444460482812 0.15557452782765657 -0.035463769711099935 0.0049280379519438047 0.056044366956614626 -0.023766085399297809 0.13174013306946059 -0.055280945377186967 -0.017634537105710047 -0.028428588988441823 -0.086961530378364349 -0.043199443520240959 -0.042220275300612176 0.16037891537449525 -0.15046851818010609 0.089971973384263951 -0.16087763869991339 -0.14882079371305901 -0.14034208215224295 -0.14397185206905269 0.13856699487765425 0.13744143523942304 0.13660909501455717
leaf_weight=4.3305074423551551 6.042518958449369 5.7798776626586967 5.4769529700279298 4.6736140102148038 4.7961163520812979 8.339671462774275 5.7349940836429578 6.2711077481508282 5.7921336740255347 4.9636268615722647 5.226537272334097 5.6786848455667478 4.643400713801384 6.3090422451496115 5.7284808605909348 4.7712677419185638 4.4224350601434699 4.8085613846778861 4.8250989317893982 5.2216914296150208 4.799876928329474 4.0448431968688956 6.0348427146673185 4.5565946102142334 7.3493625819683057 4.8520815521478653 5.4212274998426428 4.7555641680955878 5.0991456061601639
leaf_count=20 31 26 23 20 22 35 25 28 26 21 22 24 21 26 24 20 20 21 21 23 22 20 26 21 36 23 27 24 26
internal_value=8.60191e-05 -0.0241823 -0.043123 -0.0696711 0.0274379 0.0259705 0.050376 0.0565106 -0.0861026 -0.102449 -0.0320255 0.0875291 0.0461885 0.012849 0.0501987 0.0381253 -0.114955 -0.127459 0.00887427 0.111401 -0.140114 0.129628 -0.148633 -0.155691 -0.144237 -0.141786 0.137152 0.136669 0.136339
internal_weight=160.75 135.387 98.2728 71.4065 26.8663 37.1138 28.7741 22.0701 61.9617 47.5795 14.3821 16.5932 10.3221 17.8174 11.5084 9.44488 42.6159 36.8238 10.0516 10.9567 32.0152 25.3633 27.5928 10.5914 17.0013 12.2014 21.3185 15.8972 11.1417
internal_count=724 596 437 319 118 159 124 96 279 216 63 73 45 76 50 40 195 169 43 48 148 128 128 47 81 59 108 81 57
is_linear=0
shrinkage=0.1


Tree=7
num_leaves=30
num_cat=0
split_feature=2 8 1 184 14 16 67 120 149 208 88 159 178 224 57 62 180 114 225 1 230 194 234 41 42 234 73 74 154
split_gain=43.5997 10.908 12.9505 12.4381 11.4069 11.3789 8.12707 8.26787 7.12246 6.92343 5.98954 5.13342 5.76849 5.05953 4.13578 3.98468 3.42937 2.43336 1.44303 1.12747 0.806016 0.690683 0.293996 0.0265048 0.00303649 0.00152819 0.000667022 0.000132359 8.8982e-06
threshold=0.72789101649422816 0.11408082197922502 0.028555009211966104 0.20771706098236173 0.17082368346267326 1.0000000180025095e-35 0.053571927935332608 0.12300561857925192 0.13798243945454639 0.21324845668423628 0.14850399123816127 0.088868135764204964 0.10119479576366196 0.13810326251741062 0.13856732345007969 0.061885811729008554 0.071709221931526609 0.10250034138615942 0.26835277615820458 0.064492340029695713 0.20321394037543228 0.10161457484569046 0.12186331042814917 0.12941835567325713 0.14486151196363092 0.13171127463385388 0.19212710209694348 0.11418095553701901 0.054834078529530657
decision_type=2 2 2 2 2 2 2 2 2 2 2 2 2 2 2 2 2 2 2 2 2 2 2 2 2 2 2 2 2
left_child=1 2 5 4 6 14 9 17 -6 16 -9 21 13 -13 18 -7 -4 -8 23 -18 25 -3 -19 -1 -25 26 27 28 -2
right_child=20 11 3 -5 8 15 7 10 -10 -11 -12 12 -14 -15 -16 -17 19 22 -20 -21 -22 -23 -24 24 -26 -27 -28 -29 -30
leaf_value=-0.14731064736534008 0.1316956388821468 -0.14534781342636555 -0.12659426133397764 0.13293879405400491 -0.0021853691250882721 0.10121003735219608 0.063661509205067829 -0.063818901140543616 -0.13629230831497438 0.064930064834255383 0.086269752150181928 0.055025950439628879 -0.12135720602571287 -0.076906086393952397 -0.032729443653284417 -0.029348893406531129 0.011697898533362833 0.16822254449988372 -0.072569009864386649 -0.058707108405275155 0.08249503036077091 -0.094900365067406414 0.13127683798629669 -0.13552252791377736 -0.13944520824854675 0.13432724441827704 0.13334266049195226 0.13228129780196979 0.1314842003087433
leaf_weight=4.2647074908018165 3.6546302139759117 7.5020196139812487 4.8593621701002148 8.2398276776075345 7.7230426222085944 4.5893556326627714 5.2166702896356609 6.1626324802637082 8.1285082995891553 6.6948754638433448 4.6766022592782974 6.7819433361291903 6.0716217905282965 5.0871102809906006 7.2289287596940985 4.7645491808652878 4.6749730110168439 4.4131804555654508 4.1340914070606223 4.429859921336174 3.8193219304084769 4.2522388249635696 4.2071004062891006 3.8609150350093842 4.0364085584878922 4.1791916191577902 3.7490047067403784 4.0574571788310996 4.3707511276006699
leaf_count=20 20 36 21 37 33 20 24 27 36 30 21 28 28 23 31 20 20 20 20 20 20 21 20 20 20 22 20 22 24
internal_value=0.000100889 -0.0223737 -0.00688644 0.0175979 0.00206536 -0.0585872 0.0275967 0.0663372 -0.070954 -0.0186768 0.000937048 -0.0757309 -0.0420766 -0.0015205 -0.0956827 0.0347079 -0.0587606 0.117569 -0.123609 -0.0225569 0.124592 -0.127098 0.150191 -0.140958 -0.137527 0.132626 0.132177 0.131816 0.13158
internal_weight=155.831 132.001 102.306 69.4266 61.1868 32.879 45.3353 24.6762 15.8516 20.6591 10.8392 29.6949 17.9407 11.8691 23.5251 9.3539 13.9642 13.837 16.2961 9.10483 23.8304 11.7543 8.62028 12.162 7.89732 20.011 15.8318 12.0828 8.02538
internal_count=724 596 460 309 272 151 203 112 69 91 48 136 79 51 111 40 61 64 80 40 128 57 40 60 40 108 86 66 44
is_linear=0
shrinkage=0.1


Tree=8
num_leaves=31
num_cat=0
split_feature=2 10 9 21 6 16 50 187 43 48 67 189 12 230 138 199 114 128 230 134 149 74 114 57 218 214 230 234 136 219
split_gain=37.7509 9.55694 9.05815 10.3425 8.27537 7.92587 7.8141 7.71278 8.30015 6.79925 5.72362 5.20894 7.04105 5.80073 4.51754 4.33811 5.40658 3.87426 3.84108 3.82708 3.17343 0.865885 0.751221 0.0637751 0.0193043 0.00349241 0.00182036 0.000429465 0.000239241 1.39619e-05
threshold=0.72789101649422816 0.16624427251053156 0.19334815482076564 1.0000000180025095e-35 0.028372147079639153 1.0000000180025095e-35 0.056563354371162201 0.19207489532596597 0.19633242606555348 0.19111261252779574 0.026339058415607002 0.017898599896979502 0.092774502171972958 0.21549730027950345 0.12777841521081609 0.12132974596873926 0.15238566545643259 0.094294737357364919 0.063518403308902613 0.19819608801481134 0.19861907591773889 0.21683773969879463 0.095233893814582915 0.13191361032237461 0.10363635854233626 0.10979397995065192 0.18971267784178633 0.11910622315653312 0.085436275519139918 0.10337784911544497
decision_type=2 2 2 2 2 2 2 2 2 2 2 2 2 2 2 2 2 2 2 2 2 2 2 2 2 2 2 2 2 2
left_child=1 2 3 5 -5 11 -4 8 9 14 -6 12 -1 18 -8 -12 -17 -7 -13 22 -3 26 -20 24 -24 -26 27 28 29 -2
right_child=21 20 6 4 10 17 7 -9 -10 -11 15 13 -14 -15 -16 16 -18 -19 19 -21 -22 -23 23 -25 25 -27 -28 -29 -30 -31
leaf_value=-0.084769524012239084 0.12787390432330578 -0.14428301081370021 0.12942443121196132 -0.09903963205035661 -0.041467042198321473 -0.028694143424782895 0.036026954679753843 0.13070163833984536 -0.12398826758122164 0.094770968312152037 0.14303907610946787 -0.014404869727147333 0.074230301636968241 0.017007299050041651 -0.096653740546275763 -0.037992464989417975 0.11216540373828301 0.10099534106407118 -0.092173140765226064 -0.032068997444039508 -0.034448011260748299 0.075180920477238178 -0.14126376711000119 -0.14781095561764213 -0.13468137316627571 -0.13066882263329085 0.13077599612009483 0.12928732769019566 0.12871570145585731 0.12760658384404577
leaf_weight=5.8767070174217206 3.408759027719503 7.716927841305731 6.5923319160938254 4.5701636373996761 5.2298891842365292 4.9529704153537732 4.9156007170677274 4.3002906739711753 5.3681841343641272 6.9554494321346274 6.3707418441772452 4.3319925218820563 5.2941521257162094 4.6713972836732855 5.3691022098064423 4.8278863877058011 4.7640404105186462 4.3060438334941864 4.0076359063386979 4.6064538657665244 3.9910227060317993 3.586867317557334 4.2483285665512112 6.4545661211013785 5.4908876419067365 3.5855679363012314 3.7736807167530051 3.5011390745639792 3.4647734761238098 4.5775043368339539
leaf_count=28 20 38 30 22 22 20 22 20 23 31 31 20 23 20 23 21 22 20 20 21 19 20 21 30 29 20 21 20 20 27
internal_value=0.000105138 -0.0206984 -0.0120848 -0.0296929 0.0230064 -0.0531712 0.0318497 0.00794497 -0.0154044 0.0184062 0.0493255 -0.0693359 -0.00941549 -0.0872349 -0.0332387 0.0790721 0.0365867 0.0316199 -0.102115 -0.115497 -0.106842 0.120192 -0.131653 -0.139652 -0.1357 -0.133096 0.128813 0.128318 0.128022 0.127721
internal_weight=151.111 128.798 117.09 83.5894 25.7627 57.8267 33.501 26.9086 22.6083 17.2402 21.1926 48.5677 11.1709 37.3968 10.2847 15.9627 9.59193 9.25901 32.7254 28.3934 11.708 22.3127 23.787 19.7794 13.3248 9.07646 18.7259 14.9522 11.451 7.98626
internal_count=724 596 539 390 118 272 149 119 99 76 96 232 51 181 45 74 43 40 161 141 57 128 120 100 70 49 108 87 67 47
is_linear=0
shrinkage=0.1


end of trees

feature_importances:
Column_230=11
Column_2=9
Column_16=9
Column_21=9
Column_43=8
Column_57=8
Column_8=7
Column_9=6
Column_30=6
Column_234=6
Column_1=5
Column_73=5
Column_128=5
Column_159=5
Column_6=4
Column_14=4
Column_20=4
Column_27=4
Column_67=4
Column_59=3
Column_75=3
Column_87=3
Column_114=3
Column_116=3
Column_149=3
Column_154=3
Column_192=3
Column_0=2
Column_7=2
Column_44=2
Column_54=2
Column_56=2
Column_62=2
Column_63=2
Column_70=2
Column_72=2
Column_74=2
Column_88=2
Column_96=2
Column_97=2
Column_117=2
Column_134=2
Column_135=2
Column_163=2
Column_171=2
Column_177=2
Column_188=2
Column_189=2
Column_194=2
Column_195=2
Column_196=2
Column_199=2
Column_214=2
Column_216=2
Column_235=2
Column_240=2
Column_242=2
Column_245=2
Column_10=1
Column_12=1
Column_28=1
Column_31=1
Column_32=1
Column_34=1
Column_38=1
Column_39=1
Column_41=1
Column_42=1
Column_48=1
Column_50=1
Column_64=1
Column_120=1
Column_121=1
Column_132=1
Column_133=1
Column_136=1
Column_138=1
Column_145=1
Column_152=1
Column_162=1
Column_164=1
Column_172=1
Column_176=1
Column_178=1
Column_180=1
Column_184=1
Column_185=1
Column_187=1
Column_205=1
Column_208=1
Column_209=1
Column_217=1
Column_218=1
Column_219=1
Column_222=1
Column_224=1
Column_225=1
Column_228=1
Column_231=1
Column_232=1
Column_236=1
Column_243=1
Column_244=1

parameters:
[boosting: gbdt]
[objective: binary]
[metric: auc]
[tree_learner: serial]
[device_type: cpu]
[data_sample_strategy: bagging]
[data: ]
[valid: ]
[num_iterations: 100]
[learning_rate: 0.1]
[num_leaves: 31]
[num_threads: 0]
[seed: 42]
[deterministic: 0]
[force_col_wise: 0]
[force_row_wise: 0]
[histogram_pool_size: -1]
[max_depth: -1]
[min_data_in_leaf: 20]
[min_sum_hessian_in_leaf: 0.001]
[bagging_fraction: 1]
[pos_bagging_fraction: 1]
[neg_bagging_fraction: 1]
[bagging_freq: 0]
[bagging_seed: 400]
[bagging_by_query: 0]
[feature_fraction: 1]
[feature_fraction_bynode: 1]
[feature_fraction_seed: 30056]
[extra_trees: 0]
[extra_seed: 12879]
[early_stopping_round: 0]
[early_stopping_min_delta: 0]
[first_metric_only: 0]
[max_delta_step: 0]
[lambda_l1: 0]
[lambda_l2: 0]
[linear_lambda: 0]
[min_gain_to_split: 0]
[drop_rate: 0.1]
[max_drop: 50]
[skip_drop: 0.5]
[xgboost_dart_mode: 0]
[uniform_drop: 0]
[drop_seed: 17869]
[top_rate: 0.2]
[other_rate: 0.1]
[min_data_per_group: 100]
[max_cat_threshold: 32]
[cat_l2: 10]
[cat_smooth: 10]
[max_cat_to_onehot: 4]
[top_k: 20]
[monotone_constraints: ]
[monotone_constraints_method: basic]
[monotone_penalty: 0]
[feature_contri: ]
[forcedsplits_filename: ]
[refit_decay_rate: 0.9]
[cegb_tradeoff: 1]
[cegb_penalty_split: 0]
[cegb_penalty_feature_lazy: ]
[cegb_penalty_feature_coupled: ]
[path_smooth: 0]
[interaction_constraints: ]
[verbosity: -1]
[saved_feature_importance_type: 0]
[use_quantized_grad: 0]
[num_grad_quant_bins: 4]
[quant_train_renew_leaf: 0]
[stochastic_rounding: 1]
[linear_tree: 0]
[max_bin: 255]
[max_bin_by_feature: ]
[min_data_in_bin: 3]
[bin_construct_sample_cnt: 200000]
[data_random_seed: 175]
[is_enable_sparse: 1]
[enable_bundle: 1]
[use_missing: 1]
[zero_as_missing: 0]
[feature_pre_filter: 1]
[pre_partition: 0]
[two_round: 0]
[header: 0]
[label_column: ]
[weight_column: ]
[group_column: ]
[ignore_column: ]
[categorical_feature: ]
[forcedbins_filename: ]
[precise_float_parser: 0]
[parser_config_file: ]
[objective_seed: 16083]
[num_class: 1]
[is_unbalance: 0]
[scale_pos_weight: 1]
[sigmoid: 1]
[boost_from_average: 1]
[reg_sqrt: 0]
[alpha: 0.9]
[fair_c: 1]
[poisson_max_delta_step: 0.7]
[tweedie_variance_power: 1.5]
[lambdarank_truncation_level: 30]
[lambdarank_norm: 1]
[label_gain: ]
[lambdarank_position_bias_regularization: 0]
[eval_at: ]
[multi_error_top_k: 1]
[auc_mu_weights: ]
[num_machines: 1]
[local_listen_port: 12400]
[time_out: 120]
[machine_list_filename: ]
[machines: ]
[gpu_platform_id: -1]
[gpu_device_id: -1]
[gpu_use_dp: 0]
[num_gpu: 1]

end of parameters

pandas_categorical:null
