tree
version=v4
num_class=1
num_tree_per_iteration=1
label_index=0
max_feature_idx=246
objective=binary sigmoid:1
feature_names=Column_0 Column_1 Column_2 Column_3 Column_4 Column_5 Column_6 Column_7 Column_8 Column_9 Column_10 Column_11 Column_12 Column_13 Column_14 Column_15 Column_16 Column_17 Column_18 Column_19 Column_20 Column_21 Column_22 Column_23 Column_24 Column_25 Column_26 Column_27 Column_28 Column_29 Column_30 Column_31 Column_32 Column_33 Column_34 Column_35 Column_36 Column_37 Column_38 Column_39 Column_40 Column_41 Column_42 Column_43 Column_44 Column_45 Column_46 Column_47 Column_48 Column_49 Column_50 Column_51 Column_52 Column_53 Column_54 Column_55 Column_56 Column_57 Column_58 Column_59 Column_60 Column_61 Column_62 Column_63 Column_64 Column_65 Column_66 Column_67 Column_68 Column_69 Column_70 Column_71 Column_72 Column_73 Column_74 Column_75 Column_76 Column_77 Column_78 Column_79 Column_80 Column_81 Column_82 Column_83 Column_84 Column_85 Column_86 Column_87 Column_88 Column_89 Column_90 Column_91 Column_92 Column_93 Column_94 Column_95 Column_96 Column_97 Column_98 Column_99 Column_100 Column_101 Column_102 Column_103 Column_104 Column_105 Column_106 Column_107 Column_108 Column_109 Column_110 Column_111 Column_112 Column_113 Column_114 Column_115 Column_116 Column_117 Column_118 Column_119 Column_120 Column_121 Column_122 Column_123 Column_124 Column_125 Column_126 Column_127 Column_128 Column_129 Column_130 Column_131 Column_132 Column_133 Column_134 Column_135 Column_136 Column_137 Column_138 Column_139 Column_140 Column_141 Column_142 Column_143 Column_144 Column_145 Column_146 Column_147 Column_148 Column_149 Column_150 Column_151 Column_152 Column_153 Column_154 Column_155 Column_156 Column_157 Column_158 Column_159 Column_160 Column_161 Column_162 Column_163 Column_164 Column_165 Column_166 Column_167 Column_168 Column_169 Column_170 Column_171 Column_172 Column_173 Column_174 Column_175 Column_176 Column_177 Column_178 Column_179 Column_180 Column_181 Column_182 Column_183 Column_184 Column_185 Column_186 Column_187 Column_188 Column_189 Column_190 Column_191 Column_192 Column_193 Column_194 Column_195 Column_196 Column_197 Column_198 Column_199 Column_200 Column_201 Column_202 Column_203 Column_204 Column_205 Column_206 Column_207 Column_208 Column_209 Column_210 Column_211 Column_212 Column_213 Column_214 Column_215 Column_216 Column_217 Column_218 Column_219 Column_220 Column_221 Column_222 Column_223 Column_224 Column_225 Column_226 Column_227 Column_228 Column_229 Column_230 Column_231 Column_232 Column_233 Column_234 Column_235 Column_236 Column_237 Column_238 Column_239 Column_240 Column_241 Column_242 Column_243 Column_244 Column_245 Column_246
feature_infos=[0:1] [0:1] [0:1] [0:1] [0:1] [0:1] [0:1] [0:1] [0:1] [0:1] [0:1] [0:1] [0:1.0000000000000002] [0:1] [0:1] [0:1] [0:1] [0:1] [0:1] [0:1] [0:1] [0:1.0000000000000002] [0:1] [0:1] [0:1] [0:1] [0:1] [0:1] [0:1] [0:1] [0.034008228291632601:1] [0:1] [0:1] [0.019425387943214599:1] [0:1] [0:1] [0.0062923241976530001:1] [0.019113901892535999:1] [0:1] [0.0247910122362426:1] [0.0114978332373785:1] [0:1] [0.0150951657982836:1] [0:1] [0:1] [0.030819589099063401:1] [0:1] [0:1] [0:1] [0:1] [0:1] [0:1] [0:1] [0:1] [0:1] [0:1] [0:1] [0:1] [0:1] [0:1] [0:1] [0:1] [0:1] [0:1] [0:1] [0:1] [0:1] [0:1] [0:1] [0:1] [0:1] [0:1] [0:1] [0:1] [0:1] [0:1] [0:1] [0:1] [0:1] [0:1] [0:1] [0:1] [0:1] [0:1] [0:1] [0:1] [0:1] [0:1] [0:1] [0:1] [0:1] [0:1] [0:1] [0:1] [0:1] [0:1] [0:1] [0:1] [0:1] [0:1] [0:1] [0:1] [0:1] [0:1] [0:1] [0:1] [0:1] [0:1] [0:1] [0:1] [0:1] [0:1] [0:1] [0:1] [0.0226734415603819:1] [0:1] [0:1] [0:1] [0:1] [0:1] [0:1] [0.017040396150989501:1] [0:1] [0:1] [0.023345864056049399:1] [0:1] [0:1] [0:1] [0:1] [0:1] [0:1] [0:1] [0:1] [0:1] [0:1] [0:1] [0:1] [0:1] [0:1] [0:1] [0:1] [0:1] [0:1] [0:1] [0:1] [0:1] [0:1] [0:1] [0:1] [0:1] [0:1] [0:1] [0:1] [0:1] [0:1] [0:1] [0:1] [0:1] [0:1] [0:1] [0:1] [0:1] [0:1] [0:0.4066705571891609] [0:1] [0:1] [0:1] [0.0123749880589219:1] [0.0248390278544172:1] [0.0248390278544172:1] [0.0121611982267579:1] [0.025060094487886798:1] [0.0147092461331065:1] [0:1] [0:1] [0:1] [0:1] [0:1] [0:1] [0:1] [0:1] [0:1] [0:1] [0:1] [0:0.78523610973698577] [0:1] [0:1] [0:0.52698533584387608] [0:1] [0:1] [0:1] [0:1] [0:1] [0:1] [0:1] [0:1] [0:1] [0:1] [0:1] [0:1] [0.010570415833860499:1] [0:1] [0:1] [0:1] [0:1] [0:1] [0:1] [0:1] [0:1] [0:1] [0:1] [0:1] [0:1] [0:1] [0:1] [0:1] [0:1] [0:1] [0:1] [0:1] [0:1] [0:1] [0:1] [0:1] [0:1] [0:1] [0:1] [0:1] [0:1] [0.015267580318513101:1] [0:1] [0:1] [0:1] [0:1] [0:0.84158301551992276] [0:1] [0.046604283493126397:1] [0.0150093655218877:1] [0:1] [0:1] [0:1] [0:1] [0:1] [0:1] [0:1] [0:1] [0:1]
tree_sizes=2637 3067 3073 2765 3088 3193 3086 3201 3092 3197 2971

Tree=0
num_leaves=24
num_cat=0
split_feature=9 7 2 17 6 16 153 1 194 67 74 241 70 20 154 70 31 157 232 195 29 27 10
split_gain=158.754 49.4282 44.9349 29.9921 16.4217 26.2287 11.6589 10.8465 10.3337 9.62675 9.49543 9.41508 8.2514 6.86414 6.49275 5.16392 4.29662 7.39345 1.23722 1.15732 1.00015 0.169257 0.156546
threshold=0.19334815482076564 0.1527294460855306 0.039502867969371754 0.05191249523343041 0.028372147079639153 1.0000000180025095e-35 0.13709713334943327 0.034454443422435012 0.034513201211815156 0.058948033194698407 0.23875881811734581 0.1459708467534159 0.067750641022399666 0.65930346486149471 0.091588954369504816 0.09609841775967011 0.14773493434868126 0.092592395071077208 0.085054733310493805 0.12368386375049727 0.15549014047296109 0.055812885267065952 0.51268079244516973
decision_type=2 2 2 2 2 2 2 2 2 2 2 2 2 2 2 2 2 2 2 2 2 2 2
left_child=2 7 3 4 5 15 -7 21 -6 -3 13 14 -10 16 19 -1 18 -18 -4 -9 -14 -2 -20
right_child=1 9 10 -5 8 6 -8 11 12 -11 -12 -13 20 -15 -16 -17 17 -19 22 -21 -22 -23 -24
leaf_value=-0.17768508932365076 0.20237345801488679 -0.11841669987514591 -0.12767738572647472 -0.1469111178792348 -0.017660437812687571 0.16903498895010277 -0.02528065931320965 0.22237653945375704 0.048436700854884135 0.055684194129837196 0.012820448189400627 0.012820448189400627 0.22237653945375721 -0.017660437812687606 0.078354353093890314 -0.044331213064514791 0.0023426436261827915 -0.1526812375250628 -0.17768508932365076 0.16236729513714601 0.16236729513714596 0.22237653945375721 -0.1576820078847804
leaf_weight=6.4989984929561615 4.9992296099662772 6.7489599734544736 7.9987673759460476 9.7484977394342405 4.9992296099662807 7.4988444149494171 5.249191090464592 8.9986132979393059 5.7491140514612225 5.9990755319595337 5.2491910904645911 5.2491910904645911 6.2490370124578458 4.9992296099662772 6.2490370124578467 5.249191090464592 4.9992296099662763 7.9987673759460449 17.997226595878605 4.9992296099662772 4.9992296099662781 27.495762854814529 4.9992296099662772
leaf_count=26 20 27 32 39 20 30 21 36 23 24 21 21 25 20 25 21 20 32 72 20 20 110 20
internal_value=0.0248289 0.141799 -0.0500636 0.0125664 0.0460053 -0.0103124 0.0890227 0.180991 0.108723 -0.0364869 -0.115003 0.132167 0.145894 -0.128698 0.163108 -0.118101 -0.141316 -0.0930567 -0.161554 0.200945 0.195706 0.219299 -0.173337
internal_weight=181.222 70.7391 110.483 56.2413 46.4928 24.4962 12.748 57.9911 21.9966 12.748 54.2416 25.4961 16.9974 48.9925 20.2469 11.7482 43.9932 12.998 30.9952 13.9978 11.2483 32.495 22.9965
internal_count=725 283 442 225 186 98 51 232 88 51 217 102 68 196 81 47 176 52 124 56 45 130 92
is_linear=0
shrinkage=1


Tree=1
num_leaves=28
num_cat=0
split_feature=9 7 2 17 6 16 238 153 1 87 222 241 76 216 216 154 76 134 90 231 119 37 31 10 27 27 27
split_gain=129.534 40.5109 36.5764 24.4315 13.3753 21.349 9.6526 9.5188 9.06284 8.80682 8.10985 7.72529 7.06604 6.52261 7.85529 5.39189 4.57414 3.03672 1.82761 1.15174 1.04406 0.174702 0.0119842 0.00407018 0.000956005 1.42109e-14 7.10543e-15
threshold=0.19334815482076564 0.1527294460855306 0.039502867969371754 0.05191249523343041 0.028372147079639153 1.0000000180025095e-35 0.11478814557399682 0.13709713334943327 0.034454443422435012 0.092520822835245264 0.22648385637053789 0.1459708467534159 0.047670983365566959 0.053934265971692257 0.035347866866911902 0.091588954369504816 0.10829508532610221 0.19493270158682932 0.217655827531303 0.040932697867275304 0.098004568745718765 0.23609960048082587 0.14866959208806357 0.13094485129929498 0.056278149925013059 0.21656211426276237 0.09207817552138757
decision_type=2 2 2 2 2 2 2 2 2 2 2 2 2 2 2 2 2 2 2 2 2 2 2 2 2 2 2
left_child=2 8 3 4 5 16 -6 -7 21 -3 13 15 -8 14 -4 20 -1 19 -14 -15 -10 24 23 -21 -2 26 -26
right_child=1 9 10 -5 6 7 12 -9 11 -11 -12 -13 18 17 -16 -17 -18 -19 -20 22 -22 -23 -24 -25 25 -27 -28
leaf_value=-0.1855695291639301 0.18159826965723397 -0.13379616636604444 -0.15222662349334712 -0.1554015244326663 -0.046367787021804864 0.1307327206085474 0.011983016946271597 -0.045098323293058455 0.12604148966805659 0.032891450532161269 -0.0082855606802024299 -0.010806277695247028 0.18692460275134534 -0.14585524765121632 0.017298763952074536 0.04824253839598288 -0.059816179822390458 -0.10604972598500227 0.10751358572695908 -0.18435869280008788 0.18225289840079151 0.15989629243143497 -0.19104648334295693 -0.18808251754981525 0.18006138249404074 0.18006138249404099 0.18006138249404099
leaf_weight=6.4563247263431549 4.9486305713653591 6.7311566919088346 5.7192497253417951 9.6975801140069944 4.9849159866571453 7.4466799199581146 4.9829718470573452 5.2491613626480103 5.4396856576204362 5.9905865043401718 5.2449595481157294 5.2497843950986853 6.9454753845930082 9.6944171041250247 5.2354574203491211 6.2404170632362357 5.2400609850883484 8.457906559109686 4.9734310507774353 6.7007886320352572 8.4171500056982023 4.9392149448394767 7.7223057597875586 5.2230648100376129 5.4325610399246278 5.4325610399246207 11.358991265296934
leaf_count=26 20 27 23 39 20 30 20 21 22 24 21 21 28 39 21 25 21 34 20 27 34 20 31 21 22 22 46
internal_value=1.5985e-05 0.106163 -0.0677218 -0.0110796 0.0191625 -0.0317618 0.0759162 0.0580345 0.141912 -0.055304 -0.126439 0.0972105 0.111982 -0.13915 -0.0712073 0.125427 -0.129231 -0.158842 0.153789 -0.17406 0.160186 0.177197 -0.187977 -0.18599 0.180341 0.180061 0.180061
internal_weight=180.155 70.1807 109.975 55.9766 46.279 24.3922 21.8868 12.6958 57.459 12.7217 53.9981 25.347 16.9019 48.7532 10.9547 20.0973 11.6964 37.7985 11.9189 29.3406 13.8568 32.112 19.6462 11.9239 27.1727 22.2241 16.7916
internal_count=725 283 442 225 186 98 88 51 232 51 217 102 68 196 44 81 47 152 48 118 56 130 79 48 110 90 68
is_linear=0
shrinkage=0.1


Tree=2
num_leaves=28
num_cat=0
split_feature=9 7 2 17 6 16 133 37 1 87 196 199 228 222 216 123 76 54 184 232 134 199 90 134 37 27 27
split_gain=106.835 33.7098 30.1193 20.1653 10.9572 17.5579 8.16704 7.95406 7.89286 7.21418 6.89152 6.86214 7.71138 6.78235 5.49509 7.28688 3.91829 2.7473 2.65266 1.27686 0.177556 0.176761 0.00806679 0.0018259 0.000353463 0.000419296 7.10543e-15
threshold=0.19334815482076564 0.1527294460855306 0.039502867969371754 0.05191249523343041 0.028372147079639153 1.0000000180025095e-35 0.19310742360039931 0.15362015118528602 0.034454443422435012 0.092520822835245264 0.10248110125562727 0.15766103107743004 0.22852568901886453 0.22648385637053789 0.053934265971692257 0.13278345985859932 0.10829508532610221 0.14280728008267854 0.20728694973984732 0.089680760716603705 0.050401123363362957 0.25789866431604419 0.13312071646698656 0.14949342079955663 0.23134011637673432 0.060691766313493607 0.12641805689463192
decision_type=2 2 2 2 2 2 2 2 2 2 2 2 2 2 2 2 2 2 2 2 2 2 2 2 2 2 2
left_child=2 8 3 4 5 16 10 -7 20 -3 -6 17 -13 14 15 -4 -1 -10 19 -16 -2 22 -21 -24 25 -22 -27
right_child=1 9 13 -5 6 7 -8 -9 11 -11 -12 12 -14 -15 18 -17 -18 -19 -20 21 24 -23 23 -25 -26 26 -28
leaf_value=-0.17109265725310088 0.14639324635655313 -0.1215980198256129 -0.14334033326018705 -0.14243307537754676 0.10954291042397334 0.12250601384080384 0.15245101455218821 -0.037916824490191271 0.17664213286370578 0.029613156516307568 -0.033279566730644264 -0.037347471694578735 0.12343391913951729 -0.0074575427733711537 -0.12088511242060003 0.020575425289630311 -0.054002643286535694 0.082532007415968153 -0.08822629337582194 -0.17647442013603964 0.16792868534065367 -0.15279760807538179 -0.17082927780464743 -0.17338616931243489 0.16803694284023973 0.16686878243934564 0.16686878243934575
leaf_weight=6.3093821108341217 4.8073163181543377 6.6686546355485898 5.6507070958614332 9.5305792987346631 5.6331090331077602 7.110431894659996 7.6138982623815528 5.4670754224061966 7.8083262443542498 5.9884786903858185 8.4410328567028028 6.6793270111083967 5.390496239066124 5.244601994752883 7.1186590641737011 5.2150316685438156 5.224526047706604 5.1464041471481323 6.6391861885786048 7.1072401255369249 4.8175559937954011 5.1059715300798407 5.3390244692563993 5.8564327955245972 5.0599581599235526 6.243765294551852 10.326227217912672
leaf_count=26 20 27 23 39 23 29 31 22 32 24 34 27 22 21 29 21 21 21 27 29 20 21 22 24 21 26 43
internal_value=3.38489e-05 0.0974 -0.0617678 -0.0100925 0.0174467 -0.0289427 0.0690196 0.0527749 0.130562 -0.0500554 0.0238845 0.0887103 0.034459 -0.115435 -0.127224 -0.0646687 -0.118054 0.139256 -0.145513 -0.157972 0.164072 -0.16925 -0.17384 -0.172167 0.167285 0.167108 0.166869
internal_weight=177.543 68.9365 108.607 55.33 45.7995 24.1114 21.688 12.5775 56.2794 12.6571 14.0741 25.0246 12.0698 53.2769 48.0323 10.8657 11.5339 12.9547 37.1665 30.5273 31.2548 23.4087 18.3027 11.1955 26.4475 21.3875 16.57
internal_count=725 283 442 225 186 98 88 51 232 51 57 102 49 217 196 44 47 53 152 125 130 96 75 46 110 89 69
is_linear=0
shrinkage=0.1


Tree=3
num_leaves=25
num_cat=0
split_feature=9 7 2 17 195 6 16 70 1 67 45 177 139 189 230 195 229 206 77 73 131 134 199 216
split_gain=88.7876 28.322 25.0585 16.8034 10.2006 10.5013 9.90878 8.00269 7.13176 6.65066 6.41943 6.14121 5.17189 4.88634 4.20532 3.9225 2.66423 0.19154 0.182025 0.158855 0.063273 0.00029917 0.000117373 4.01595e-05
threshold=0.19334815482076564 0.1527294460855306 0.039502867969371754 0.05191249523343041 0.13887322814329309 0.028372147079639153 1.0000000180025095e-35 0.092921362069684557 0.034454443422435012 0.058948033194698407 0.19587707179537492 0.037543715176106961 0.16718410291927152 0.018938256604275502 0.14101105181749826 0.21187286745890913 0.14592540589144468 0.058618635412348005 0.22572544224702124 0.13646193681880972 0.12036180543604647 0.065894893102070418 0.11615727612913557 0.11164282068163461
decision_type=2 2 2 2 2 2 2 2 2 2 2 2 2 2 2 2 2 2 2 2 2 2 2 2
left_child=2 8 3 4 5 6 -1 -7 18 -3 14 -4 17 -14 -10 -6 19 -13 21 -15 -19 -2 -23 -24
right_child=1 9 11 -5 15 7 -8 -9 10 -11 -12 12 13 16 -16 -17 -18 20 -20 -21 -22 22 23 -25
leaf_value=-0.13758638875704968 0.15773464127656656 -0.11484710309814339 -0.033556144877681833 -0.13178272184367706 0.14026133745052713 -0.013912773012886523 0.010129594879603084 0.1358422232574332 0.16803593044846224 0.030942701983918748 0.012766912646780912 -0.14516219880819009 -0.028309190121805824 -0.16760747496014425 0.06480099679542263 0.026027243676295622 -0.07245675990925049 -0.16235567900801468 0.13552567615641242 -0.14236144499668577 -0.17606633383704562 0.15722863616330293 0.15658816886753321 0.15695772388090642
leaf_weight=9.1229290813207626 5.5689894258976045 6.5779536515474302 9.5098412036895734 9.2833258062601072 7.2909297943115217 8.3800209015607816 9.042008176445961 6.2147968858480445 8.3537794947624224 5.9678590297698975 8.807187154889105 4.761558189988139 8.0304589718580264 5.2730449140071887 7.4782167673110953 5.1144353002309799 6.2528599351644507 7.5590091347694379 4.6275275349616996 4.7263617664575577 6.0678026080131531 7.1762569397687939 8.0774777680635435 4.6238434463739386
leaf_count=38 24 27 39 39 30 34 37 26 35 24 36 20 33 22 31 21 26 32 20 20 25 31 35 20
internal_value=4.54838e-05 0.0900167 -0.0567061 -0.0092489 0.0159369 -0.0133077 -0.0640574 0.0498562 0.12109 -0.045497 0.0812028 -0.106226 -0.122421 -0.0921252 0.119273 0.0931654 -0.123658 -0.162428 0.153769 -0.155675 -0.168461 0.157087 0.156905 0.156723
internal_weight=173.888 67.2591 106.629 54.4484 45.1651 32.7598 18.1649 14.5948 54.7133 12.5458 24.6392 52.1809 42.6711 24.2827 15.832 12.4054 16.2523 18.3884 30.0741 9.99941 13.6268 25.4466 19.8776 12.7013
internal_count=725 283 442 225 186 135 75 60 232 51 102 217 178 101 66 51 68 77 130 42 57 110 86 55
is_linear=0
shrinkage=0.1


Tree=4
num_leaves=28
num_cat=0
split_feature=9 7 2 17 194 246 1 241 52 74 20 210 168 71 154 31 157 186 215 130 203 136 78 77 134 199 40
split_gain=74.1136 23.973 20.9477 14.1001 8.44147 8.3042 6.61736 6.02112 5.84713 5.82334 6.0265 5.82144 5.5593 4.95406 4.30203 3.43467 4.93637 1.07039 0.986905 0.206918 0.190294 0.0194882 0.00948955 0.000293451 0.000191546 7.21773e-05 5.04876e-06
threshold=0.19334815482076564 0.1527294460855306 0.039502867969371754 0.05191249523343041 0.029594336233110603 0.19499770745833114 0.034454443422435012 0.1459708467534159 0.12632846809645584 0.23875881811734581 0.65930346486149471 0.14268931687681197 0.20983986230909765 0.077240638752443455 0.091588954369504816 0.13552192481622213 0.090594928072059003 0.10521485782225241 0.15334960811974876 0.21597467678206492 0.042244960225955412 0.03619798492635571 0.137272134582369 0.20532715974729987 0.065894893102070418 0.11615727612913557 0.23525803932631867
decision_type=2 2 2 2 2 2 2 2 2 2 2 2 2 2 2 2 2 2 2 2 2 2 2 2 2 2 2
left_child=2 6 3 4 13 8 20 14 -6 10 15 -3 -10 -1 17 18 -17 -8 19 21 -2 -4 -23 24 -22 -26 -27
right_child=1 11 9 -5 5 -7 7 -9 12 -11 -12 -13 -14 -15 -16 16 -18 -19 -20 -21 23 22 -24 -25 25 26 -28
leaf_value=-0.13922104065972341 0.12637508647522316 -0.11174378033022694 -0.16214315214359951 -0.1227868965975298 0.13134459211598948 -0.054818833925147858 0.097579503461820691 -0.020771662108428499 -0.02231271074152005 0.0020870660685964998 -0.0034104218214616095 0.02526044527977582 0.089768415175408262 -0.0016916230924935906 0.031665499894556519 -0.016002877546227156 -0.13411097560511678 0.15662382880172543 -0.10179845227971973 -0.13321196647112876 0.14936253071474123 -0.15235202086062027 -0.15803843101482515 0.14968244702069525 0.14888879933010699 0.1483761274936416 0.14852264063257931
leaf_weight=4.7517791837453824 4.4143552929163006 6.0436149537563306 5.4183083474636176 8.9826685488224012 8.8464912623167056 7.4025538116693488 5.0571270585060173 5.2087810337543479 9.1658909916877764 5.2121169567108145 4.7956378459930411 6.3707509189844131 8.5567630380392057 5.836113914847374 6.134019508957862 6.2816382944583884 8.1042235940694791 7.8152392506599426 4.7310051769018164 4.5531179755926123 4.4251217842102113 6.5375265032052976 5.3253025114536285 4.4348194152116767 5.9543338716030112 5.0539489537477476 4.3992662280797958
leaf_count=20 20 25 23 39 37 31 22 21 38 21 20 26 36 24 25 26 35 34 20 20 20 29 23 20 27 23 20
internal_value=5.78031e-05 0.0836239 -0.0521696 -0.00849093 0.0145497 0.0388485 0.112974 0.0744809 0.0649456 -0.0980625 -0.109473 -0.0414365 0.0318017 -0.063414 0.100585 -0.121894 -0.0825387 0.133427 -0.143205 -0.152177 0.145473 -0.157174 -0.154905 0.148947 0.148783 0.148616 0.148444
internal_weight=169.813 65.3114 104.501 53.5423 44.5596 33.9717 52.897 24.2152 26.5691 50.9589 45.7468 12.4144 17.7227 10.5879 19.0064 40.9511 14.3859 12.8724 26.5653 21.8343 28.6818 17.2811 11.8628 24.2675 19.8327 15.4075 9.45322
internal_count=725 283 442 225 186 142 232 102 111 217 196 51 74 44 81 176 61 56 115 95 130 75 52 110 90 70 43
is_linear=0
shrinkage=0.1


Tree=5
num_leaves=29
num_cat=0
split_feature=2 8 8 43 57 16 14 159 179 218 1 218 124 183 65 197 197 141 30 119 116 30 57 218 9 203 223 128
split_gain=62.4118 18.5205 20.486 14.9738 12.2638 9.72098 9.65022 6.25734 7.75788 6.00456 5.71243 7.58873 6.02289 4.25251 4.48869 4.02736 3.13274 2.26465 1.36301 1.2179 0.675946 0.200673 0.0807758 0.0529917 0.0353796 0.000247273 0.00012317 5.9686e-05
threshold=0.72789101649422816 0.11408082197922502 0.059327400051915301 0.21275067728554928 0.14427321495085274 1.0000000180025095e-35 0.17082368346267326 0.10362373409050706 0.064028878193941222 0.085256406157660863 0.024860874745214704 0.056991060369662554 0.18577196195029402 0.046770467243716106 0.12116368434779232 0.11457865103135272 0.14240127373500214 0.094029366790546062 0.20261807534554863 0.10724935557218331 0.079286168978112012 0.24646866533136189 0.09985118680675556 0.13568651386903732 0.1272113865722436 0.047532063182628106 0.0270620344530214 0.098078032390045158
decision_type=2 2 2 2 2 2 2 2 2 2 2 2 2 2 2 2 2 2 2 2 2 2 2 2 2 2 2 2
left_child=1 2 4 6 5 10 13 20 -9 -6 18 -12 19 14 -4 -11 -10 -15 24 -13 23 25 -19 -3 -1 -2 -27 -28
right_child=21 7 3 -5 9 -7 -8 8 16 15 11 12 -14 17 -16 -17 -18 22 -20 -21 -22 -23 -24 -25 -26 26 27 -29
leaf_value=-0.15055325604322506 0.14299167601216764 -0.1629100468161887 0.10642263202129408 -0.10379572610172075 0.11065133559515108 0.031754313412640393 -0.031557886697983581 0.04348453585069717 -0.15789569006107224 -0.078378992819344351 0.045356036844668858 -0.10380444173556028 -0.0072180521116425589 0.075805984088474415 -0.0016409837574748167 0.031474711165322758 -0.046485355358678447 0.15108136893804522 -0.090448666195546396 -0.1730454016469391 -0.10991057003914409 0.11850216248483299 0.1692054162683318 -0.14859266156493484 -0.16162430125509086 0.14254833184062851 0.14220318602274923 0.14177318554523954
leaf_weight=7.1137029826641101 4.4151789844036164 5.5792331248521823 8.448955714702608 5.8467244505882254 5.5386275351047543 7.4419697374105445 7.7235189527273169 5.5329961478710166 5.2000157386064512 5.5626558661460868 5.2514404505491283 5.0223479121923429 5.2858909219503394 4.7576353549957267 7.052100181579589 8.3419536650180799 4.9042555689811707 5.0959004908800107 4.4921488463878623 5.140251025557518 4.5075424164533606 4.1813744008541098 4.7523611485958099 4.817109540104866 4.8575953543186188 5.6533123850822475 6.4694318473339063 6.4426505714654922
leaf_count=32 21 24 36 24 23 31 33 23 23 24 22 22 23 21 30 35 21 23 20 22 20 20 20 22 21 27 31 31
internal_value=7.07095e-05 -0.0271531 -0.00766589 0.0451417 -0.0436774 -0.0725675 0.0681601 -0.0958891 -0.0516993 0.0226002 -0.093458 -0.0584933 -0.0937951 0.0937413 0.0572598 -0.0124732 -0.103821 0.132459 -0.13742 -0.138827 -0.142253 0.138653 0.159827 -0.156276 -0.155046 0.142319 0.142159 0.141989
internal_weight=165.429 138.267 107.726 43.6772 64.0486 44.6053 37.8305 30.5412 15.6373 19.4432 37.1634 20.6999 15.4485 30.107 15.5011 13.9046 10.1043 14.6059 16.4634 10.1626 14.9039 27.1619 9.84826 10.3963 11.9713 22.9806 18.5654 12.9121
internal_count=725 595 462 187 275 193 163 133 67 82 162 89 67 130 66 59 44 64 73 44 66 130 43 46 53 110 89 62
is_linear=0
shrinkage=0.1


Tree=6
num_leaves=28
num_cat=0
split_feature=2 8 8 43 57 16 14 159 152 6 210 78 183 223 240 38 147 27 180 84 68 64 36 87 181 202 46
split_gain=53.6885 15.6262 17.0005 12.334 10.2634 8.1957 8.09257 5.57984 7.12146 5.42647 5.04348 3.82994 3.78068 3.93755 3.70896 2.16116 1.86599 0.650032 0.5569 0.212357 0.0525334 0.0359611 0.0297926 0.000166054 9.86282e-05 3.87377e-05 1.86355e-05
threshold=0.72789101649422816 0.11408082197922502 0.059327400051915301 0.21275067728554928 0.14427321495085274 1.0000000180025095e-35 0.17082368346267326 0.10362373409050706 0.12370288528413502 0.56661436365807083 0.15135811211250469 0.18155047928908416 0.046770467243716106 0.10823079564520101 0.092426524346069364 0.08242272364195026 0.090414097561013165 0.18846366299646436 0.10705263205721226 0.17718865812123338 0.19932560285671463 0.099782998778462265 0.097748445098512673 0.15215600127819937 0.084962790425614457 0.074622053471301464 0.14057259433929778
decision_type=2 2 2 2 2 2 2 2 2 2 2 2 2 2 2 2 2 2 2 2 2 2 2 2 2 2 2
left_child=1 2 4 6 5 9 12 17 -9 11 14 16 13 -4 -6 20 -1 22 21 23 -14 -18 -3 24 -2 -26 -27
right_child=19 7 3 -5 10 -7 -8 8 -10 -11 -12 -13 15 -15 -16 -17 18 -19 -20 -21 -22 -23 -24 -25 25 26 -28
leaf_value=-0.07030593824696689 0.13707049531285012 -0.14249724568590855 -0.0037497753283939044 -0.093612175857884797 -0.0013930631489641248 0.028713990414678661 -0.028575815064158069 0.020971426236069124 -0.11515216178373247 -0.0017173690503275545 -0.039273499397751363 -0.040301745496174983 0.15878402604041519 0.098252429080736309 0.11472670047346695 0.066805812977707144 -0.14577771183581609 -0.10188226818171303 -0.1094514196689477 0.1115936504744677 0.14395186697787965 -0.1564785446958159 -0.15348203305831076 0.13734383276994222 0.13678835628098621 0.13625616269033755 0.13656107923826968
leaf_weight=4.9844168126583162 4.7350004613399603 4.5863724946975726 6.8846162259578731 5.8348693847656241 4.8798202872276324 7.4087582081556311 7.678996428847312 7.6444089114665967 7.7291845977306366 6.214139148592948 8.1759250164031965 7.1038280874490729 4.5395492166280729 8.404397323727606 6.3043299168348312 4.4752216637134543 8.1179862469434756 4.3031754940748206 4.5764758288860312 3.9399436414241782 5.038258820772171 5.1219561994075766 5.3481458723545074 4.9484633654355994 3.9319528490304938 4.1008965671062452 3.9206668734550476
leaf_count=23 24 22 29 24 21 31 33 32 35 26 35 31 20 37 26 20 38 20 21 20 24 23 24 25 20 21 20
internal_value=7.51376e-05 -0.0250326 -0.00705247 0.041519 -0.0401524 -0.0670947 0.0628169 -0.0892405 -0.0474657 -0.0867471 0.0204224 -0.104416 0.086735 0.052321 0.0640618 0.124176 -0.124392 -0.134348 -0.139523 0.132947 0.150982 -0.149917 -0.148411 0.136835 0.136684 0.136531 0.136405
internal_weight=160.932 135.355 105.744 42.8559 62.8876 43.5276 37.021 29.6113 15.3736 36.1188 19.3601 29.9047 29.342 15.289 11.1842 14.053 22.8008 14.2377 17.8164 25.5769 9.57781 13.2399 9.93452 21.637 16.6885 11.9535 8.02156
internal_count=725 595 462 187 275 193 163 133 67 162 82 136 130 66 47 64 105 66 82 130 44 61 46 110 85 61 41
is_linear=0
shrinkage=0.1


Tree=7
num_leaves=29
num_cat=0
split_feature=2 10 9 43 1 16 6 45 199 76 154 217 39 193 57 152 203 87 127 149 1 202 226 215 229 72 196 129
split_gain=46.4081 13.3778 11.8428 11.2051 10.7075 9.95301 11.4065 7.86433 7.40215 6.73099 6.46674 5.17163 5.87249 6.77587 5.60991 4.91892 4.36066 6.19583 3.88298 1.40152 1.15726 0.870301 0.223875 0.0303641 0.00841712 0.000111811 7.43891e-05 5.42412e-05
threshold=0.72789101649422816 0.16624427251053156 0.19334815482076564 0.21275067728554928 0.5667123161507075 1.0000000180025095e-35 0.56661436365807083 0.20115407938284499 0.09951678010670377 0.057606487247949555 0.10149380365339311 0.077824964502122868 0.22894429169839689 0.16325252806719778 0.14427321495085274 0.13788143073885642 0.13164970369978105 0.094126806357352308 0.079141618901184818 0.21694707178053649 0.089752988049089766 0.13871195593729443 1.0000000180025095e-35 0.067355131461818166 0.14482564949652696 0.091095170653778909 0.11778089749343092 0.10993962694140157
decision_type=2 2 2 2 2 2 2 2 2 2 2 2 2 2 2 2 2 2 2 2 2 2 2 2 2 2 2 2
left_child=1 2 4 10 5 6 11 -8 -6 -7 16 20 13 14 15 18 17 -4 -13 23 24 -14 -2 -3 -1 27 -27 -24
right_child=22 19 3 -5 8 9 7 -9 -10 -11 -12 12 21 -15 -16 -17 -18 -19 -20 -21 -22 -23 25 -25 -26 26 -28 -29
leaf_value=-0.13933280043157148 0.10548177568844914 -0.13705877619965853 -0.0079967420692512725 -0.086226070508009539 0.14985686735660572 0.10907178587702836 -0.052144188017137633 0.12751828541067223 -0.016725420898010854 -0.039969261974380846 -0.003384773043841867 0.066128041425051798 -0.14535815432686272 -0.12011792339928512 0.072210289773164626 -0.12319540058715124 0.17498251421119304 0.13557647969918254 -0.061904877988792607 -0.075090189210400823 -0.08100950478932456 -0.086431854913528575 0.13225874357863801 -0.14909617369517886 -0.14477274571466753 0.13220063479401042 0.13275156897811238 0.13180019844293486
leaf_weight=7.4566517472267169 3.7003842741251018 3.9236107766628248 5.6772709935903602 5.8318104594945899 5.051325395703314 6.3612561225891096 4.8042430132627469 4.9433033615350723 5.6523240953683853 5.7866176217794418 8.7409504204988462 4.6781551539897972 6.3215183615684492 6.8618981242179862 6.4167920202016822 4.7718028128147116 5.5709805041551581 6.387543573975563 4.7984170913696289 4.650110885500907 4.3053317070007315 4.1530309021472931 4.6098811924457568 4.4976662248373032 4.59827721118927 4.9740864634513837 4.8312346935272217 5.8575325012207031
leaf_count=37 20 20 26 24 23 27 20 21 24 24 37 20 30 32 27 23 25 31 21 21 20 19 25 21 22 27 26 32
internal_value=8.68195e-05 -0.02312 -0.0125862 0.0392127 -0.0317714 -0.0449178 -0.0606441 0.0389686 0.061889 0.0380764 0.0669468 -0.0785055 -0.0582678 -0.0340186 -0.00542913 -0.0403942 0.101806 0.068016 0.00129918 -0.119156 -0.125514 -0.121995 0.128101 -0.143488 -0.141408 0.132229 0.132472 0.132002
internal_weight=156.214 132.241 119.17 32.2086 86.9609 76.2573 64.1094 9.74755 10.7036 12.1479 26.3767 54.3619 38.0016 27.5271 20.6652 14.2484 17.6358 12.0648 9.47657 13.0714 16.3603 10.4745 23.9731 8.42128 12.0549 20.2727 9.80532 10.4674
internal_count=725 595 533 143 390 343 292 41 47 51 119 251 172 123 91 64 82 57 41 62 79 49 130 41 59 110 53 57
is_linear=0
shrinkage=0.1


Tree=8
num_leaves=28
num_cat=0
split_feature=2 0 185 1 16 6 2 228 199 1 188 181 232 77 227 188 159 181 43 229 2 215 230 204 34 220 148
split_gain=40.3001 11.504 10.1768 9.24772 9.31508 9.42683 11.9847 6.80493 6.63207 6.47487 5.95272 5.95019 5.6246 3.6797 2.43551 1.87242 2.02788 0.804214 1.05245 0.238756 0.127623 0.0350294 0.0252155 0.00364601 0.000189869 2.82127e-05 1.48223e-05
threshold=0.72789101649422816 0.86473163311908241 0.19044891165815633 0.5667123161507075 1.0000000180025095e-35 0.56661436365807083 0.2709634996455817 0.12734355412499301 0.09951678010670377 0.032731273382591908 0.10577146908697961 0.11807050692935027 0.054932542168773961 0.26795117802687235 0.019845815115497902 0.041470746948273109 0.20013335027370097 0.19784580465976453 0.14259402324534795 0.18001219901386742 0.13135007680375768 0.10378813753355681 0.15770273582646152 0.15896893565449682 0.13036081780256928 0.13491589617557598 0.063740198802423556
decision_type=2 2 2 2 2 2 2 2 2 2 2 2 2 2 2 2 2 2 2 2 2 2 2 2 2 2 2
left_child=1 2 3 4 5 6 12 -6 -5 -4 -3 -8 -1 14 -14 -16 17 20 -19 24 21 23 -23 -17 -2 26 -26
right_child=19 10 9 8 7 -7 11 -9 -10 -11 -12 -13 13 -15 15 16 -18 18 -20 -21 -22 22 -24 -25 25 -27 -28
leaf_value=-0.011860380395925654 0.12878756638043704 0.1324537939924206 -0.016094505473084785 0.14359700016672003 0.11960677475168689 0.036711454101275971 -0.069955415461816467 -0.038838160605632652 -0.021579144036062901 0.15256567817636382 -0.0019432013150828863 0.075358569615745483 -0.044126999551374751 -0.024647993445687577 -0.057752125211593452 -0.13282482865577402 -0.062190001253499584 -0.087490631477062875 -0.14028500685669573 0.099777916980485298 -0.15904668723086612 -0.13872973469213012 -0.14951360727224744 -0.13720907555220005 0.12790749316160077 0.12835416210843012 0.12816740243030764
leaf_weight=8.2602815926074964 6.4204910546541276 6.7690753340721113 4.4643437862396222 4.3898180872201902 5.2388209253549558 8.9029262810945493 4.5503507405519468 5.616769552230835 5.447138324379921 4.6439001113176346 6.4224919825792313 7.4008965194225311 5.2241806536912909 5.7879953533411017 4.8910032212734214 3.6997499316930833 4.799518793821334 7.5659770816564542 7.5378403067588806 3.4605275541543952 4.508632391691207 4.1456676423549634 4.5459223836660385 3.8924462795257568 4.9464641362428647 3.6135402023792258 3.943419873714447
leaf_count=38 37 33 20 21 23 38 21 23 23 21 29 34 24 26 23 20 22 36 38 20 20 21 21 20 29 21 23
internal_value=8.91069e-05 -0.0214491 -0.0315522 -0.0402363 -0.0496453 -0.0606982 -0.0719888 0.0376261 0.052132 0.069898 0.0670208 0.0200313 -0.0889448 -0.100195 -0.108801 -0.116212 -0.123238 -0.131401 -0.113839 0.123929 -0.144158 -0.140035 -0.14437 -0.135073 0.128346 0.128119 0.128023
internal_weight=151.09 128.706 115.514 106.406 96.569 85.7134 76.8105 10.8556 9.83696 9.10824 13.1916 11.9512 64.8592 56.5989 50.8109 45.5868 40.6958 35.8962 15.1038 22.3844 20.7924 16.2838 8.69159 7.5922 18.9239 12.5034 8.88988
internal_count=725 595 533 492 448 402 364 46 44 41 62 55 309 271 245 221 198 176 74 130 102 82 42 40 110 73 52
is_linear=0
shrinkage=0.1


Tree=9
num_leaves=29
num_cat=0
split_feature=2 10 9 43 1 125 180 16 117 199 70 47 65 6 0 186 187 177 149 1 234 177 38 142 243 75 34 198
split_gain=35.098 10.4536 8.78881 8.38026 7.53084 7.59748 6.05986 9.08234 5.88408 5.69601 5.18981 5.0121 4.30097 4.12806 6.82268 5.82656 4.62263 3.40908 1.48468 1.29767 1.19043 0.411248 0.266173 0.258269 0.0200288 0.000196855 7.77479e-05 2.08187e-05
threshold=0.72789101649422816 0.16624427251053156 0.19334815482076564 0.21275067728554928 0.5667123161507075 0.068472626244862111 0.11621455185082817 1.0000000180025095e-35 0.023666888032903451 0.09951678010670377 0.063864186645214469 0.20886279455161688 0.13149048169852698 0.56661436365807083 0.059851186948128854 0.10680215529541247 0.17650951864906592 0.061947114397137806 0.21694707178053649 0.070780298012563858 0.10860540025286361 0.11748354636511456 0.064338606097610065 0.034877723264919454 0.10810279165437982 0.15488064550452921 0.13036081780256928 0.11976581629635095
decision_type=2 2 2 2 2 2 2 2 2 2 2 2 2 2 2 2 2 2 2 2 2 2 2 2 2 2 2 2
left_child=1 2 4 8 5 11 7 13 -4 -6 -10 17 -8 14 16 -16 -7 -1 24 21 -12 -19 -22 -2 -3 26 -25 -28
right_child=23 18 3 -5 9 6 12 -9 10 -11 20 -13 -14 -15 15 -17 -18 19 -20 -21 22 -23 -24 25 -26 -27 27 -29
leaf_value=-0.036447699384575392 0.094249998338481841 -0.12986850322861548 -0.039343288506034593 -0.074363384161473395 0.13726902538459088 -0.14242241808762029 -0.12446721529768606 0.12789799188470238 0.012668979361075272 -0.01350250672174625 0.082467662986724283 0.006068950534431918 -0.0030191605412879332 0.068687531088755541 0.1034826657225332 -0.042457066080426695 -0.0077358718001511511 -0.12417813716819924 -0.062296570850223665 -0.081062965339045195 0.12411428424794886 -0.1619136024978115 0.16024043283950773 0.12529003271439687 -0.14012567726434019 0.12567902994335628 0.12489529103297144 0.12460984286332318
leaf_weight=6.1581469476223054 3.2196561694145229 3.674365282058714 4.8387714028358522 5.7115185111761084 4.4902439415454847 6.518847152590757 6.9560242891311628 5.4134346395730963 6.8833905011415508 5.6695106476545334 5.3040096312761298 5.5394407212734214 5.0206652134656906 4.9090962409973136 4.9091121554374677 6.179047703742981 4.1836456507444382 6.1328707188367861 4.4118312299251556 5.0151245146989814 3.8442028313875181 5.4585366249084473 4.3442752361297607 3.3826418817043331 3.9504540115594864 3.9005717784166327 4.6275492459535581 5.7050094455480576
leaf_count=28 20 21 21 24 23 33 33 24 32 24 26 26 23 21 21 29 20 33 21 26 20 26 20 21 20 24 29 36
internal_value=9.60832e-05 -0.0198562 -0.0104573 0.0350112 -0.0274907 -0.0388054 -0.0128493 0.00979133 0.0597863 0.0531331 0.0833271 -0.0792377 -0.0735558 -0.0141551 -0.0328182 0.0221555 -0.0897729 -0.0999957 -0.108468 -0.123561 0.119374 -0.141948 0.14328 0.120292 -0.135183 0.125052 0.124874 0.124738
internal_weight=146.352 125.517 113.48 30.9262 82.5537 72.394 44.0899 32.1132 25.2146 10.1598 20.3759 28.3041 11.9767 26.6997 21.7907 11.0882 10.7025 22.7647 12.0367 16.6065 13.4925 11.5914 8.18848 20.8354 7.62482 17.6158 13.7152 10.3326
internal_count=725 595 533 143 390 343 204 148 119 47 98 139 56 124 103 50 53 113 62 85 66 59 40 130 41 110 86 65
is_linear=0
shrinkage=0.1


Tree=10
num_leaves=27
num_cat=0
split_feature=2 10 9 43 1 125 154 48 49 6 39 180 16 78 47 34 177 52 149 1 177 38 243 219 72 65
split_gain=30.6599 9.04324 7.33696 6.94168 6.30772 6.41304 5.41163 9.10293 5.36307 5.2101 8.27212 7.5763 7.84568 5.1783 4.35579 3.28237 3.1307 3.10909 1.44988 1.19758 0.329791 0.276712 0.0135968 0.000145283 4.9685e-05 2.62172e-05
threshold=0.72789101649422816 0.16624427251053156 0.19334815482076564 0.21275067728554928 0.5667123161507075 0.068472626244862111 0.06657217725803706 0.19246688779326118 0.13478436677464981 0.56661436365807083 0.22894429169839689 0.11621455185082817 1.0000000180025095e-35 0.10807298309727312 0.20886279455161688 0.19577339368973454 0.061947114397137806 0.16205607723587914 0.21694707178053649 0.070780298012563858 0.11748354636511456 0.020239839579941753 0.10810279165437982 0.057674418340160953 0.11514874016034336 0.066601469493942064
decision_type=2 2 2 2 2 2 2 2 2 2 2 2 2 2 2 2 2 2 2 2 2 2 2 2 2 2
left_child=1 2 4 6 5 14 17 -8 -6 10 11 12 13 15 16 -7 -1 -4 22 20 -18 -2 -3 -23 25 -25
right_child=21 18 3 -5 8 9 7 -9 -10 -11 -12 -13 -14 -15 -16 -17 19 -19 -20 -21 -22 23 -24 24 -26 -27
leaf_value=-0.033032252274581106 0.08914153230799042 -0.12625920205603464 0.15607975741096722 -0.067740335177234851 0.1148249576946147 -0.13514279983604047 -0.056088813724236089 0.10982763037359725 -0.0335573506180551 0.06464010715078998 -0.12616093951571611 -0.09433223615619446 0.13518532881255527 0.043869345637094125 0.0054570429287498909 -0.0054181149137895041 -0.11915046287262424 0.049588849332422504 -0.057359008689586426 -0.075838436618042196 -0.1539036381441316 0.12261808461821309 -0.13500771662211083 0.12205674800127775 0.12229363474373056 0.12167163012477895
leaf_weight=6.117605969309813 2.995360508561137 3.4148016571998578 5.9733138978481346 5.64639788866043 5.5220882743597013 3.727781757712374 7.9435868263244611 5.6649769693613052 4.3583553433418274 7.3741221427917472 6.8864741325378409 7.0494291931390753 4.979748234152793 9.0396451354026777 5.5442601293325415 4.0910366624593735 5.7712578028440458 5.0674919784069061 4.3175279945135117 4.8341808170080176 5.1825639456510544 5.5644621998071697 3.702927753329277 3.1081550717353803 3.576745942234993 4.0986019521951675
leaf_count=28 20 21 30 24 27 20 36 27 20 32 36 34 23 39 26 20 33 26 21 26 26 37 20 21 24 28
internal_value=0.000103076 -0.0184126 -0.00967254 0.0322732 -0.0254628 -0.0359362 0.0551831 0.0129789 0.0493721 -0.0118968 -0.0276733 -0.00419504 0.0249015 -0.0076748 -0.0737236 -0.067267 -0.093764 0.107203 -0.103078 -0.117297 -0.135593 0.117083 -0.130811 0.122203 0.121989 0.121838
internal_weight=141.553 122.21 110.774 30.2958 80.4785 70.5981 24.6494 13.6086 9.88044 43.1482 35.7741 28.8876 21.8382 16.8585 27.4499 7.81882 21.9056 11.0408 11.4353 15.788 10.9538 19.3433 7.11773 16.348 10.7835 7.20676
internal_count=725 595 533 143 390 343 119 63 47 204 172 136 102 79 139 40 113 56 62 85 59 130 41 110 73 49
is_linear=0
shrinkage=0.1


end of trees

feature_importances:
Column_1=14
Column_2=13
Column_16=10
Column_6=9
Column_9=9
Column_27=7
Column_199=7
Column_43=6
Column_7=5
Column_10=5
Column_17=5
Column_134=5
Column_154=5
Column_177=5
Column_8=4
Column_57=4
Column_70=4
Column_76=4
Column_87=4
Column_216=4
Column_31=3
Column_34=3
Column_37=3
Column_38=3
Column_65=3
Column_77=3
Column_78=3
Column_149=3
Column_159=3
Column_180=3
Column_181=3
Column_195=3
Column_203=3
Column_215=3
Column_218=3
Column_229=3
Column_232=3
Column_241=3
Column_0=2
Column_14=2
Column_20=2
Column_30=2
Column_39=2
Column_45=2
Column_47=2
Column_52=2
Column_67=2
Column_72=2
Column_74=2
Column_90=2
Column_119=2
Column_125=2
Column_152=2
Column_153=2
Column_157=2
Column_183=2
Column_186=2
Column_188=2
Column_194=2
Column_196=2
Column_197=2
Column_202=2
Column_210=2
Column_222=2
Column_223=2
Column_228=2
Column_230=2
Column_243=2
Column_29=1
Column_36=1
Column_40=1
Column_46=1
Column_48=1
Column_49=1
Column_54=1
Column_64=1
Column_68=1
Column_71=1
Column_73=1
Column_75=1
Column_84=1
Column_116=1
Column_117=1
Column_123=1
Column_124=1
Column_127=1
Column_128=1
Column_129=1
Column_130=1
Column_131=1
Column_133=1
Column_136=1
Column_139=1
Column_141=1
Column_142=1
Column_147=1
Column_148=1
Column_168=1
Column_179=1
Column_184=1
Column_185=1
Column_187=1
Column_189=1
Column_193=1
Column_198=1
Column_204=1
Column_206=1
Column_217=1
Column_219=1
Column_220=1
Column_226=1
Column_227=1
Column_231=1
Column_234=1
Column_238=1
Column_240=1
Column_246=1

parameters:
[boosting: gbdt]
[objective: binary]
[metric: auc]
[tree_learner: serial]
[device_type: cpu]
[data_sample_strategy: bagging]
[data: ]
[valid: ]
[num_iterations: 100]
[learning_rate: 0.1]
[num_leaves: 31]
[num_threads: 0]
[seed: 42]
[deterministic: 0]
[force_col_wise: 0]
[force_row_wise: 0]
[histogram_pool_size: -1]
[max_depth: -1]
[min_data_in_leaf: 20]
[min_sum_hessian_in_leaf: 0.001]
[bagging_fraction: 1]
[pos_bagging_fraction: 1]
[neg_bagging_fraction: 1]
[bagging_freq: 0]
[bagging_seed: 400]
[bagging_by_query: 0]
[feature_fraction: 1]
[feature_fraction_bynode: 1]
[feature_fraction_seed: 30056]
[extra_trees: 0]
[extra_seed: 12879]
[early_stopping_round: 0]
[early_stopping_min_delta: 0]
[first_metric_only: 0]
[max_delta_step: 0]
[lambda_l1: 0]
[lambda_l2: 0]
[linear_lambda: 0]
[min_gain_to_split: 0]
[drop_rate: 0.1]
[max_drop: 50]
[skip_drop: 0.5]
[xgboost_dart_mode: 0]
[uniform_drop: 0]
[drop_seed: 17869]
[top_rate: 0.2]
[other_rate: 0.1]
[min_data_per_group: 100]
[max_cat_threshold: 32]
[cat_l2: 10]
[cat_smooth: 10]
[max_cat_to_onehot: 4]
[top_k: 20]
[monotone_constraints: ]
[monotone_constraints_method: basic]
[monotone_penalty: 0]
[feature_contri: ]
[forcedsplits_filename: ]
[refit_decay_rate: 0.9]
[cegb_tradeoff: 1]
[cegb_penalty_split: 0]
[cegb_penalty_feature_lazy: ]
[cegb_penalty_feature_coupled: ]
[path_smooth: 0]
[interaction_constraints: ]
[verbosity: -1]
[saved_feature_importance_type: 0]
[use_quantized_grad: 0]
[num_grad_quant_bins: 4]
[quant_train_renew_leaf: 0]
[stochastic_rounding: 1]
[linear_tree: 0]
[max_bin: 255]
[max_bin_by_feature: ]
[min_data_in_bin: 3]
[bin_construct_sample_cnt: 200000]
[data_random_seed: 175]
[is_enable_sparse: 1]
[enable_bundle: 1]
[use_missing: 1]
[zero_as_missing: 0]
[feature_pre_filter: 1]
[pre_partition: 0]
[two_round: 0]
[header: 0]
[label_column: ]
[weight_column: ]
[group_column: ]
[ignore_column: ]
[categorical_feature: ]
[forcedbins_filename: ]
[precise_float_parser: 0]
[parser_config_file: ]
[objective_seed: 16083]
[num_class: 1]
[is_unbalance: 0]
[scale_pos_weight: 1]
[sigmoid: 1]
[boost_from_average: 1]
[reg_sqrt: 0]
[alpha: 0.9]
[fair_c: 1]
[poisson_max_delta_step: 0.7]
[tweedie_variance_power: 1.5]
[lambdarank_truncation_level: 30]
[lambdarank_norm: 1]
[label_gain: ]
[lambdarank_position_bias_regularization: 0]
[eval_at: ]
[multi_error_top_k: 1]
[auc_mu_weights: ]
[num_machines: 1]
[local_listen_port: 12400]
[time_out: 120]
[machine_list_filename: ]
[machines: ]
[gpu_platform_id: -1]
[gpu_device_id: -1]
[gpu_use_dp: 0]
[num_gpu: 1]

end of parameters

pandas_categorical:null
